{
  "layers": [
    {
      "size": 32,
      "weights": [
        [
          2.06771683e-2,
          1.50997113e-2,
          7.07654095e-3,
          4.93791153e-4,
          1.51819888e-2,
          2.69167269e-2,
          1.53879064e-2,
          2.89559738e-2,
          1.41815625e-2,
          2.40831053e-3,
          1.07919262e-2,
          3.11123002e-2,
          3.96346892e-3,
          1.89337939e-2,
          6.43026607e-3,
          2.74344654e-2,
          2.72078743e-2,
          2.06321568e-2,
          2.42579579e-2,
          9.23736049e-3,
          2.75033086e-3,
          2.02299803e-2,
          2.28872211e-3,
          8.26401778e-3,
          4.21164924e-3,
          2.44782584e-2,
          1.28618285e-2,
          7.90493175e-3,
          8.96101614e-3,
          9.26308304e-3,
          1.02597687e-2,
          2.20677194e-2,
          6.93445293e-3,
          2.55612036e-2,
          1.57023224e-2,
          1.99303879e-2,
          6.76865402e-3,
          2.75785902e-2,
          6.06997918e-3,
          1.42070276e-2,
          2.20505041e-2,
          2.37354383e-2,
          7.38304476e-3,
          -6.69746007e-4,
          -2.17391924e-2,
          5.53135348e-3,
          2.54292143e-2,
          3.10553344e-2,
          2.16564177e-2,
          2.78867891e-2,
          1.01317244e-2,
          3.03616397e-2,
          1.04976844e-2,
          2.7870762e-2,
          2.09212592e-2,
          2.05799344e-2,
          3.03551496e-2,
          2.55647719e-2,
          2.91460453e-2,
          2.18245205e-2,
          5.23762459e-3,
          1.89945327e-3,
          2.15990361e-3,
          2.63846503e-2,
          6.73327804e-3,
          -8.06727238e-3,
          -8.04697166e-3,
          4.95550371e-3,
          -2.54576388e-3,
          2.28836026e-2,
          -2.16314659e-2,
          -1.6342178e-2,
          1.46680437e-3,
          1.39910628e-2,
          4.51935788e-2,
          5.94794129e-2,
          4.59882952e-2,
          3.2698701e-2,
          3.64429272e-2,
          3.28004888e-2,
          2.16728161e-2,
          1.37186926e-2,
          6.37208465e-3,
          7.96679527e-4,
          1.83038081e-2,
          4.2977396e-3,
          5.09649705e-3,
          8.13326399e-3,
          2.268685e-2,
          1.74959159e-2,
          1.42849556e-2,
          2.48177302e-2,
          2.53415732e-3,
          -4.44626498e-2,
          -3.54453743e-2,
          -2.92107855e-2,
          -4.99498602e-2,
          -7.76632771e-2,
          -6.69294105e-2,
          -5.06290837e-2,
          -7.82566618e-2,
          -2.2421014e-2,
          5.73800377e-2,
          1.10928374e-1,
          7.36417166e-2,
          7.66094841e-2,
          6.57132587e-2,
          4.09955554e-2,
          1.82271967e-2,
          2.36643802e-2,
          1.48309442e-3,
          8.09119586e-3,
          1.87988886e-2,
          1.14653981e-3,
          2.26527775e-2,
          1.59875991e-2,
          6.22585459e-3,
          9.11916408e-3,
          -2.50572925e-2,
          -3.2411559e-2,
          -8.07603503e-2,
          -8.72440018e-2,
          -9.12515952e-2,
          -8.17644369e-2,
          -8.61311543e-2,
          -1.34332471e-1,
          -1.08334477e-1,
          -7.17528487e-2,
          -6.54062748e-2,
          -3.00288925e-2,
          -3.10303125e-2,
          -5.43102684e-4,
          -1.46282171e-2,
          1.53882097e-2,
          3.92228916e-2,
          8.24079091e-2,
          5.98843386e-2,
          2.63816555e-2,
          9.47560287e-3,
          2.00170894e-2,
          2.82731439e-2,
          1.32725598e-2,
          2.82653323e-2,
          1.97637427e-2,
          6.93743839e-3,
          -1.24384331e-2,
          -4.13802301e-2,
          -7.68558405e-2,
          -1.13648471e-1,
          -7.35878373e-2,
          -5.82946044e-2,
          -2.99571235e-2,
          5.65495635e-2,
          -6.60872471e-2,
          -2.60556286e-2,
          -6.84205582e-2,
          -7.91837022e-2,
          2.55501377e-2,
          -6.72701903e-2,
          -4.09492181e-2,
          -4.31287931e-2,
          -7.83156537e-2,
          -2.6250275e-2,
          8.88822015e-2,
          6.88805202e-2,
          3.25364687e-2,
          1.63355362e-2,
          1.85014761e-2,
          1.61374691e-2,
          3.19376673e-3,
          7.86985044e-3,
          -7.30030376e-3,
          -1.43383247e-2,
          -1.24829503e-2,
          -5.99370812e-2,
          -9.26847535e-2,
          -8.87754267e-2,
          -1.10783742e-1,
          -8.70955126e-2,
          1.81883874e-2,
          7.40373032e-2,
          -6.78571038e-2,
          -7.3639762e-2,
          -6.70568842e-2,
          -1.29328934e-1,
          -1.37946295e-2,
          -5.74327383e-2,
          -4.50689475e-3,
          3.22787354e-2,
          -9.26929015e-3,
          7.81472297e-2,
          1.43322125e-1,
          1.41605044e-1,
          6.27282649e-2,
          4.72306826e-2,
          2.00000736e-2,
          1.44003704e-2,
          2.8135277e-2,
          2.26358893e-2,
          -6.90242463e-3,
          -4.01249125e-2,
          -5.76676735e-2,
          -7.34241581e-2,
          -8.87273109e-2,
          -4.76279729e-2,
          4.57164409e-2,
          7.15002364e-2,
          5.7850373e-2,
          -9.12636499e-3,
          -4.15223068e-2,
          -3.14415474e-2,
          -5.55973404e-2,
          -8.4686279e-2,
          1.6466249e-2,
          2.77067611e-2,
          1.03546032e-1,
          3.07889148e-2,
          2.18036087e-2,
          1.28395559e-1,
          1.75519889e-1,
          1.59954619e-1,
          9.98042707e-2,
          5.85707181e-2,
          7.79954038e-3,
          2.79882263e-2,
          1.59713774e-2,
          -7.30481211e-3,
          -1.63252071e-2,
          -8.83798215e-2,
          -7.28965754e-2,
          -2.42347893e-2,
          -2.76919031e-2,
          -2.57874971e-3,
          9.81599104e-2,
          3.55141476e-2,
          2.25500346e-2,
          4.5640801e-2,
          3.17336228e-2,
          1.90957894e-2,
          -2.31504674e-2,
          9.52589808e-4,
          -3.19601975e-2,
          5.5071458e-2,
          7.98178304e-2,
          4.17184361e-2,
          1.02594723e-1,
          6.42099526e-2,
          8.13619778e-2,
          2.10845073e-1,
          1.43604416e-1,
          6.01028899e-2,
          -8.53544709e-5,
          9.87257871e-3,
          8.57921736e-3,
          3.36073439e-4,
          -4.35738754e-2,
          -5.48637025e-2,
          -5.30996089e-2,
          -5.39830618e-3,
          -3.02756909e-2,
          -1.23460042e-3,
          1.36652579e-2,
          -7.49884516e-2,
          -1.9910954e-2,
          -7.29887378e-3,
          -3.03415292e-2,
          -5.18519569e-2,
          -8.96223445e-3,
          4.77110449e-2,
          1.10591612e-1,
          1.21943842e-1,
          9.23448091e-2,
          1.7355817e-2,
          4.52027386e-2,
          9.1290033e-2,
          7.96132984e-2,
          1.49643727e-1,
          8.81408458e-2,
          3.39884131e-2,
          3.94787441e-3,
          1.3278014e-2,
          1.96974454e-2,
          2.09267906e-3,
          -6.09937683e-2,
          -3.16963645e-2,
          -6.91443854e-2,
          -1.01205343e-1,
          -1.2109531e-1,
          -2.62472958e-2,
          -4.08207354e-3,
          -1.55321326e-2,
          5.70045886e-2,
          5.21295254e-2,
          -1.043833e-1,
          -1.19201548e-1,
          -7.45059764e-2,
          -1.01102625e-1,
          -6.40915232e-2,
          -8.02524917e-2,
          -1.00164751e-2,
          -4.86144149e-2,
          1.12627401e-2,
          5.24551554e-2,
          4.86725644e-2,
          4.06327927e-2,
          5.11840067e-2,
          2.65686711e-2,
          1.59476572e-2,
          2.3096311e-4,
          1.97992101e-2,
          -2.45417728e-2,
          -5.87626668e-2,
          -8.99725192e-2,
          -7.16102644e-2,
          -1.26384269e-1,
          -1.24301561e-1,
          -1.5700291e-2,
          7.87751274e-2,
          1.08702289e-1,
          2.70175755e-2,
          4.14150883e-2,
          -1.56933252e-1,
          -1.76626931e-1,
          -1.25216095e-1,
          -2.71654506e-2,
          -1.84134897e-1,
          -1.42825103e-1,
          -1.00194759e-1,
          -6.14807882e-2,
          -3.41812356e-2,
          -1.88562401e-2,
          -2.94521534e-2,
          -2.05182741e-2,
          1.35309996e-3,
          1.43193926e-2,
          2.39333779e-2,
          1.8616129e-3,
          2.51213502e-2,
          1.2793179e-2,
          -5.37913854e-2,
          -9.76026619e-2,
          -1.06360065e-1,
          -1.13008231e-1,
          -1.13040583e-1,
          8.43100977e-3,
          4.30541874e-2,
          1.50199477e-1,
          2.10484473e-1,
          1.40693659e-1,
          7.79658367e-2,
          -5.32225803e-2,
          -8.22770935e-3,
          -2.55055338e-2,
          -1.12319419e-1,
          -1.82828583e-1,
          -1.28603009e-1,
          -5.04690916e-3,
          -5.03924569e-2,
          -6.10855978e-2,
          -2.47025409e-2,
          -2.70759216e-2,
          -1.94920668e-2,
          -1.5737351e-2,
          -1.24020649e-3,
          8.6316599e-3,
          1.53448254e-2,
          1.04034332e-2,
          -2.92522517e-2,
          -8.54398684e-2,
          -9.55455106e-2,
          -8.7951632e-2,
          2.30001966e-4,
          1.59117144e-2,
          9.74397178e-2,
          1.55594067e-1,
          7.82588462e-2,
          1.59874262e-1,
          1.36369081e-1,
          1.25241109e-1,
          1.86105218e-1,
          6.75521782e-2,
          -1.21560795e-2,
          -8.88008635e-2,
          -4.98254751e-2,
          9.25932355e-4,
          -1.41529657e-1,
          -6.28311031e-2,
          -4.59104661e-2,
          -6.07150647e-2,
          -5.72269198e-2,
          -3.98575929e-2,
          -3.68107099e-3,
          2.80182859e-2,
          8.17834408e-3,
          1.87314048e-2,
          -1.36812836e-2,
          -2.33604682e-2,
          -3.23468791e-3,
          -8.05479618e-2,
          1.92266878e-2,
          9.09668908e-2,
          8.76430799e-2,
          3.77079013e-2,
          4.96863711e-3,
          8.85119715e-2,
          1.67172763e-1,
          1.36740733e-1,
          1.94426166e-1,
          1.28827308e-1,
          2.33156672e-2,
          -7.82732268e-2,
          -5.79185711e-2,
          -7.49215203e-2,
          -1.43313983e-1,
          -8.33969586e-2,
          -7.65987648e-2,
          -9.19512286e-2,
          -6.3863862e-2,
          -3.75193322e-2,
          2.73306872e-2,
          2.93151735e-2,
          2.33114639e-2,
          2.92811339e-2,
          4.56330171e-3,
          2.67272621e-3,
          -8.26809051e-2,
          -1.3099102e-1,
          -7.43493207e-2,
          -1.83374912e-2,
          3.80560965e-2,
          6.14626984e-2,
          -1.42017295e-4,
          1.09842113e-1,
          2.77905666e-2,
          1.69067959e-1,
          1.66689347e-1,
          1.20763542e-1,
          5.17640431e-2,
          -9.07082981e-2,
          -9.83601645e-2,
          -1.13802386e-1,
          -8.43261475e-2,
          -4.39548921e-2,
          -1.742802e-2,
          -6.29534274e-2,
          -6.3184346e-2,
          7.86338419e-4,
          1.13624947e-2,
          3.00681771e-2,
          1.90690137e-2,
          1.66299056e-2,
          -3.75110008e-2,
          -2.66136718e-2,
          -5.56024601e-2,
          -7.28552311e-2,
          -9.55783294e-2,
          -7.70292856e-2,
          -7.97871929e-2,
          -3.67710174e-2,
          2.20427432e-2,
          1.44301043e-1,
          1.35915766e-1,
          1.13865347e-1,
          1.54850244e-1,
          1.06513817e-1,
          1.42029404e-2,
          -8.15276466e-2,
          -1.15689436e-1,
          -1.06888864e-1,
          -1.16593471e-1,
          -7.84231178e-2,
          -3.06776907e-2,
          -8.32041445e-2,
          -5.25147061e-2,
          -3.11210192e-2,
          -4.25589485e-3,
          1.36073556e-2,
          2.33802393e-2,
          1.46829325e-2,
          -5.64177796e-2,
          -2.98352127e-2,
          -5.82071037e-2,
          -7.4861682e-2,
          -7.04546406e-2,
          -8.06304371e-2,
          -3.50183796e-2,
          1.52961835e-2,
          -9.39907925e-3,
          3.28961423e-2,
          3.75565221e-2,
          6.41590844e-2,
          9.47072481e-2,
          7.7207924e-2,
          1.090828e-2,
          -6.17282251e-2,
          -1.80491835e-1,
          -7.75136058e-2,
          -1.2443605e-1,
          -1.21725834e-1,
          -5.44428552e-2,
          -8.22582102e-2,
          -6.22759753e-2,
          -1.83564811e-2,
          2.03346987e-2,
          -4.71344037e-4,
          1.09635014e-2,
          1.69371797e-2,
          -3.04173936e-2,
          -4.57751218e-2,
          -2.425901e-2,
          2.92321854e-2,
          -6.26453884e-2,
          -1.30821655e-1,
          -1.262184e-1,
          -1.51741851e-1,
          -3.36917946e-2,
          7.64350799e-2,
          1.25962074e-1,
          6.29904312e-2,
          -4.92255464e-3,
          8.58682115e-2,
          -4.46020546e-2,
          -9.87333049e-2,
          -1.46549021e-1,
          -1.24946926e-1,
          -1.59703518e-1,
          -1.72535175e-1,
          -8.89485787e-2,
          -6.01461296e-2,
          -3.21012518e-2,
          1.56801437e-2,
          1.36525977e-3,
          2.5728723e-2,
          2.3919537e-2,
          9.06986375e-3,
          -2.15650214e-2,
          -2.14252065e-2,
          -1.24419625e-2,
          -2.73853013e-2,
          -5.74863357e-2,
          -8.02559896e-2,
          -1.57319223e-1,
          -1.5172413e-1,
          -7.10951288e-2,
          7.2962706e-2,
          2.34534856e-2,
          9.93804041e-2,
          3.79117175e-2,
          6.75979129e-2,
          2.17022725e-2,
          -8.71616277e-2,
          -1.11609732e-1,
          -1.7506295e-1,
          -1.61181045e-1,
          -1.40264995e-1,
          -8.59910071e-2,
          -5.96908466e-2,
          -2.63052833e-2,
          4.24803165e-3,
          2.71202423e-2,
          1.12595945e-2,
          2.26195483e-3,
          1.56891286e-2,
          -3.2529673e-2,
          -9.77877925e-2,
          -2.71474178e-2,
          -6.19546181e-2,
          -1.18604487e-1,
          -9.11774881e-2,
          -1.24485969e-1,
          -9.26741838e-2,
          3.9692148e-3,
          5.72160256e-2,
          6.21701006e-2,
          4.58322041e-2,
          -6.62947519e-5,
          6.31193522e-2,
          8.04846215e-3,
          -7.56074555e-2,
          -8.96146102e-2,
          -2.29123013e-1,
          -1.59811767e-1,
          -8.71757041e-2,
          -8.84131652e-2,
          -4.51652265e-2,
          -2.09925535e-3,
          2.5451016e-2,
          1.6757976e-2,
          1.65797706e-3,
          2.89080922e-3,
          -9.73357946e-3,
          -1.3440545e-2,
          -4.54935951e-2,
          -1.17329775e-2,
          -5.18228247e-3,
          -4.52060109e-2,
          5.00187242e-3,
          3.57848301e-2,
          -2.68688798e-2,
          1.07879749e-1,
          8.6700659e-2,
          6.483239e-3,
          -3.58544926e-2,
          1.98429801e-2,
          -1.85176987e-2,
          -1.38370015e-2,
          -6.27986019e-2,
          -1.64797473e-1,
          -2.12774565e-1,
          -1.73521806e-1,
          -7.88757014e-2,
          -2.77105496e-2,
          -9.26885917e-3,
          1.05966271e-2,
          2.22238303e-2,
          1.58883886e-2,
          2.89474886e-2,
          3.53090796e-3,
          -9.99977008e-3,
          -7.59475226e-3,
          -3.04710158e-2,
          -4.26156474e-2,
          2.17866593e-2,
          3.05012084e-2,
          9.79692813e-2,
          3.109782e-2,
          1.31298172e-1,
          1.29872683e-1,
          1.33574397e-1,
          1.09985262e-1,
          2.13565047e-3,
          2.51286052e-2,
          -3.0997097e-3,
          -4.57362564e-2,
          -9.1376566e-2,
          -1.08017751e-1,
          -1.68827271e-1,
          -1.02264653e-1,
          -5.6423643e-2,
          -5.85532149e-3,
          1.17936319e-2,
          4.07696688e-3,
          1.35995241e-2,
          2.45938726e-2,
          2.38761417e-3,
          2.65361251e-2,
          4.95534674e-3,
          2.2292886e-3,
          -3.12235154e-2,
          -5.89841713e-2,
          -4.28958099e-2,
          1.92546055e-2,
          1.68433145e-1,
          1.0934888e-1,
          1.7739182e-1,
          1.21686816e-1,
          7.49481798e-2,
          7.11595704e-2,
          1.1567907e-1,
          2.97836896e-2,
          4.73945922e-2,
          -1.52402022e-2,
          -5.05801634e-3,
          -7.46213148e-2,
          -8.58108744e-2,
          -8.51850223e-2,
          -2.80252919e-2,
          -1.97884397e-3,
          -9.82089486e-3,
          2.37762863e-2,
          2.86290725e-2,
          2.19977186e-2,
          1.62631643e-2,
          1.26370007e-3,
          2.8262601e-3,
          1.54483093e-2,
          1.54972067e-2,
          -1.13858267e-2,
          -2.42228004e-2,
          4.90730307e-2,
          9.17550815e-2,
          1.1740115e-1,
          9.8817303e-2,
          9.36123249e-2,
          2.78898833e-2,
          6.02796529e-2,
          -2.04909366e-3,
          2.46561141e-2,
          3.63840972e-2,
          -4.12209366e-3,
          7.42175511e-3,
          6.06347428e-3,
          -1.20576948e-2,
          -2.2438448e-2,
          -3.32611142e-3,
          2.26629252e-2,
          1.99779342e-2,
          1.52357251e-2,
          4.25041429e-3,
          6.48129717e-3,
          3.09184257e-2,
          2.96596719e-2,
          2.98264068e-2,
          1.29477027e-2,
          7.01008484e-3,
          1.48038386e-2,
          -4.10955126e-2,
          -4.06488661e-2,
          -5.99160169e-2,
          -1.98974534e-2,
          -6.03474267e-3,
          -2.03553918e-2,
          -9.42430173e-2,
          -2.70368244e-2,
          -2.39060804e-2,
          2.39373748e-2,
          1.55825667e-2,
          1.50257521e-2,
          3.44555464e-2,
          4.21137132e-2,
          4.64034827e-2,
          2.26719671e-2,
          4.67721037e-2,
          2.80107742e-2,
          2.38108911e-2,
          1.81297211e-3,
          7.73128053e-3,
          5.24191213e-4,
          3.00156751e-2,
          4.56524986e-3,
          2.82992114e-2,
          5.23341452e-3,
          3.85726162e-2,
          5.82456358e-2,
          3.94958212e-2,
          1.70234651e-2,
          1.16906753e-2,
          -1.20276868e-2,
          -2.56599361e-2,
          4.18541947e-3,
          2.76709979e-2,
          -1.49381539e-2,
          -8.23020112e-3,
          2.13799496e-2,
          3.38950145e-2,
          3.28030287e-2,
          1.39919176e-2,
          2.05186482e-2,
          2.49296041e-2,
          7.27990236e-3,
          1.87537171e-2,
          2.06301245e-2,
          2.37448458e-2,
          2.8463832e-2,
          6.80543045e-3,
          1.53176464e-2,
          2.33677847e-2,
          5.46879979e-3,
          1.8601627e-3,
          1.63837842e-2,
          8.27201605e-3,
          2.7194722e-2,
          4.93238204e-3,
          2.76861725e-3,
          1.65852617e-3,
          4.81919234e-3,
          2.14667117e-3,
          2.26851027e-2,
          2.02888242e-2,
          1.29861098e-2,
          -6.30785139e-3,
          6.61953458e-3,
          -2.16147642e-3,
          1.54218173e-2,
          6.55002815e-3,
          8.17447674e-3,
          9.54733308e-3,
          -1.82997975e-3,
          -1.96312958e-3,
          2.01434161e-2,
          2.55784342e-2,
          6.10387697e-4,
          1.5412645e-2,
          2.46175403e-2
        ],
        [
          1.9857128e-2,
          1.91152737e-2,
          7.97264726e-3,
          1.19827059e-2,
          1.22934749e-2,
          2.66640863e-2,
          8.63687337e-3,
          1.17162882e-2,
          1.73437682e-2,
          9.71317661e-3,
          6.13960397e-3,
          3.55543126e-3,
          2.42211393e-2,
          1.34276001e-2,
          4.14564946e-4,
          8.63146134e-3,
          1.07836356e-2,
          1.08630373e-2,
          9.56775454e-3,
          1.99508878e-2,
          1.69659295e-2,
          1.38341439e-2,
          2.37428698e-3,
          2.22887055e-2,
          1.98251373e-2,
          1.80851093e-2,
          1.83495279e-4,
          8.600022e-3,
          1.37442786e-2,
          1.44145256e-2,
          5.40573605e-3,
          8.04212143e-3,
          2.65502844e-2,
          3.33717887e-3,
          2.94588097e-3,
          5.9950073e-3,
          3.35777043e-3,
          2.11304953e-2,
          -1.10392356e-3,
          1.42436347e-2,
          2.15002505e-2,
          8.18758414e-3,
          6.51868679e-3,
          1.56526648e-2,
          9.1210993e-3,
          4.05061156e-3,
          2.66592011e-2,
          5.31413274e-3,
          2.09819904e-2,
          1.0633207e-2,
          4.07975809e-3,
          1.83164916e-2,
          8.85950351e-4,
          9.1219308e-4,
          8.30737878e-4,
          8.21783903e-3,
          1.56512405e-2,
          2.51651045e-2,
          2.87697249e-2,
          2.88144607e-3,
          3.03661191e-2,
          1.25486523e-2,
          5.9953796e-3,
          2.3856492e-2,
          -4.2714834e-3,
          1.53748125e-2,
          7.50189118e-3,
          7.9658514e-4,
          -1.80126014e-2,
          -3.67408909e-2,
          -1.41294552e-2,
          -4.64260375e-2,
          -2.40795338e-2,
          -5.86231523e-3,
          -5.03359711e-3,
          -2.44716424e-2,
          7.23748328e-3,
          1.85198954e-2,
          -1.98983246e-3,
          1.56287652e-2,
          1.492948e-2,
          2.04628736e-2,
          2.16665741e-2,
          2.78847949e-2,
          2.08766726e-2,
          1.88769459e-2,
          2.32301535e-3,
          2.22066691e-2,
          2.27955954e-2,
          2.21043748e-2,
          2.33913125e-3,
          5.73582362e-4,
          -6.09741447e-3,
          -2.81456548e-2,
          -2.86143686e-2,
          -4.74793229e-2,
          -6.69551106e-2,
          -9.72566788e-2,
          -8.4541865e-2,
          -8.73313046e-2,
          -8.10659236e-2,
          5.44850202e-3,
          -1.86006479e-2,
          -2.69823806e-2,
          5.77433309e-3,
          1.39059445e-2,
          1.8756964e-2,
          3.20357884e-2,
          1.50320075e-2,
          2.19043752e-2,
          1.38462697e-2,
          8.93731877e-3,
          1.1911982e-2,
          3.68396069e-3,
          2.5596768e-2,
          2.97111469e-2,
          1.37225065e-2,
          8.30551902e-3,
          -3.23454822e-3,
          -1.10279795e-2,
          -2.88336346e-2,
          -9.21108517e-3,
          -1.02518692e-2,
          -7.15751845e-3,
          -6.69424933e-3,
          -7.2999695e-2,
          -4.83537261e-2,
          -8.06453009e-3,
          -2.04186724e-3,
          5.23472652e-2,
          5.381417e-2,
          8.6968514e-3,
          3.12474956e-3,
          2.61438579e-3,
          2.33121016e-2,
          4.98233685e-2,
          3.64649274e-2,
          3.86415489e-2,
          2.13748167e-2,
          3.58997295e-3,
          1.43781727e-2,
          5.34688576e-3,
          2.10585438e-2,
          1.41778385e-2,
          1.50371973e-2,
          2.79325454e-3,
          -3.33958826e-2,
          -3.4997319e-2,
          -2.55316321e-2,
          -2.0217001e-2,
          7.90651195e-3,
          1.16222004e-1,
          1.04261293e-1,
          8.78704535e-2,
          6.69666473e-2,
          8.3839664e-2,
          8.41875876e-2,
          1.38281278e-1,
          1.08761395e-1,
          4.51374204e-2,
          4.71266494e-2,
          -9.15614649e-3,
          -1.23841604e-2,
          -2.32969934e-3,
          1.99330358e-2,
          5.49457173e-2,
          2.93555293e-2,
          3.09037287e-2,
          1.80845501e-2,
          2.53411654e-2,
          1.59196115e-2,
          2.4205091e-3,
          -6.36411868e-3,
          -1.74150265e-2,
          -4.6729615e-2,
          -5.06853572e-2,
          -4.22937056e-2,
          -1.3317423e-2,
          1.48670517e-2,
          4.47746946e-2,
          8.38576278e-2,
          1.57766596e-1,
          1.69523044e-1,
          1.88321986e-1,
          1.79600046e-1,
          1.17438414e-1,
          4.98592646e-2,
          5.64349226e-2,
          3.80219738e-2,
          1.77078876e-2,
          2.04572853e-2,
          1.33873141e-2,
          1.13169015e-2,
          4.63355717e-2,
          2.74988613e-2,
          3.03804703e-2,
          8.22363045e-3,
          1.33069463e-2,
          1.56979179e-2,
          1.35285455e-2,
          -2.71678227e-2,
          -4.68935868e-2,
          -5.42894185e-2,
          -1.09602318e-1,
          -7.82914119e-2,
          -3.31466682e-2,
          5.72012498e-2,
          1.03801185e-1,
          1.05788832e-1,
          1.76090002e-1,
          1.51750957e-1,
          2.16762334e-1,
          8.08681721e-2,
          2.85565264e-2,
          1.53658285e-2,
          -2.28832993e-2,
          2.0728361e-3,
          3.0699396e-2,
          1.54362857e-2,
          3.96384793e-2,
          2.89438368e-2,
          3.63769429e-2,
          3.54331003e-2,
          1.8177629e-3,
          5.48155951e-3,
          -1.38509195e-3,
          1.98718926e-2,
          -1.5719751e-3,
          -5.00065146e-2,
          -5.50591749e-2,
          -2.04809109e-2,
          -5.52924275e-2,
          -2.10296158e-2,
          2.39410074e-2,
          6.6544246e-2,
          1.58828939e-1,
          7.89177802e-2,
          7.61736958e-2,
          7.70221216e-2,
          6.62080229e-2,
          3.45208066e-2,
          -5.90475783e-2,
          5.22850308e-2,
          1.50787219e-2,
          -4.22859831e-2,
          2.19366812e-2,
          -4.80310409e-2,
          1.29029869e-2,
          8.07436674e-2,
          6.01240762e-2,
          1.41457962e-2,
          1.86899917e-2,
          2.67535396e-2,
          2.37732632e-2,
          2.27276921e-2,
          -1.8375324e-2,
          -7.87300931e-2,
          -3.73970527e-2,
          7.70432275e-3,
          -1.01762702e-2,
          5.05848008e-4,
          2.88312726e-2,
          1.22960102e-1,
          1.21715157e-1,
          4.89291856e-2,
          7.89336877e-3,
          -1.17389534e-1,
          -1.51307608e-1,
          -1.1837582e-1,
          5.50217255e-2,
          1.03625075e-1,
          6.37298859e-2,
          3.21710874e-2,
          -4.84426999e-2,
          -6.14061014e-2,
          1.42922549e-2,
          5.66228358e-2,
          3.19834398e-2,
          1.41318283e-2,
          1.604448e-2,
          2.02358196e-2,
          8.99133234e-3,
          -5.95511109e-3,
          -1.20469395e-2,
          -2.97891665e-2,
          6.10026372e-3,
          6.11919818e-2,
          5.28969462e-2,
          5.29523463e-2,
          1.14119407e-1,
          1.10037944e-1,
          7.87307356e-2,
          6.88398006e-2,
          -1.67242791e-1,
          -1.46932337e-1,
          -1.78719287e-1,
          -1.07946263e-1,
          2.41627953e-2,
          1.25733753e-1,
          3.12115285e-2,
          4.98667292e-3,
          -5.20403883e-2,
          1.18419913e-2,
          4.92757729e-2,
          4.28438869e-2,
          3.8188942e-2,
          2.80350159e-2,
          8.04896195e-3,
          1.33775029e-3,
          5.37719774e-3,
          -9.21987967e-3,
          -2.61047352e-2,
          -3.75447084e-2,
          3.8658085e-2,
          1.07937512e-1,
          1.30013229e-1,
          1.36880627e-1,
          1.45961403e-1,
          1.38696534e-1,
          -1.62408683e-2,
          -6.71414896e-2,
          -1.01860647e-1,
          -8.62679256e-2,
          -1.25919892e-1,
          -3.36212214e-2,
          7.19404654e-2,
          4.47824645e-2,
          -2.02911489e-2,
          -2.35909917e-2,
          -7.05301914e-3,
          2.78548848e-2,
          3.29387884e-2,
          4.68807923e-2,
          2.40024791e-2,
          1.54677785e-2,
          6.66634913e-3,
          2.81550449e-3,
          9.52647565e-3,
          -2.59785332e-3,
          1.4948449e-2,
          3.46396595e-2,
          8.77108724e-2,
          1.269749e-1,
          8.79660914e-2,
          8.49919372e-2,
          3.87810913e-2,
          -3.91352608e-2,
          -1.3431315e-1,
          -2.38379209e-1,
          -6.52869318e-2,
          -1.02731631e-1,
          -9.04821855e-2,
          -5.18697391e-2,
          1.77997379e-2,
          -4.38078002e-2,
          2.5608382e-2,
          1.27561264e-2,
          4.83832599e-2,
          8.10997621e-2,
          7.29237596e-2,
          9.08101001e-3,
          -7.9125588e-3,
          3.32011992e-2,
          -1.7529387e-3,
          9.69427549e-3,
          1.72715482e-2,
          -2.08607708e-3,
          1.76734933e-2,
          8.11513214e-2,
          7.13775157e-2,
          4.56485335e-2,
          1.24135215e-1,
          9.53602479e-2,
          3.64121666e-2,
          -4.37670775e-2,
          -1.34352357e-1,
          -1.2620121e-1,
          -4.08643985e-2,
          -3.9944552e-2,
          -1.12187834e-2,
          -6.42136129e-2,
          -5.07403062e-2,
          -6.29206219e-2,
          9.02062078e-3,
          7.20669515e-2,
          6.6251706e-2,
          8.08981606e-2,
          4.53928633e-2,
          -2.75829867e-2,
          -1.43559798e-3,
          1.34855147e-2,
          1.80856916e-2,
          2.56762144e-2,
          1.17865298e-2,
          2.3598434e-2,
          2.18588168e-2,
          8.31499667e-2,
          7.46656469e-2,
          5.51871994e-2,
          1.15334362e-1,
          4.94828147e-2,
          1.67873909e-2,
          -9.70961304e-3,
          -4.67810093e-2,
          -5.67405239e-2,
          8.11325635e-3,
          -2.45281266e-2,
          -2.07296831e-2,
          -6.85741063e-2,
          -6.68553745e-2,
          -4.26045097e-2,
          -4.61447272e-2,
          2.53017787e-2,
          3.16700533e-2,
          2.3375149e-2,
          -1.70638957e-2,
          -4.52032056e-2,
          -7.71654007e-3,
          2.18991755e-2,
          1.10240901e-2,
          9.3653072e-3,
          2.57019933e-2,
          -7.20165302e-4,
          1.55685203e-2,
          7.50306681e-2,
          1.80771821e-2,
          1.30700611e-2,
          5.30543043e-2,
          4.40263762e-2,
          3.31127211e-4,
          3.12857883e-2,
          -6.6784697e-2,
          -4.2532166e-2,
          -2.84399598e-2,
          2.15200796e-2,
          2.8628886e-3,
          -5.02144027e-2,
          -2.60951232e-2,
          -7.54758789e-2,
          -8.02739509e-2,
          -8.13483157e-2,
          -5.83041497e-2,
          -5.55741623e-3,
          -1.51736909e-2,
          -4.4542032e-2,
          -1.27672027e-2,
          1.20808209e-2,
          1.06563978e-2,
          2.38587038e-2,
          9.01806746e-3,
          2.50590915e-2,
          -6.36096975e-3,
          3.39874656e-2,
          4.18327074e-2,
          9.8618335e-3,
          1.40967626e-2,
          4.02837199e-2,
          -7.52771561e-3,
          -1.39558667e-2,
          -4.48233131e-3,
          4.12639291e-2,
          -1.72668205e-4,
          7.41724118e-3,
          4.85379842e-2,
          4.69908297e-2,
          2.15853045e-2,
          -5.51849844e-2,
          -9.57788119e-2,
          -6.29754254e-2,
          -8.38449601e-2,
          -1.11737283e-2,
          -2.15843862e-2,
          -2.26835054e-2,
          -1.53706758e-2,
          1.47824221e-2,
          2.4633246e-2,
          1.05456993e-2,
          3.04446466e-2,
          1.96727016e-2,
          -6.33443203e-3,
          -1.33948192e-3,
          5.35753394e-3,
          -1.24903345e-2,
          2.85492999e-2,
          4.5357622e-2,
          5.16282717e-2,
          -9.08841792e-3,
          -1.32850452e-4,
          3.9892304e-2,
          -2.12501936e-3,
          -5.56426819e-2,
          3.3047119e-2,
          3.94138699e-2,
          3.24463123e-2,
          -1.53788363e-2,
          -6.23862926e-2,
          -7.07767803e-2,
          -5.8883963e-2,
          -2.00663937e-2,
          -1.41928359e-2,
          -3.42399674e-2,
          -1.7462107e-2,
          2.06355701e-2,
          1.42064242e-2,
          1.60362445e-2,
          1.65410427e-2,
          1.14109569e-3,
          -1.00325218e-2,
          -5.18534149e-3,
          -1.19600409e-2,
          3.51261383e-2,
          3.6622505e-2,
          2.69810202e-2,
          3.77778567e-2,
          3.82015555e-2,
          9.25470259e-2,
          -1.09473156e-2,
          -5.25163223e-2,
          -7.66722307e-2,
          1.14499018e-2,
          4.74236836e-3,
          1.96704024e-2,
          -2.37575447e-2,
          -1.71412566e-3,
          -1.78096921e-2,
          -1.70770488e-2,
          -1.3819552e-2,
          -1.63327728e-2,
          -1.23643114e-2,
          -1.32479145e-2,
          1.16961567e-2,
          2.72917548e-2,
          1.72586755e-3,
          2.73224634e-2,
          1.51674645e-2,
          -1.76298432e-2,
          -1.03792192e-2,
          1.57872971e-2,
          -5.62386666e-3,
          1.5538987e-2,
          1.53099985e-2,
          -3.47661992e-2,
          4.86232876e-2,
          -3.1116994e-2,
          -4.27903302e-2,
          -9.42782444e-2,
          -9.80413941e-2,
          -2.63222145e-2,
          -1.3956165e-2,
          2.75266221e-2,
          6.0553362e-2,
          -5.51234617e-3,
          -6.54359454e-3,
          -1.35493997e-2,
          -8.16536873e-3,
          3.34216258e-3,
          3.50379955e-3,
          -6.98807905e-3,
          6.79184879e-3,
          1.69308209e-2,
          2.976669e-2,
          2.80804818e-2,
          2.22938254e-2,
          2.54665819e-3,
          -1.66541779e-2,
          2.33248418e-2,
          -2.4137277e-2,
          -2.73413144e-2,
          -2.34081214e-2,
          -7.49941532e-2,
          -2.52540868e-2,
          -1.22508291e-1,
          -8.12449941e-2,
          -5.81754926e-2,
          -1.10366592e-1,
          -4.58766151e-2,
          -3.27739199e-2,
          -2.07357532e-2,
          -4.20898075e-2,
          -3.65939951e-2,
          -5.53028922e-2,
          -3.31043858e-2,
          -1.17008362e-2,
          -9.17385406e-3,
          8.72993271e-3,
          1.36229061e-2,
          1.37875597e-4,
          9.40493977e-4,
          3.08793279e-2,
          2.47659414e-2,
          3.22967641e-3,
          -1.6048467e-2,
          -2.35540737e-2,
          -2.63077319e-2,
          -8.72256989e-3,
          -6.61642432e-3,
          9.53849974e-3,
          4.88767137e-2,
          -4.31835743e-2,
          -3.39837709e-2,
          -4.82913933e-2,
          -4.49161814e-2,
          -8.85848039e-2,
          -2.35197697e-2,
          -8.74535903e-2,
          -1.23231001e-1,
          -8.30349579e-2,
          -9.90842877e-2,
          -4.13964454e-2,
          -8.44661037e-3,
          3.01834244e-2,
          3.45396038e-2,
          8.4108233e-3,
          -6.03337764e-3,
          1.75886417e-2,
          2.51069522e-2,
          4.53547594e-3,
          2.7041563e-2,
          1.63747745e-2,
          1.13712968e-2,
          -2.03782591e-2,
          -6.71990982e-2,
          -7.53321323e-3,
          -3.37110035e-3,
          6.10024348e-2,
          2.17684455e-2,
          3.56239517e-2,
          1.22540382e-1,
          1.40916606e-1,
          1.36302549e-1,
          8.96541764e-2,
          8.48089659e-3,
          -5.05560165e-2,
          -5.93790226e-2,
          -5.42260237e-2,
          -5.33029913e-2,
          3.59490809e-3,
          5.15125276e-3,
          5.96033042e-2,
          6.51045291e-2,
          1.70187381e-2,
          2.7478828e-3,
          2.27381391e-2,
          4.3429353e-3,
          2.20251379e-2,
          1.47284228e-2,
          3.09248388e-2,
          1.78844114e-2,
          2.23304855e-2,
          -3.02242776e-2,
          -2.08509942e-2,
          -6.82104669e-3,
          7.6482489e-2,
          3.69186213e-2,
          6.0568123e-2,
          1.36773032e-1,
          5.64412123e-2,
          7.76620617e-2,
          1.4186021e-1,
          6.55872355e-2,
          3.96550545e-2,
          1.43492971e-2,
          2.21051589e-2,
          7.55311021e-3,
          5.70315303e-2,
          3.81544338e-2,
          6.11065474e-2,
          5.45050691e-2,
          2.90049326e-2,
          1.61905355e-2,
          -2.11967295e-3,
          1.99173179e-2,
          1.74963716e-2,
          2.4390593e-3,
          2.54632826e-2,
          1.75026586e-2,
          1.3256005e-2,
          -1.27490013e-2,
          -4.0861615e-2,
          2.11574918e-3,
          6.27055732e-2,
          3.36984896e-2,
          -4.15635872e-5,
          1.87664353e-2,
          1.06700758e-2,
          2.02335117e-2,
          -1.13142122e-3,
          5.60339175e-2,
          6.38063348e-2,
          -5.5308157e-2,
          3.10729911e-3,
          4.83181783e-2,
          8.15265267e-2,
          4.01069711e-2,
          3.88325863e-2,
          3.6007234e-2,
          -5.49037436e-3,
          1.87951935e-2,
          1.6224059e-2,
          6.67948446e-3,
          2.66588277e-2,
          1.07238552e-2,
          2.88511853e-2,
          2.49617e-2,
          6.05763286e-3,
          1.51695126e-2,
          3.62126046e-3,
          -9.04208241e-3,
          -1.36979484e-2,
          -1.87610364e-2,
          4.7551691e-2,
          1.78160116e-2,
          -4.00235453e-2,
          -4.09000207e-2,
          -2.62423639e-2,
          -1.88025725e-3,
          2.0318946e-2,
          6.27397194e-2,
          7.12537652e-2,
          8.05758652e-2,
          7.46267186e-2,
          3.21987529e-2,
          1.38349124e-2,
          3.4934411e-2,
          1.48339436e-3,
          1.66249489e-2,
          1.71476966e-2,
          2.41483339e-2,
          2.90846451e-2,
          2.88769818e-2,
          2.47519484e-2,
          2.8068282e-2,
          3.70236193e-2,
          3.88382869e-2,
          4.82091097e-2,
          2.32127406e-2,
          3.95114518e-2,
          5.61049829e-2,
          4.57893858e-2,
          6.95160246e-2,
          9.47983656e-2,
          8.78850437e-2,
          1.11640451e-1,
          5.41074087e-2,
          5.23508914e-2,
          4.69161715e-2,
          4.28359232e-2,
          2.96385831e-2,
          4.87703924e-2,
          7.4314919e-3,
          3.18283404e-2,
          2.51556198e-2,
          2.75930668e-2,
          5.88183667e-3,
          9.15603117e-4,
          1.34488625e-2,
          2.95296587e-2,
          8.30454531e-3,
          8.83345857e-3,
          2.2187741e-2,
          1.87135822e-2,
          6.64803506e-3,
          2.73746609e-2,
          4.91782535e-3,
          2.75113022e-2,
          2.83955936e-2,
          1.06619173e-2,
          3.27138651e-2,
          3.79425323e-2,
          -9.45583583e-4,
          2.07868291e-2,
          1.46172597e-2,
          1.57358689e-2,
          7.57753027e-3,
          1.94563112e-2,
          2.99593479e-2,
          2.57680097e-2,
          -3.76350022e-3,
          2.4311701e-2,
          3.02768585e-2,
          1.82492581e-2,
          2.2878018e-2,
          3.06724387e-2,
          3.71809174e-3
        ],
        [
          1.90411176e-2,
          9.56385368e-3,
          4.31319649e-3,
          2.59016853e-2,
          1.77852148e-2,
          5.77799939e-3,
          1.50375911e-2,
          1.36044227e-2,
          3.7759417e-3,
          1.56408534e-2,
          2.31926223e-2,
          1.28529989e-2,
          2.37463236e-2,
          1.51650138e-2,
          2.7482342e-2,
          1.9831419e-2,
          9.48667811e-3,
          2.72517051e-2,
          3.01269043e-2,
          6.22160204e-3,
          1.56588756e-2,
          7.46381483e-3,
          2.1477343e-2,
          9.19850641e-3,
          2.31815569e-2,
          4.14479441e-3,
          3.34031119e-5,
          1.03669291e-2,
          2.68747705e-2,
          1.34438461e-2,
          2.52644365e-2,
          3.0263022e-2,
          1.22408644e-2,
          2.57214464e-2,
          2.57821726e-2,
          1.74496877e-2,
          3.01112867e-2,
          2.70431131e-2,
          1.67969994e-2,
          2.10069832e-2,
          4.27767207e-2,
          9.88396702e-3,
          5.79587682e-3,
          1.78262146e-2,
          4.87066131e-2,
          2.71279089e-2,
          1.82757781e-2,
          3.92472952e-2,
          2.78875073e-2,
          1.04555606e-2,
          2.54107848e-2,
          2.7635063e-2,
          7.44307266e-3,
          1.16134936e-2,
          3.02716226e-2,
          2.98732832e-2,
          1.55745321e-2,
          1.02600871e-2,
          6.50047162e-3,
          2.68402874e-2,
          5.00111962e-4,
          5.55541118e-3,
          1.09016929e-2,
          4.16729656e-2,
          6.66179542e-2,
          5.94723546e-2,
          6.67863469e-2,
          7.20495527e-2,
          9.89231826e-2,
          4.59315781e-2,
          5.99803785e-2,
          4.10160334e-2,
          6.4462113e-2,
          7.79786892e-2,
          7.08884017e-2,
          7.12280967e-2,
          6.77826593e-2,
          5.41494891e-2,
          5.3041402e-2,
          2.10420503e-2,
          1.35716278e-2,
          1.74021089e-2,
          6.8648515e-3,
          2.47996891e-2,
          1.18620871e-3,
          9.0145075e-4,
          2.14953833e-2,
          3.12084529e-2,
          1.60681237e-2,
          1.87459255e-2,
          3.53904126e-2,
          5.13379326e-2,
          7.32724769e-2,
          9.87715574e-2,
          6.69251635e-2,
          8.81257508e-2,
          8.38307345e-2,
          1.00846164e-1,
          6.72340875e-2,
          5.33218556e-2,
          4.72545695e-2,
          5.39646292e-3,
          2.76830532e-2,
          3.86069932e-2,
          1.63259113e-2,
          5.02192881e-2,
          2.82860563e-2,
          3.31726807e-2,
          3.41544138e-2,
          2.64365163e-3,
          2.99147872e-2,
          9.77495816e-3,
          6.68270167e-3,
          1.45004494e-2,
          2.41150748e-3,
          1.14981066e-2,
          2.91577172e-2,
          1.55505665e-2,
          1.37271952e-2,
          5.88095339e-2,
          5.82092068e-2,
          1.34326393e-1,
          1.23768635e-1,
          9.67455385e-2,
          9.08921474e-2,
          3.02438609e-2,
          1.16540335e-1,
          5.51375203e-2,
          6.54680663e-2,
          5.61676173e-2,
          -3.97009776e-2,
          -2.103371e-2,
          -2.00442174e-2,
          -6.02549564e-2,
          -6.119448e-2,
          -3.51874721e-2,
          5.96796405e-4,
          2.04632396e-2,
          3.50155913e-2,
          1.02825665e-2,
          2.14808556e-2,
          2.49126769e-2,
          1.59138249e-2,
          1.8835234e-2,
          2.62395078e-3,
          -6.94012467e-2,
          -5.85054403e-2,
          1.45423545e-2,
          7.63637382e-2,
          6.73858519e-2,
          4.03297707e-2,
          8.21635838e-3,
          4.2918659e-2,
          -6.01414191e-2,
          -3.81041931e-2,
          -9.66552272e-2,
          -4.60195091e-2,
          -6.46623631e-2,
          -1.22543323e-1,
          -3.31144312e-2,
          -7.16699831e-3,
          -6.00452993e-2,
          -7.81462367e-2,
          -4.4922986e-2,
          -9.43102976e-3,
          1.07980332e-2,
          3.17024128e-2,
          1.41703128e-2,
          1.90253074e-2,
          1.95422333e-2,
          7.24801507e-3,
          -6.24394871e-3,
          -2.99652947e-2,
          -4.63865093e-2,
          -7.72619314e-2,
          1.71013117e-2,
          5.85821302e-2,
          -3.66822501e-2,
          -7.88519509e-2,
          -2.86521339e-2,
          -8.78148154e-3,
          -1.52753195e-1,
          -1.74257633e-1,
          -2.17688019e-1,
          -1.32779732e-1,
          -6.35724763e-2,
          -1.97535201e-1,
          -1.35713587e-1,
          -1.1246483e-1,
          -1.0903117e-1,
          -3.6385058e-2,
          2.01794704e-2,
          9.31572416e-3,
          2.87555712e-2,
          8.41891538e-3,
          9.6458871e-3,
          1.77671287e-3,
          2.16880212e-2,
          7.59270966e-3,
          -4.45586663e-2,
          1.93169607e-2,
          1.12885842e-2,
          -8.50938552e-2,
          4.17589941e-2,
          1.00881239e-1,
          -2.37785622e-2,
          6.54817903e-3,
          -2.83614615e-3,
          -9.37499762e-2,
          -1.48615785e-1,
          -1.43194963e-1,
          -1.24697613e-1,
          -1.59487139e-1,
          -1.14351176e-1,
          -1.26068609e-1,
          -1.67720758e-1,
          -1.7946379e-1,
          -6.84518134e-2,
          -5.25438992e-2,
          -7.59237325e-2,
          -1.56052641e-2,
          1.67434901e-2,
          -3.58410241e-3,
          9.27439981e-3,
          5.12328616e-3,
          1.63790862e-2,
          1.9689976e-3,
          -2.95570611e-2,
          2.94437656e-2,
          -7.52933709e-3,
          -2.05562249e-2,
          5.71214315e-2,
          -5.76720328e-3,
          1.76869119e-2,
          8.53695545e-2,
          -3.70752025e-2,
          -5.91199343e-2,
          -7.77467136e-2,
          -1.20862125e-1,
          -9.75373071e-2,
          -6.52166845e-2,
          -3.37669226e-2,
          -1.01713598e-1,
          -6.25163313e-2,
          1.25804145e-3,
          1.55903887e-3,
          -6.33203424e-2,
          -1.12611661e-1,
          -1.08502218e-1,
          -4.37578456e-2,
          -2.34090466e-2,
          2.14578916e-2,
          2.06958742e-2,
          2.6101643e-2,
          7.50829739e-3,
          -1.66750405e-3,
          1.70030316e-2,
          1.28514311e-2,
          -6.01921355e-2,
          1.67309448e-2,
          -2.00631749e-2,
          1.7780609e-2,
          1.92252497e-2,
          -7.04214196e-2,
          -1.27729325e-1,
          -1.5323287e-1,
          -1.58802046e-1,
          -1.42938744e-1,
          5.93126143e-2,
          2.21108787e-2,
          6.47747429e-3,
          8.80544171e-2,
          1.07343355e-1,
          7.67102316e-2,
          -5.98545166e-2,
          -5.64168419e-2,
          -5.07239076e-2,
          -5.84605791e-2,
          -3.09843241e-2,
          -1.83066064e-2,
          2.66341244e-3,
          2.90305769e-2,
          -5.52932545e-3,
          -3.77000087e-2,
          1.06747264e-2,
          4.96720053e-2,
          1.11454185e-2,
          7.19852815e-2,
          5.62311623e-2,
          8.33317427e-3,
          5.3026123e-2,
          -3.12902758e-2,
          -6.74276436e-2,
          -1.96757714e-1,
          -2.08591029e-1,
          -3.7483721e-2,
          2.55192367e-2,
          1.1292243e-1,
          7.72485913e-2,
          3.01234554e-3,
          2.03809538e-2,
          3.93434898e-2,
          -9.45051345e-2,
          3.16548427e-3,
          1.0591527e-2,
          -4.75005479e-2,
          -1.78429796e-2,
          1.79859444e-2,
          3.18028726e-3,
          1.68479014e-2,
          -2.22114812e-2,
          -8.19198204e-3,
          -1.36032294e-3,
          7.551549e-2,
          3.31360894e-2,
          2.00883706e-2,
          -6.7431207e-3,
          3.74504757e-2,
          -6.91345003e-3,
          -1.51613386e-3,
          -2.46441089e-2,
          -1.83722712e-1,
          -1.18088203e-1,
          -1.09729316e-2,
          1.05143424e-1,
          -9.78596937e-3,
          -2.0800487e-2,
          5.20513219e-2,
          -5.3937e-2,
          -2.89762594e-3,
          -5.18967468e-2,
          4.97640918e-2,
          9.78744457e-2,
          2.84503135e-2,
          8.13648208e-3,
          3.02346105e-3,
          1.36969719e-2,
          5.46897376e-3,
          3.7860861e-3,
          -2.75409578e-2,
          -5.65535542e-2,
          5.76459543e-2,
          -2.66176478e-2,
          -4.12981759e-3,
          2.43793127e-3,
          3.74452099e-2,
          3.83181072e-2,
          5.24919715e-2,
          -1.38911633e-2,
          -6.1595258e-2,
          -1.03935323e-1,
          -5.56420019e-2,
          4.0926471e-2,
          -1.7869157e-2,
          -6.52490142e-2,
          4.65800611e-2,
          4.00060541e-2,
          7.33816702e-2,
          3.01217181e-2,
          1.00609447e-1,
          1.7020685e-1,
          5.14042943e-2,
          -6.57442262e-3,
          1.09421806e-2,
          1.28170518e-2,
          1.75533176e-2,
          4.2251967e-3,
          -2.39837032e-2,
          -9.87151831e-2,
          7.55031696e-3,
          6.78865773e-3,
          -2.56621185e-2,
          4.46709061e-2,
          3.32331497e-2,
          -4.13972487e-2,
          -1.72583989e-2,
          1.94762568e-2,
          -1.49440598e-2,
          -6.17341428e-2,
          1.36554735e-2,
          -3.79973045e-2,
          -6.07254643e-2,
          3.2115275e-2,
          1.65381056e-1,
          1.15514014e-1,
          7.28620118e-2,
          1.11146308e-1,
          1.85955667e-1,
          1.19271162e-1,
          3.49900385e-2,
          2.38626981e-2,
          9.61243714e-3,
          5.90889036e-3,
          7.57133407e-3,
          4.22561593e-3,
          -4.22038745e-3,
          -6.57583842e-2,
          2.18111282e-2,
          3.86505835e-2,
          4.61472544e-2,
          7.61306934e-3,
          -1.01077289e-2,
          -3.32645874e-2,
          4.07174584e-2,
          3.40384107e-2,
          1.04104044e-1,
          1.08281986e-1,
          1.30592422e-1,
          6.37605922e-2,
          2.70511954e-2,
          6.7117041e-2,
          4.50329558e-2,
          2.40805095e-2,
          7.67960976e-2,
          9.5542451e-2,
          8.17332006e-2,
          8.85164437e-2,
          4.07509274e-2,
          3.1752026e-2,
          3.03075854e-3,
          2.5252934e-2,
          2.41888139e-2,
          -8.18211124e-4,
          5.69242771e-2,
          -4.66888888e-2,
          -1.69042506e-3,
          -2.78413361e-2,
          4.79586872e-2,
          4.30311128e-2,
          -6.58311231e-2,
          -1.12811277e-1,
          -6.13827223e-2,
          -9.7651779e-3,
          2.13620919e-1,
          2.26264749e-1,
          8.89734051e-2,
          1.4978275e-2,
          -1.58584366e-2,
          3.66546182e-2,
          -3.69533891e-2,
          -1.51085673e-2,
          4.23609012e-3,
          -1.39183829e-2,
          4.61395206e-2,
          7.72263609e-2,
          1.07946127e-1,
          4.11677301e-2,
          1.97129205e-2,
          2.57305872e-2,
          2.58922378e-2,
          1.59603985e-2,
          3.5656426e-2,
          -3.54217596e-2,
          1.3892015e-2,
          5.8711574e-3,
          -2.89953377e-3,
          -8.22403059e-2,
          -1.72933482e-1,
          -1.55740971e-1,
          -4.20144986e-2,
          9.21643903e-2,
          1.5643049e-1,
          1.9967156e-1,
          1.39643597e-1,
          7.85759949e-2,
          2.37603283e-2,
          5.68479781e-3,
          -4.67635061e-2,
          -1.00119375e-1,
          -8.08474232e-3,
          -7.6575259e-2,
          7.21225674e-2,
          7.77554547e-2,
          1.22364154e-1,
          3.61365178e-2,
          6.58077631e-3,
          4.70744956e-4,
          2.07640058e-3,
          2.70019101e-2,
          9.48600371e-3,
          -2.53985911e-2,
          -1.6366288e-2,
          4.3178087e-3,
          -2.77381629e-2,
          -6.31501522e-2,
          -2.47845543e-1,
          -1.65927537e-1,
          1.2567479e-2,
          1.63167443e-1,
          1.29397245e-1,
          5.92776896e-2,
          2.94366327e-2,
          1.21093574e-1,
          4.70796787e-2,
          4.28992282e-2,
          -1.41056523e-2,
          1.72029559e-2,
          -3.75112633e-2,
          -5.84172583e-2,
          3.87139825e-2,
          5.40851654e-2,
          9.2901837e-2,
          1.62114895e-2,
          3.27626001e-2,
          1.34202285e-3,
          2.47100841e-3,
          -3.48588334e-3,
          7.40347191e-3,
          7.26067126e-3,
          4.587654e-3,
          -1.16377981e-2,
          2.14873509e-2,
          -7.79344867e-2,
          -2.10290802e-1,
          -6.34957566e-2,
          5.36699171e-2,
          3.87317173e-1,
          2.53188638e-1,
          1.18778032e-1,
          8.84559614e-2,
          1.1095009e-1,
          2.32068654e-2,
          4.88513488e-2,
          -5.27874826e-3,
          -5.62558528e-2,
          -9.30469442e-2,
          -4.12726023e-2,
          9.61125957e-2,
          1.18370909e-1,
          7.31393084e-2,
          2.02482965e-2,
          1.96892858e-2,
          1.63135912e-2,
          1.1538148e-2,
          -7.97291541e-4,
          -6.24016916e-3,
          -1.71484398e-2,
          -4.98401902e-3,
          -1.17564992e-2,
          8.89703004e-3,
          -1.3684786e-1,
          -1.69095751e-1,
          2.03395211e-2,
          2.36116952e-1,
          2.48432807e-1,
          2.2943949e-1,
          1.56202699e-1,
          7.75842096e-2,
          6.02483726e-2,
          1.50302211e-1,
          1.31010263e-1,
          -6.45991814e-2,
          -9.22071786e-3,
          -5.66556798e-2,
          3.5789302e-2,
          9.96775464e-2,
          7.21656637e-2,
          5.68467512e-2,
          3.01070465e-2,
          1.14253163e-2,
          1.62233674e-2,
          2.48089807e-2,
          2.11194951e-2,
          1.25036022e-2,
          -1.54038865e-2,
          -2.37885406e-2,
          -6.74713166e-2,
          4.0987396e-2,
          -8.6385267e-2,
          -5.47273874e-2,
          9.56029268e-2,
          2.28939509e-1,
          2.16217088e-1,
          1.55740439e-1,
          1.17515202e-1,
          1.0197577e-1,
          5.66194451e-2,
          7.12104988e-2,
          1.11080811e-1,
          2.09493761e-3,
          -1.88052929e-3,
          -1.50867423e-2,
          6.39218024e-5,
          1.74315997e-2,
          1.90639376e-2,
          3.13024838e-2,
          1.62317572e-2,
          2.14954481e-2,
          1.91252042e-3,
          1.58163873e-2,
          2.46174616e-2,
          3.14160587e-2,
          -2.53360235e-2,
          -6.77812401e-2,
          -8.25936192e-2,
          -2.56098303e-2,
          -3.27756141e-2,
          4.61368309e-2,
          3.07532796e-2,
          1.11787678e-1,
          5.74611211e-2,
          1.44254308e-1,
          1.29088436e-1,
          6.14206259e-2,
          4.04511429e-2,
          1.96275349e-1,
          1.19336443e-2,
          -7.88870617e-3,
          -3.32575521e-2,
          -1.75127774e-2,
          4.73806478e-2,
          2.66947649e-2,
          -3.84208148e-3,
          4.16102548e-2,
          3.81122471e-2,
          7.71473022e-3,
          4.53206503e-3,
          2.56053717e-2,
          1.47447386e-2,
          3.02879532e-2,
          -5.10642893e-3,
          -4.73606205e-3,
          -4.00203263e-2,
          -7.47217506e-2,
          -4.79818958e-2,
          9.63177201e-3,
          8.5422209e-3,
          1.33957219e-3,
          3.04113944e-2,
          7.7479495e-2,
          -7.47619388e-3,
          2.79642238e-3,
          3.85762996e-2,
          7.93160509e-2,
          -2.3114095e-3,
          6.01880956e-2,
          1.76351282e-2,
          2.16662837e-2,
          2.97500018e-3,
          -1.3284022e-2,
          -2.28198383e-2,
          1.19446673e-2,
          3.60537782e-3,
          1.38164282e-2,
          7.90913831e-3,
          9.98060526e-4,
          1.50012072e-2,
          1.45589354e-2,
          1.60897461e-2,
          -4.52977132e-2,
          -1.09161957e-1,
          -1.53663608e-1,
          -1.07093375e-1,
          -1.62758898e-1,
          -2.31625674e-1,
          -1.57107475e-1,
          -3.31675535e-3,
          7.10359669e-3,
          5.4729141e-2,
          6.08470178e-2,
          7.63933722e-2,
          3.84433515e-3,
          2.54749466e-2,
          3.0474952e-2,
          7.33258663e-2,
          8.25888769e-2,
          3.43928112e-2,
          1.67070672e-2,
          -2.73213845e-2,
          -2.52713571e-3,
          1.72642105e-2,
          1.86747014e-2,
          8.05459955e-3,
          1.63849245e-3,
          1.91726522e-2,
          1.64584356e-2,
          -1.88046774e-2,
          -5.51863153e-2,
          -1.4663675e-1,
          -2.14957291e-1,
          -1.77374746e-1,
          -1.63326309e-1,
          -1.94365411e-1,
          -1.30300644e-1,
          -7.15317245e-2,
          -5.96726369e-2,
          7.84327712e-2,
          6.79215942e-2,
          1.06588252e-1,
          -1.12303787e-2,
          1.65982251e-2,
          2.27577047e-3,
          -2.908515e-2,
          -5.29943374e-3,
          1.15936805e-2,
          1.16301723e-2,
          1.198245e-2,
          5.68938896e-3,
          3.59779841e-3,
          8.20308942e-3,
          2.82153254e-2,
          2.63200151e-2,
          2.83880435e-2,
          2.30995133e-2,
          -1.22177292e-2,
          -3.80926368e-2,
          -5.52581973e-2,
          -1.01313514e-1,
          -1.21693071e-1,
          -1.31628395e-1,
          -1.05960146e-1,
          -1.42021618e-1,
          -1.59864315e-1,
          -1.37792688e-1,
          -8.27404494e-2,
          -2.27766629e-2,
          -5.75402543e-2,
          -3.17420362e-2,
          -3.59579115e-2,
          -5.82768049e-2,
          -4.91719632e-2,
          -5.63651415e-2,
          -2.99379602e-2,
          -1.29068307e-2,
          1.52375462e-3,
          2.82791435e-2,
          1.79922061e-2,
          8.31888427e-3,
          5.77293062e-4,
          1.0227061e-2,
          2.54769622e-2,
          1.92247569e-2,
          2.10994618e-2,
          1.05413297e-2,
          9.43501737e-3,
          -2.59290982e-2,
          -3.96056738e-2,
          -7.85013336e-2,
          -8.50486243e-2,
          -8.67509864e-2,
          -8.22966953e-2,
          -1.28152413e-1,
          -1.63264865e-1,
          -1.03117274e-1,
          -8.79890619e-2,
          -5.71620853e-2,
          -4.8970519e-2,
          -4.62429913e-2,
          -2.94111571e-2,
          8.88082787e-3,
          -4.29317108e-4,
          1.58037448e-2,
          2.69553309e-2,
          8.2291817e-3,
          1.26199281e-2,
          1.08210387e-2,
          1.02173134e-2,
          4.41926335e-4,
          1.23896705e-2,
          4.00565467e-3,
          1.1493156e-2,
          1.70244811e-2,
          2.82019215e-2,
          2.11118785e-2,
          2.19190564e-2,
          1.99288631e-2,
          -8.20999339e-3,
          -9.82551396e-3,
          5.25960528e-3,
          2.43524825e-4,
          -3.70204434e-3,
          -7.5985025e-3,
          1.20003638e-2,
          6.24073725e-3,
          -1.35940041e-2,
          2.41169071e-2,
          1.26413601e-2,
          6.997653e-3,
          2.7804259e-2,
          2.23574761e-2,
          1.91620188e-2,
          2.50009721e-2,
          1.62365168e-2,
          2.89871038e-2
        ],
        [
          3.45672296e-3,
          3.00425004e-2,
          1.02214869e-2,
          5.209426e-3,
          2.71236252e-2,
          1.76926867e-2,
          2.56389263e-2,
          1.04944502e-2,
          1.09877496e-2,
          2.38477065e-2,
          9.41468781e-3,
          2.78874714e-2,
          5.67397097e-4,
          2.41170112e-3,
          1.14601165e-2,
          2.06841778e-2,
          4.09353312e-3,
          1.35436543e-2,
          9.0113193e-3,
          9.57830362e-3,
          2.9135117e-3,
          1.17059268e-2,
          1.19463379e-2,
          4.55139622e-4,
          1.22143463e-2,
          1.84005237e-2,
          5.31797909e-3,
          2.84653535e-3,
          2.19405177e-2,
          1.97403063e-2,
          1.30624463e-2,
          9.26132111e-3,
          1.18412086e-2,
          2.43877505e-2,
          1.06153898e-2,
          2.05640025e-3,
          1.64410584e-2,
          1.1473715e-2,
          2.14986804e-2,
          1.72728398e-2,
          1.99274349e-2,
          1.20613358e-2,
          4.91243478e-4,
          1.18988655e-2,
          1.26800468e-2,
          7.95507129e-3,
          2.49074434e-2,
          2.48480222e-2,
          2.40246439e-2,
          3.55872162e-3,
          2.29555737e-2,
          2.13187824e-2,
          5.68210343e-3,
          2.67347048e-2,
          9.77146531e-3,
          9.31642971e-3,
          1.12229256e-2,
          1.88555961e-2,
          2.60825428e-2,
          5.74114194e-4,
          2.24795059e-2,
          5.12299617e-3,
          7.27164491e-3,
          1.62054771e-2,
          1.74676384e-2,
          2.16067421e-2,
          1.60221388e-2,
          1.94230076e-2,
          2.50406105e-2,
          6.36604268e-3,
          2.96307335e-2,
          3.58950265e-3,
          1.31252939e-3,
          6.82552694e-4,
          1.13766981e-2,
          -4.95838074e-3,
          1.23430036e-2,
          2.04227841e-2,
          1.63008206e-2,
          1.2907854e-2,
          2.81677876e-2,
          2.3833434e-2,
          1.07661224e-2,
          1.98298503e-2,
          7.61459797e-3,
          2.16773234e-2,
          2.81533437e-3,
          3.10739035e-2,
          2.75846576e-2,
          1.54873502e-2,
          -3.83181486e-3,
          -3.14351434e-3,
          9.93987529e-4,
          1.79866623e-2,
          1.88313004e-2,
          3.84560071e-2,
          3.7255501e-2,
          5.16327968e-2,
          5.67399956e-2,
          2.94335661e-2,
          4.35211036e-2,
          1.19896833e-2,
          -9.22738285e-5,
          -9.34578509e-3,
          -1.66719432e-2,
          -2.27165349e-2,
          -7.12719244e-3,
          -8.38819932e-3,
          2.62382857e-2,
          1.12468988e-2,
          1.48672514e-2,
          2.95811284e-2,
          2.54995546e-2,
          1.52565838e-2,
          8.07499884e-4,
          1.32304645e-3,
          5.5237608e-3,
          1.06266128e-2,
          -4.30471051e-3,
          2.18218736e-3,
          -1.20169131e-2,
          2.37471075e-4,
          -3.90096231e-2,
          -1.84543066e-2,
          2.90195081e-2,
          9.77589974e-2,
          6.80892845e-2,
          1.11919732e-1,
          1.01504516e-1,
          7.08243896e-2,
          4.01270612e-2,
          9.57299875e-3,
          -1.02916818e-2,
          -1.01133275e-2,
          -4.93943501e-3,
          -4.85100166e-3,
          -1.52376303e-2,
          1.22772384e-2,
          2.13843172e-2,
          3.00795179e-3,
          2.595237e-2,
          1.46523615e-3,
          1.83475914e-2,
          2.85268516e-2,
          -5.895947e-3,
          5.99722126e-3,
          9.08613414e-3,
          1.76777673e-2,
          6.53162198e-2,
          2.49360218e-2,
          1.87765756e-2,
          -4.97413243e-2,
          2.00375585e-3,
          1.68001643e-1,
          1.7331226e-1,
          2.5723524e-2,
          2.59809754e-2,
          1.42880307e-2,
          3.49503316e-2,
          6.90292636e-2,
          -3.98405396e-2,
          7.47200113e-3,
          5.46436638e-2,
          3.83271824e-2,
          1.85595819e-2,
          -3.57772741e-3,
          2.83602559e-2,
          1.88065043e-2,
          2.94776515e-2,
          2.61638517e-2,
          2.90217363e-2,
          3.68024472e-2,
          3.85172942e-2,
          2.68497927e-2,
          -1.91068879e-2,
          -4.30209378e-3,
          4.12374005e-2,
          -8.16433947e-3,
          2.73116751e-2,
          -3.94440467e-2,
          4.20936896e-2,
          6.4988104e-2,
          3.75777766e-2,
          -1.97114638e-2,
          -1.71809907e-2,
          1.19649249e-2,
          1.34259767e-2,
          -1.31092314e-2,
          -9.4687047e-3,
          4.51014665e-2,
          3.25672294e-2,
          1.02517719e-2,
          1.04247161e-2,
          3.36340051e-3,
          5.19220412e-3,
          -2.96804244e-3,
          4.02018228e-3,
          2.37137406e-2,
          4.41141033e-2,
          5.06556408e-2,
          3.90006187e-2,
          -1.91877253e-2,
          3.19669931e-2,
          1.3321933e-1,
          6.26524002e-3,
          5.57386436e-2,
          5.8483525e-2,
          6.92076244e-2,
          1.4859789e-1,
          4.45756919e-2,
          4.06662315e-2,
          -7.7523104e-2,
          9.06204702e-2,
          -3.61241849e-2,
          6.06837691e-3,
          3.69357437e-2,
          2.10594951e-2,
          -3.79423299e-2,
          -3.72643913e-2,
          -3.28398793e-2,
          2.68073267e-4,
          -1.0115089e-2,
          -3.70305334e-3,
          3.38737822e-3,
          1.73592377e-3,
          2.80966e-2,
          2.30664446e-2,
          3.89615233e-2,
          2.30674656e-2,
          1.00362281e-2,
          -4.11646267e-3,
          6.46477343e-2,
          3.46140398e-2,
          3.94425767e-2,
          1.60769983e-2,
          6.28977702e-3,
          2.13027521e-1,
          6.10828127e-2,
          1.58545686e-1,
          1.06853448e-1,
          6.30024752e-2,
          -6.60181093e-2,
          -1.84845002e-2,
          2.02326777e-3,
          2.64104775e-2,
          3.25912299e-2,
          -1.06893769e-2,
          9.83539268e-2,
          4.68098489e-2,
          -1.62371524e-2,
          9.49225468e-3,
          1.85993604e-2,
          1.44831542e-2,
          3.76598087e-2,
          4.75007392e-2,
          4.90856981e-2,
          9.83398875e-2,
          8.94131537e-2,
          4.61614452e-2,
          1.09732107e-1,
          4.42390553e-2,
          1.11905291e-1,
          8.57684486e-2,
          2.69756711e-2,
          1.41025679e-1,
          2.13570735e-1,
          1.56006834e-1,
          9.55624951e-2,
          1.50509332e-2,
          2.23994427e-2,
          1.64681742e-1,
          1.42675847e-1,
          5.03681014e-2,
          6.43620409e-2,
          1.1058762e-1,
          1.24116854e-1,
          8.21303818e-2,
          1.38423296e-2,
          2.03136073e-2,
          2.39888236e-2,
          3.54130335e-3,
          3.06510669e-2,
          5.93613883e-2,
          9.23996589e-2,
          1.26332808e-1,
          1.13564689e-1,
          8.51105294e-2,
          2.34425613e-2,
          7.38924501e-2,
          9.57338886e-2,
          7.87924445e-2,
          1.40046856e-1,
          1.64891227e-1,
          1.87683649e-1,
          -5.63414598e-2,
          -5.35955928e-2,
          -3.7560132e-2,
          8.86283188e-2,
          1.61599051e-1,
          1.08103508e-1,
          1.28808807e-1,
          1.47237652e-1,
          1.37478777e-1,
          1.11882799e-1,
          1.22571254e-1,
          3.40310204e-2,
          1.53875983e-2,
          2.28956295e-2,
          1.91710782e-2,
          3.39481848e-2,
          1.07852526e-1,
          9.93745062e-2,
          8.24363842e-2,
          6.42810674e-2,
          8.29625954e-2,
          -8.32296777e-3,
          -3.41922068e-2,
          5.9641328e-2,
          1.26213131e-1,
          2.23189624e-1,
          1.53652447e-1,
          -1.13578347e-1,
          -3.75273418e-1,
          -2.48355655e-1,
          -7.26180705e-2,
          8.774633e-2,
          1.57563596e-1,
          8.65955222e-2,
          -2.79285399e-2,
          1.23084989e-2,
          5.23723692e-2,
          8.33518784e-2,
          1.33340369e-1,
          3.49261694e-2,
          4.84499283e-2,
          5.90008655e-3,
          3.05066261e-2,
          3.58087319e-2,
          8.3134746e-2,
          6.16651833e-2,
          2.63771172e-2,
          2.54042089e-2,
          1.02492887e-1,
          4.42280841e-2,
          1.17993356e-1,
          2.03794138e-1,
          1.4511221e-1,
          3.63388614e-2,
          -1.25281825e-1,
          -4.06191882e-1,
          -4.15209557e-1,
          -1.40558839e-1,
          -3.7345263e-2,
          4.47290478e-3,
          3.27375857e-2,
          -1.47422637e-1,
          -3.2604228e-3,
          -9.9700677e-2,
          3.32941019e-2,
          3.6576175e-2,
          1.1852935e-1,
          2.46930262e-2,
          3.5063287e-2,
          2.13850131e-2,
          2.28802597e-2,
          2.21558448e-2,
          4.76593726e-2,
          1.0127322e-2,
          -3.19748537e-2,
          -2.4369715e-2,
          4.74257397e-2,
          5.278833e-2,
          3.83806438e-2,
          9.92800719e-2,
          1.00328254e-2,
          -1.41590778e-1,
          -3.16895868e-1,
          -4.07623702e-1,
          -1.88936558e-1,
          -1.34234444e-1,
          -9.14657695e-2,
          -6.25538524e-2,
          -1.08729737e-1,
          -2.07507923e-1,
          -9.034398e-2,
          -2.19874312e-2,
          -5.96139791e-2,
          -2.94294812e-3,
          9.58360035e-2,
          3.92695003e-2,
          1.42639595e-2,
          1.7905434e-2,
          3.08661039e-2,
          2.76605572e-2,
          4.69119422e-2,
          3.14263839e-2,
          -7.47321701e-2,
          4.66997645e-3,
          -2.38879156e-2,
          -6.94394015e-2,
          1.31150685e-2,
          -8.11868381e-2,
          -9.86130151e-2,
          -2.77478236e-1,
          -3.58195482e-1,
          -3.18930502e-1,
          -5.78594467e-2,
          5.34643198e-2,
          -1.26251676e-1,
          -1.80331571e-1,
          -1.98780686e-1,
          -1.5930084e-1,
          -9.26344079e-2,
          -2.57364793e-2,
          -5.18997028e-2,
          6.1891725e-2,
          9.33234425e-2,
          -1.33585161e-3,
          1.13975227e-2,
          2.37599877e-2,
          5.83139931e-4,
          2.95923774e-2,
          1.67585117e-2,
          2.09413845e-2,
          -7.06134669e-2,
          3.85089088e-2,
          9.10843192e-3,
          1.15307597e-2,
          -8.29686542e-2,
          -1.10676804e-1,
          -1.87235466e-1,
          -2.67644658e-1,
          -3.00604864e-1,
          -2.35105483e-1,
          -1.24161804e-1,
          5.57618718e-2,
          -7.9336981e-2,
          -1.22226493e-1,
          -1.07498677e-1,
          -1.23985982e-1,
          -2.2708216e-4,
          2.83648863e-2,
          -1.78238257e-2,
          4.60972818e-2,
          6.91070019e-2,
          1.96718449e-3,
          1.86060252e-2,
          1.71108675e-2,
          1.4014296e-2,
          2.20425676e-2,
          8.24734603e-3,
          1.6338869e-2,
          -4.26679929e-2,
          6.8743883e-3,
          -6.88263487e-2,
          4.47944611e-3,
          -3.05946192e-2,
          -1.44751428e-1,
          -1.59700572e-1,
          -2.48173536e-1,
          -2.80008412e-1,
          -2.55777809e-1,
          -1.44102961e-1,
          -1.42857732e-2,
          -9.54034764e-2,
          -1.04842246e-1,
          -1.01702069e-1,
          -6.85459256e-2,
          -2.52788868e-2,
          -3.00912008e-2,
          -2.06980825e-2,
          2.77911152e-2,
          2.06960185e-2,
          -1.99133974e-2,
          2.55069742e-2,
          7.949418e-3,
          2.04074485e-2,
          1.64676019e-2,
          -2.9283453e-3,
          1.95032205e-2,
          -3.99473291e-2,
          -4.29033727e-2,
          -1.07070227e-1,
          -1.20606901e-1,
          -1.29655513e-1,
          -1.22045884e-1,
          -1.64727972e-2,
          -1.11021426e-1,
          -1.68202787e-1,
          -2.14398667e-1,
          -6.4719673e-2,
          3.07276138e-3,
          -1.40302225e-1,
          -6.66495576e-2,
          -1.32201861e-3,
          -2.86969245e-2,
          2.23430854e-2,
          -5.55861096e-2,
          4.73010773e-2,
          1.42419221e-2,
          -2.28005987e-2,
          -2.21435317e-3,
          1.47046159e-2,
          1.44838738e-2,
          9.92546189e-3,
          4.07708019e-3,
          2.52323448e-2,
          1.0454057e-2,
          -6.63453524e-2,
          -6.52609629e-2,
          -1.36208982e-1,
          -7.683357e-2,
          -1.01752212e-1,
          -8.99664648e-2,
          -2.41281022e-2,
          -1.4494934e-1,
          -2.4948292e-1,
          -2.48069249e-1,
          -1.21762809e-1,
          -8.23220965e-2,
          -1.26823848e-1,
          -2.53697838e-2,
          4.76046387e-2,
          -3.00864214e-2,
          3.25320456e-3,
          8.76540555e-2,
          7.45638416e-2,
          -1.06601056e-2,
          -4.93827805e-2,
          1.4827204e-2,
          2.92813498e-2,
          3.52271587e-3,
          2.48999861e-2,
          2.51149989e-2,
          3.28392822e-2,
          -1.59738615e-2,
          -2.68598235e-2,
          -9.51535904e-2,
          -7.42124598e-2,
          1.87717301e-3,
          -4.00384114e-2,
          -4.21284667e-2,
          -1.26108224e-1,
          -1.26410332e-1,
          -2.15690508e-1,
          -2.62762563e-1,
          -1.2388973e-1,
          -7.201551e-2,
          -4.18586558e-2,
          3.82540896e-2,
          -4.79694912e-2,
          -8.19461578e-3,
          8.30006129e-2,
          7.31271222e-2,
          3.42353538e-2,
          -3.17458979e-2,
          -2.51398991e-2,
          5.29076261e-3,
          2.36377742e-2,
          2.76662052e-2,
          8.6415125e-3,
          2.37845908e-2,
          1.2106975e-2,
          1.96995493e-2,
          -2.68947581e-2,
          -3.15443726e-2,
          -1.87537706e-2,
          -4.05266933e-3,
          2.43054102e-2,
          3.5462203e-2,
          -4.02349337e-3,
          5.43784554e-3,
          2.21678075e-2,
          -1.97686196e-2,
          3.32333003e-2,
          6.65550365e-2,
          3.3309506e-2,
          -9.89162129e-4,
          -2.92053318e-2,
          6.72768375e-2,
          1.83732301e-2,
          2.48906899e-2,
          2.85956947e-2,
          6.78999538e-3,
          -1.82866259e-2,
          2.5294982e-2,
          1.98151567e-2,
          6.81820061e-3,
          2.87585366e-2,
          3.85768584e-3,
          3.50813047e-2,
          1.35702165e-2,
          7.98630244e-3,
          4.91199346e-4,
          -1.72703092e-2,
          -4.5641663e-2,
          2.49255991e-2,
          2.47655157e-2,
          1.79452072e-1,
          2.22389914e-1,
          2.33828135e-1,
          1.79907361e-1,
          1.65039905e-1,
          1.85624223e-1,
          1.49768267e-1,
          3.57708905e-2,
          7.95745539e-2,
          3.50324891e-2,
          3.31333292e-2,
          3.65095356e-2,
          3.1942685e-2,
          3.19050854e-2,
          3.09535255e-2,
          3.27819167e-2,
          1.0043033e-2,
          1.87307243e-2,
          4.34437373e-3,
          1.61739646e-2,
          2.16787862e-2,
          2.75790357e-2,
          1.46923887e-2,
          3.54682156e-2,
          4.12519915e-2,
          1.64689884e-2,
          1.29227019e-1,
          1.59647083e-1,
          1.20065015e-1,
          1.74060283e-1,
          9.14678027e-2,
          1.55945996e-1,
          1.50228387e-1,
          1.86283622e-1,
          9.75297777e-2,
          2.10551223e-1,
          1.8220762e-1,
          1.11612177e-1,
          3.29999618e-2,
          1.47089399e-2,
          2.0854065e-2,
          2.49414107e-2,
          -8.25902403e-3,
          8.95493742e-3,
          1.89081003e-2,
          3.50758537e-3,
          2.73861841e-2,
          1.33728379e-2,
          1.39013744e-2,
          2.22559366e-2,
          1.55376645e-2,
          4.46539932e-2,
          1.02893985e-1,
          8.9935817e-2,
          3.79286131e-2,
          1.275775e-1,
          1.20147319e-1,
          7.8640856e-2,
          7.458403e-2,
          1.13919802e-2,
          1.45774523e-1,
          1.33588869e-1,
          1.01510982e-1,
          2.073406e-1,
          1.28357755e-1,
          1.24414617e-1,
          2.61940778e-2,
          1.99353194e-2,
          9.49962384e-3,
          -1.07268266e-2,
          1.70008553e-2,
          2.06361397e-2,
          3.09582152e-2,
          2.10301271e-2,
          7.59934969e-3,
          3.07999163e-2,
          1.79035226e-2,
          1.94862126e-2,
          4.42257185e-2,
          7.34008772e-2,
          8.27474896e-2,
          1.02020913e-1,
          9.93110833e-2,
          1.13495485e-1,
          6.99849158e-2,
          5.51219287e-4,
          9.68702264e-2,
          1.45048383e-2,
          8.29657559e-2,
          1.3117809e-1,
          4.01707049e-2,
          1.48887643e-1,
          1.18787077e-1,
          6.29255233e-2,
          -1.70840482e-2,
          -1.99486497e-2,
          -3.13324939e-2,
          -7.23783045e-3,
          2.78253796e-2,
          2.52850872e-2,
          2.9010192e-2,
          2.20050775e-2,
          2.98535924e-2,
          1.42411373e-2,
          1.16044821e-3,
          2.31958676e-3,
          2.76219725e-2,
          5.92644891e-3,
          -8.32008034e-3,
          7.23734492e-2,
          1.46396657e-1,
          1.27793015e-1,
          -2.39025018e-2,
          2.4386893e-2,
          1.10496431e-1,
          2.41272947e-2,
          2.03575513e-2,
          3.79034416e-2,
          5.0890824e-2,
          3.99633608e-2,
          8.49559861e-2,
          1.09406613e-1,
          6.96139295e-3,
          2.30269295e-2,
          1.50877386e-2,
          9.75928611e-3,
          3.6257378e-2,
          2.25576086e-2,
          1.03436622e-2,
          3.029331e-2,
          3.02425145e-2,
          3.63368321e-3,
          2.07715262e-2,
          5.64070038e-4,
          3.68040277e-3,
          -3.98430648e-2,
          -3.06414854e-2,
          3.20074474e-2,
          3.85881863e-2,
          2.97308866e-2,
          -2.06279019e-2,
          9.35379827e-3,
          4.21614734e-3,
          2.49288224e-2,
          2.50961951e-2,
          7.17149172e-2,
          7.88129826e-2,
          3.04165287e-2,
          7.00443659e-2,
          1.07270078e-1,
          6.30028418e-2,
          3.29251657e-2,
          1.28856246e-2,
          2.62614275e-2,
          1.71657061e-2,
          2.33919812e-2,
          1.01411695e-3,
          5.97928982e-3,
          1.79639387e-2,
          6.97962941e-3,
          2.83780386e-2,
          6.48812029e-3,
          9.2399607e-3,
          3.09395546e-2,
          3.15081895e-2,
          1.44562769e-2,
          1.87505432e-2,
          1.0323995e-2,
          4.29297803e-2,
          3.96322758e-2,
          2.22229284e-2,
          4.84760172e-2,
          3.10255688e-2,
          1.66768548e-2,
          9.3513134e-3,
          3.82670341e-2,
          5.34662831e-2,
          1.60158058e-2,
          3.07155692e-2,
          2.26145816e-2,
          2.61789866e-2,
          2.43205816e-2,
          2.50537625e-2,
          2.32397794e-2,
          2.7087625e-2,
          2.51247602e-2
        ],
        [
          2.33861458e-2,
          3.08567478e-2,
          3.00372213e-3,
          4.96830862e-3,
          1.15658443e-2,
          6.96280373e-3,
          1.92800154e-2,
          2.94603223e-2,
          1.53746198e-2,
          3.27521724e-3,
          3.05754446e-2,
          2.73300813e-2,
          1.18976297e-2,
          2.63491965e-2,
          1.0085139e-3,
          4.48230975e-3,
          1.8440284e-2,
          2.79837657e-2,
          2.63624355e-2,
          1.16966118e-3,
          2.68144477e-2,
          2.53775105e-2,
          1.31548184e-3,
          7.67114691e-3,
          2.20412517e-2,
          2.57660806e-2,
          8.01769777e-3,
          5.46949929e-3,
          2.35273181e-2,
          1.29499136e-2,
          4.26238268e-3,
          2.1768478e-2,
          2.19136838e-2,
          4.55524625e-3,
          1.14150033e-2,
          -1.13801706e-3,
          7.07453804e-3,
          1.3670305e-2,
          2.32650639e-2,
          1.06157982e-2,
          -5.88534397e-3,
          -8.72177839e-3,
          1.69459715e-2,
          2.46527925e-2,
          7.52585118e-3,
          8.96482236e-3,
          5.55632204e-3,
          6.45883568e-3,
          2.23251035e-2,
          2.15133687e-2,
          7.2446605e-3,
          4.05622383e-3,
          6.67133548e-3,
          2.41639221e-2,
          1.80500854e-2,
          2.1647606e-2,
          1.61355135e-2,
          1.77863279e-2,
          7.6748651e-3,
          1.3246659e-2,
          1.4282261e-2,
          1.3382021e-3,
          8.6196139e-4,
          -2.21152835e-2,
          -6.46395304e-3,
          1.26015322e-3,
          -3.54962884e-2,
          -3.71010457e-2,
          -5.57408856e-2,
          -8.57454364e-2,
          -4.05721083e-2,
          -3.14481624e-2,
          -2.98665663e-2,
          -2.57170624e-2,
          -1.76183461e-2,
          -9.23263722e-3,
          1.03240822e-2,
          -9.00514211e-3,
          -1.12521608e-2,
          8.16774393e-3,
          4.21707243e-3,
          1.18070063e-2,
          2.64394824e-2,
          2.62520284e-2,
          1.33768749e-2,
          2.00332116e-2,
          3.32612156e-3,
          1.63133588e-2,
          7.08706326e-4,
          5.94615663e-3,
          -1.98199074e-2,
          -2.03000478e-2,
          -2.0356286e-2,
          -3.88182576e-2,
          -3.87619027e-2,
          -8.57256286e-2,
          -1.2413998e-1,
          -1.82816211e-1,
          -1.92421615e-1,
          -1.26189216e-1,
          -1.15905829e-1,
          -5.56811228e-2,
          -7.0273647e-2,
          -4.45113041e-2,
          -2.59084894e-2,
          -2.45475323e-2,
          4.01028184e-3,
          -6.61690253e-3,
          1.3773747e-2,
          1.69273342e-2,
          1.13271873e-2,
          3.06422599e-3,
          8.94184619e-3,
          8.87337193e-3,
          8.88018171e-3,
          6.03563492e-4,
          2.80707566e-2,
          -1.23008012e-3,
          -1.8817312e-2,
          -2.34135022e-2,
          -9.80597302e-3,
          -1.13459745e-2,
          2.85748376e-2,
          2.85781004e-2,
          -1.1885978e-2,
          -1.10945098e-1,
          -1.25974518e-1,
          -1.21162371e-1,
          -1.60437618e-1,
          -9.05489075e-2,
          -8.60573078e-2,
          -9.37810762e-2,
          -2.74266712e-2,
          -6.23327981e-2,
          -3.28422426e-2,
          3.27422313e-3,
          4.78935895e-2,
          4.10799369e-2,
          1.91723819e-2,
          5.90624143e-3,
          2.7684587e-2,
          2.42932359e-2,
          6.09286087e-3,
          2.40841367e-2,
          2.88248601e-2,
          3.95168207e-3,
          -4.42496199e-3,
          -1.85614989e-3,
          8.7170732e-3,
          6.77745289e-2,
          8.55150157e-2,
          1.86241126e-1,
          1.28034622e-1,
          5.25689674e-2,
          -3.29557094e-3,
          -7.19611186e-2,
          -1.52503913e-1,
          -1.37350164e-1,
          -1.38089797e-1,
          -1.09851398e-1,
          -4.252426e-2,
          -8.51868856e-2,
          -5.19106778e-2,
          -2.82862993e-2,
          2.96392846e-2,
          2.98477572e-2,
          2.50080125e-2,
          2.98693632e-2,
          3.0667317e-2,
          5.95642847e-4,
          2.73583057e-2,
          4.39959863e-2,
          2.39689741e-2,
          1.03285769e-2,
          2.61570521e-2,
          1.0627369e-2,
          9.92039506e-2,
          1.59347069e-1,
          1.00475979e-1,
          1.3869696e-1,
          1.12771519e-1,
          1.47657339e-1,
          1.30610281e-1,
          6.14971286e-2,
          1.90824081e-2,
          8.39753687e-2,
          -1.44582564e-2,
          -5.76636839e-2,
          -4.72127319e-2,
          -5.59683281e-2,
          -1.3360869e-1,
          -4.87869018e-2,
          -1.6811464e-2,
          1.42322853e-2,
          7.32862517e-3,
          8.57450908e-3,
          9.50665514e-3,
          1.08327816e-2,
          2.7825921e-2,
          5.43857403e-2,
          4.50734676e-2,
          1.1998771e-2,
          6.04012044e-2,
          -3.46250355e-2,
          7.73025884e-2,
          6.7449548e-2,
          5.03507247e-2,
          4.34963262e-2,
          1.07093144e-1,
          2.4810888e-1,
          1.5203724e-1,
          2.66358441e-1,
          1.75020488e-1,
          2.02843895e-1,
          6.74968858e-2,
          -7.74001413e-2,
          -6.39876624e-2,
          -9.65782996e-2,
          -1.66630842e-1,
          -1.31067329e-1,
          -5.04082556e-2,
          -8.8908468e-3,
          -8.49434121e-3,
          2.9249732e-2,
          2.65186134e-2,
          1.12261022e-2,
          2.03412305e-2,
          2.35931456e-2,
          1.67590881e-2,
          -5.2771915e-3,
          4.73908604e-2,
          -3.92759242e-2,
          6.31227084e-2,
          3.1644262e-2,
          5.34630738e-2,
          5.39313652e-2,
          3.85523921e-2,
          1.49131456e-1,
          2.5849261e-1,
          2.38447314e-1,
          2.98970421e-1,
          1.41240394e-1,
          1.00689488e-1,
          -1.70212134e-2,
          -7.58946612e-2,
          -9.3506548e-2,
          -1.36726735e-1,
          -1.66304663e-1,
          -7.49737855e-2,
          -1.44455764e-2,
          1.12762785e-2,
          2.61993623e-2,
          5.37524876e-3,
          1.39751749e-2,
          -2.46213159e-3,
          3.66301736e-2,
          1.36202943e-2,
          3.02049168e-2,
          9.74503782e-2,
          3.96294961e-2,
          4.28913039e-2,
          2.37788821e-2,
          9.1679298e-2,
          5.00184709e-2,
          6.39112189e-2,
          1.35269588e-1,
          1.26406524e-1,
          1.80153993e-1,
          2.32217041e-1,
          2.12275792e-1,
          6.55431684e-2,
          9.63629266e-3,
          -2.3165415e-3,
          -9.30390818e-2,
          -9.23918677e-2,
          -1.04924944e-1,
          -6.71841436e-2,
          -5.25613215e-3,
          1.64653796e-2,
          2.80976433e-2,
          2.82539743e-3,
          2.16424214e-2,
          -1.11280943e-2,
          4.73538107e-2,
          4.24910966e-3,
          2.76065924e-2,
          1.29005925e-1,
          1.27903357e-2,
          7.86281464e-3,
          4.19100515e-2,
          1.20315797e-4,
          -4.64488237e-2,
          -8.53757092e-3,
          -4.79164345e-2,
          -1.07082553e-2,
          4.34424408e-3,
          1.56010828e-1,
          4.7789905e-2,
          4.36764514e-2,
          -1.40378616e-2,
          -2.75358312e-2,
          -1.15005927e-1,
          1.74370369e-4,
          3.36127956e-2,
          -1.68399021e-2,
          1.31042228e-2,
          2.59091036e-2,
          2.45880305e-2,
          1.99939711e-2,
          1.30675929e-2,
          9.12189397e-3,
          2.10014837e-2,
          3.49176823e-2,
          1.86919889e-2,
          8.36265162e-2,
          2.0610785e-2,
          4.73442131e-2,
          3.68580126e-2,
          3.89217998e-2,
          -7.38898444e-3,
          -5.70047729e-2,
          -6.05116559e-2,
          -1.05719914e-1,
          3.79456203e-2,
          6.52436336e-2,
          1.10690035e-1,
          3.15832411e-2,
          -3.62713926e-2,
          -2.00506138e-2,
          -7.96479646e-2,
          4.24719473e-2,
          2.7252615e-2,
          -7.04118596e-4,
          2.08964533e-2,
          3.85827083e-2,
          3.54311234e-3,
          1.00759154e-2,
          6.6973971e-3,
          3.28913349e-3,
          7.89547979e-3,
          8.65259382e-2,
          6.11512801e-2,
          5.15136257e-2,
          -1.04438287e-2,
          -3.91020924e-2,
          1.70953301e-2,
          -2.02184741e-2,
          -7.26427105e-2,
          -2.30413288e-1,
          -1.33785111e-1,
          -6.09972928e-2,
          -1.84279035e-2,
          -1.65120292e-2,
          5.40176911e-2,
          3.22968548e-2,
          3.77354927e-2,
          -6.08159258e-2,
          2.167938e-2,
          8.5457222e-2,
          4.32756393e-2,
          -3.5123694e-2,
          5.05629409e-2,
          5.14691133e-2,
          5.94012901e-4,
          2.51930361e-2,
          2.64554068e-2,
          1.47607967e-2,
          2.76396994e-3,
          1.00594635e-1,
          1.49883521e-2,
          -1.49657741e-2,
          -4.58213207e-3,
          8.19576089e-3,
          3.28657303e-2,
          -2.15500164e-3,
          -7.30631191e-4,
          -6.60991862e-2,
          3.81724685e-2,
          -1.21031118e-2,
          -1.96410993e-2,
          -2.78123299e-3,
          2.96974509e-2,
          4.64605639e-2,
          1.32664349e-2,
          3.07456415e-3,
          8.4182318e-2,
          7.38401846e-2,
          -3.38372919e-2,
          -4.23179023e-2,
          4.26812866e-2,
          1.9549566e-2,
          6.84962412e-3,
          1.0609521e-2,
          1.03295607e-2,
          8.97014131e-3,
          -5.2185185e-3,
          4.25717691e-2,
          -4.81703868e-2,
          -1.63632308e-2,
          1.08262177e-2,
          -4.93161777e-3,
          -1.02628498e-2,
          -4.24533078e-2,
          3.30963365e-2,
          4.18517388e-2,
          2.34284807e-2,
          -7.55273289e-2,
          -4.48047586e-3,
          4.25780034e-4,
          4.99864556e-2,
          7.3754107e-2,
          -5.32247428e-3,
          3.74879906e-2,
          3.53982637e-2,
          -3.32487967e-2,
          -4.62411584e-2,
          -3.92037581e-2,
          2.92004771e-2,
          2.00292761e-2,
          2.60079814e-2,
          1.2917451e-2,
          2.75889483e-2,
          2.37684638e-2,
          -5.92535952e-3,
          4.00566333e-2,
          -4.50820185e-2,
          -1.64602691e-2,
          -4.44622796e-2,
          9.43301199e-3,
          -5.49532366e-2,
          2.24239333e-2,
          7.65378309e-2,
          -2.94617196e-2,
          -2.71433405e-2,
          -7.1928148e-2,
          2.74858118e-2,
          1.45781686e-2,
          7.59691619e-2,
          -1.69399671e-3,
          3.06781531e-2,
          4.47962155e-2,
          -3.09023108e-2,
          1.35901046e-2,
          -4.43000707e-2,
          -4.10545414e-2,
          -2.33216556e-2,
          2.49109317e-2,
          5.09664397e-3,
          2.86678146e-2,
          6.4977239e-3,
          2.72291602e-2,
          -2.73277221e-2,
          2.10563349e-2,
          -5.69313368e-2,
          -6.34723095e-2,
          -3.31658883e-3,
          7.24219633e-2,
          -7.86623096e-3,
          8.11030089e-2,
          7.43944593e-2,
          6.99861244e-2,
          -1.32353986e-2,
          -1.18040578e-1,
          -1.74177249e-2,
          5.2648262e-2,
          1.2197113e-1,
          4.24661583e-2,
          -1.56423473e-2,
          4.86403913e-2,
          -4.40871614e-2,
          -2.31505741e-3,
          -2.40891223e-2,
          -1.33555641e-2,
          -1.99429483e-2,
          1.04327657e-2,
          2.47571615e-2,
          1.9795368e-2,
          4.11001263e-3,
          8.92114898e-4,
          -1.41957567e-2,
          -3.02541066e-2,
          -1.02420663e-1,
          -9.04606966e-2,
          2.25890882e-2,
          1.14017666e-1,
          5.55356207e-2,
          1.3095262e-2,
          1.96553806e-2,
          4.42137457e-2,
          3.94435036e-2,
          -7.00504747e-2,
          -6.5315486e-3,
          4.66791866e-2,
          9.14844848e-2,
          3.10807323e-3,
          -8.26576273e-3,
          -2.54286912e-2,
          -4.21026565e-2,
          -3.94753834e-2,
          -4.02728611e-2,
          -1.16484402e-2,
          -2.081583e-2,
          1.60232049e-2,
          6.52710329e-3,
          2.36869196e-2,
          2.3390669e-2,
          3.37663029e-3,
          -3.97710056e-3,
          -5.67812088e-2,
          -9.58637986e-2,
          -4.32689628e-2,
          -4.64700755e-2,
          -1.46511801e-2,
          -7.66290335e-2,
          -5.80931691e-2,
          1.36690074e-2,
          -1.00893415e-1,
          -8.17238334e-2,
          -9.15103491e-2,
          -2.73047896e-2,
          -1.67612896e-2,
          6.65438955e-2,
          -1.71167466e-2,
          -1.95487351e-3,
          -4.78656209e-2,
          1.47312591e-2,
          -3.48488019e-2,
          -6.81954979e-2,
          -3.29613986e-2,
          -3.4294902e-2,
          2.0698171e-2,
          5.29440748e-3,
          2.89863123e-2,
          2.83980937e-2,
          1.5819273e-2,
          2.14498465e-3,
          -3.78762138e-2,
          -4.66465199e-2,
          -7.08987513e-2,
          -5.12968242e-2,
          -1.55259922e-2,
          -8.93956589e-2,
          -8.44624772e-2,
          -1.09201291e-1,
          1.0319231e-2,
          -7.38782894e-2,
          -7.12366175e-2,
          -1.02237625e-1,
          -2.26804606e-2,
          8.87212761e-3,
          3.78069131e-2,
          6.03021406e-2,
          -3.50955518e-4,
          5.65003844e-2,
          -7.34350488e-3,
          -4.65831322e-2,
          -4.59217977e-2,
          -1.74223375e-2,
          7.61833493e-4,
          3.05615958e-2,
          2.89477006e-2,
          3.01827757e-2,
          1.51523699e-3,
          6.84565688e-3,
          8.44691565e-4,
          -2.87721604e-3,
          -2.92278363e-2,
          -1.04765034e-2,
          3.49728251e-2,
          -7.13360711e-2,
          -9.45006618e-2,
          -9.5006077e-2,
          -1.30547996e-1,
          -6.75473941e-2,
          -4.42208321e-2,
          -4.60905973e-2,
          -2.95305531e-2,
          -2.68033024e-2,
          -5.38841831e-2,
          2.55466637e-2,
          5.09439801e-2,
          2.86437604e-2,
          -2.58165294e-2,
          -3.67924638e-2,
          1.25601472e-2,
          2.35867991e-2,
          6.4517598e-3,
          2.05344195e-2,
          1.64844078e-2,
          2.08781302e-2,
          3.02775317e-3,
          -3.39502289e-3,
          1.09485587e-2,
          3.18337637e-2,
          1.53847192e-2,
          2.97751184e-2,
          -3.39922577e-3,
          -4.80279962e-2,
          -4.87361985e-2,
          -6.67562929e-2,
          -8.22058944e-2,
          -6.7371539e-2,
          -8.03580776e-2,
          -2.12469004e-2,
          3.29311642e-2,
          -8.14249758e-2,
          -3.76023763e-2,
          -2.08762322e-3,
          -2.68951424e-3,
          -1.69774389e-2,
          -2.35364609e-2,
          -1.63806279e-2,
          5.60020602e-3,
          -5.98360721e-3,
          2.79452006e-2,
          2.18064828e-3,
          2.14863819e-2,
          9.42738869e-3,
          -6.043373e-3,
          6.89569539e-3,
          -6.53136022e-3,
          5.71579976e-3,
          7.75677665e-2,
          3.39139762e-3,
          -1.89598726e-2,
          -4.14027063e-2,
          -2.23923021e-2,
          -8.12934543e-3,
          -9.31210436e-3,
          -4.62110915e-2,
          1.49886139e-2,
          -7.57689335e-2,
          1.48936035e-2,
          -3.48804903e-2,
          -2.01098386e-2,
          -5.95624642e-2,
          1.70996652e-2,
          -2.43514529e-2,
          3.60252861e-2,
          3.07562594e-2,
          4.28315757e-2,
          9.77460688e-3,
          3.48244523e-3,
          2.38209991e-2,
          8.66074722e-3,
          2.01147841e-2,
          2.04875922e-2,
          1.37228744e-2,
          1.98718286e-2,
          2.15552143e-2,
          3.76028882e-2,
          1.782117e-2,
          6.51024994e-2,
          -5.57567204e-2,
          -8.95380087e-3,
          9.93759467e-2,
          -5.93577915e-2,
          -8.83973009e-3,
          -1.50986019e-2,
          -1.03522841e-2,
          -1.05649438e-2,
          2.13552516e-2,
          4.59154732e-2,
          -2.15534273e-2,
          3.16163931e-2,
          2.80785443e-2,
          1.80804422e-2,
          6.30638401e-2,
          5.80491585e-2,
          1.06642274e-2,
          2.68628553e-2,
          3.50788786e-3,
          2.56317637e-2,
          2.30833374e-2,
          2.38625924e-2,
          1.48758035e-2,
          4.18700993e-2,
          6.13756186e-2,
          4.70507187e-2,
          6.00496103e-2,
          5.2982265e-2,
          3.45834777e-3,
          2.78419801e-2,
          6.04940898e-2,
          -2.71716714e-2,
          2.17088983e-2,
          -6.31941675e-2,
          -1.22375394e-2,
          1.40363495e-2,
          -4.19667497e-3,
          -2.37581358e-2,
          6.45643786e-3,
          7.56213987e-2,
          5.25472004e-2,
          5.51634565e-2,
          5.73046741e-2,
          1.5999955e-2,
          -4.80403149e-3,
          1.38316515e-2,
          1.24557948e-2,
          2.59524223e-2,
          2.24590946e-2,
          1.61588371e-2,
          -9.89147083e-5,
          4.12146506e-2,
          7.03651419e-2,
          6.55517779e-2,
          7.43427254e-2,
          1.06727607e-1,
          8.3501089e-2,
          9.94870714e-2,
          9.12786032e-2,
          6.24309645e-2,
          2.21680025e-2,
          6.6541962e-2,
          3.77400951e-2,
          1.12491456e-1,
          8.78838337e-2,
          8.89349947e-2,
          1.38881287e-1,
          1.25097014e-1,
          6.41095488e-2,
          2.64458557e-2,
          -2.5168195e-3,
          1.18780827e-3,
          1.45156106e-2,
          -5.14424706e-4,
          8.62183656e-3,
          2.02814631e-2,
          8.87222864e-3,
          2.24571984e-2,
          1.40910182e-2,
          2.06438918e-2,
          3.23316704e-2,
          5.71502982e-2,
          3.90586451e-2,
          6.57278757e-2,
          1.30847856e-1,
          1.20009245e-1,
          1.46308458e-1,
          1.30365141e-1,
          1.77678542e-1,
          2.48477021e-1,
          1.28204672e-1,
          1.01771931e-1,
          1.21201429e-1,
          1.09365909e-1,
          6.74280817e-2,
          7.84619954e-2,
          4.16440693e-2,
          3.10888581e-2,
          2.16958454e-2,
          1.05159198e-2,
          2.62935961e-2,
          1.24582055e-2,
          1.41937804e-2,
          2.88419661e-2,
          1.31072073e-2,
          1.90105156e-3,
          8.1986726e-3,
          1.88325868e-2,
          6.87229633e-3,
          2.49073714e-2,
          8.21196069e-3,
          2.80477298e-2,
          1.76347657e-2,
          1.45082198e-2,
          2.90056039e-2,
          2.04373037e-2,
          7.90820054e-3,
          4.309851e-2,
          2.76069187e-2,
          8.03922261e-3,
          1.99337549e-2,
          3.82949276e-2,
          1.92297031e-2,
          3.02586109e-2,
          1.84140157e-2,
          1.35301183e-2,
          3.08972361e-2,
          1.52961958e-3,
          3.09448744e-2,
          1.11519993e-2,
          1.13416895e-2
        ],
        [
          2.37097899e-2,
          1.98975435e-2,
          6.30638359e-3,
          1.7201262e-2,
          2.17004371e-2,
          2.47283643e-2,
          1.70808362e-3,
          2.82174681e-2,
          2.80998632e-2,
          1.02171922e-2,
          9.86327233e-5,
          2.96765992e-2,
          8.09738924e-3,
          1.27676557e-2,
          1.68422463e-2,
          1.66522816e-2,
          7.35271628e-3,
          2.68025199e-2,
          1.20719055e-2,
          2.32001764e-4,
          1.6650244e-2,
          2.51464152e-2,
          2.77115162e-2,
          2.77610239e-2,
          1.66797752e-2,
          2.96398218e-2,
          2.75114694e-2,
          1.52157946e-2,
          1.15004418e-2,
          7.45347336e-4,
          1.56068904e-2,
          9.07560508e-4,
          1.15435847e-2,
          1.89615128e-2,
          1.16394911e-2,
          2.627369e-2,
