{"layers":[{"size":32,"weights":[[ 2.06771683e-02, 1.50997113e-02, 7.07654095e-03, 4.93791153e-04,
   1.51819888e-02, 2.69167269e-02, 1.53879064e-02, 2.89559738e-02,
   1.41815625e-02, 2.40831053e-03, 1.07919262e-02, 3.11123002e-02,
   3.96346892e-03, 1.89337939e-02, 6.43026607e-03, 2.74344654e-02,
   2.72078743e-02, 2.06321568e-02, 2.42579579e-02, 9.23736049e-03,
   2.75033086e-03, 2.02299803e-02, 2.28872211e-03, 8.26401778e-03,
   4.21164924e-03, 2.44782584e-02, 1.28618285e-02, 7.90493175e-03,
   8.96101614e-03, 9.26308304e-03, 1.02597687e-02, 2.20677194e-02,
   6.93445293e-03, 2.55612036e-02, 1.57023224e-02, 1.99303879e-02,
   6.76865402e-03, 2.75785902e-02, 6.06997918e-03, 1.42070276e-02,
   2.20505041e-02, 2.37354383e-02, 7.38304476e-03,-6.69746007e-04,
  -2.17391924e-02, 5.53135348e-03, 2.54292143e-02, 3.10553344e-02,
   2.16564177e-02, 2.78867891e-02, 1.01317244e-02, 3.03616397e-02,
   1.04976844e-02, 2.78707620e-02, 2.09212592e-02, 2.05799344e-02,
   3.03551496e-02, 2.55647719e-02, 2.91460453e-02, 2.18245205e-02,
   5.23762459e-03, 1.89945327e-03, 2.15990361e-03, 2.63846503e-02,
   6.73327804e-03,-8.06727238e-03,-8.04697166e-03, 4.95550371e-03,
  -2.54576388e-03, 2.28836026e-02,-2.16314659e-02,-1.63421780e-02,
   1.46680437e-03, 1.39910628e-02, 4.51935788e-02, 5.94794129e-02,
   4.59882952e-02, 3.26987010e-02, 3.64429272e-02, 3.28004888e-02,
   2.16728161e-02, 1.37186926e-02, 6.37208465e-03, 7.96679527e-04,
   1.83038081e-02, 4.29773960e-03, 5.09649705e-03, 8.13326399e-03,
   2.26868500e-02, 1.74959159e-02, 1.42849556e-02, 2.48177302e-02,
   2.53415732e-03,-4.44626498e-02,-3.54453743e-02,-2.92107855e-02,
  -4.99498602e-02,-7.76632771e-02,-6.69294105e-02,-5.06290837e-02,
  -7.82566618e-02,-2.24210140e-02, 5.73800377e-02, 1.10928374e-01,
   7.36417166e-02, 7.66094841e-02, 6.57132587e-02, 4.09955554e-02,
   1.82271967e-02, 2.36643802e-02, 1.48309442e-03, 8.09119586e-03,
   1.87988886e-02, 1.14653981e-03, 2.26527775e-02, 1.59875991e-02,
   6.22585459e-03, 9.11916408e-03,-2.50572925e-02,-3.24115590e-02,
  -8.07603503e-02,-8.72440018e-02,-9.12515952e-02,-8.17644369e-02,
  -8.61311543e-02,-1.34332471e-01,-1.08334477e-01,-7.17528487e-02,
  -6.54062748e-02,-3.00288925e-02,-3.10303125e-02,-5.43102684e-04,
  -1.46282171e-02, 1.53882097e-02, 3.92228916e-02, 8.24079091e-02,
   5.98843386e-02, 2.63816555e-02, 9.47560287e-03, 2.00170894e-02,
   2.82731439e-02, 1.32725598e-02, 2.82653323e-02, 1.97637427e-02,
   6.93743839e-03,-1.24384331e-02,-4.13802301e-02,-7.68558405e-02,
  -1.13648471e-01,-7.35878373e-02,-5.82946044e-02,-2.99571235e-02,
   5.65495635e-02,-6.60872471e-02,-2.60556286e-02,-6.84205582e-02,
  -7.91837022e-02, 2.55501377e-02,-6.72701903e-02,-4.09492181e-02,
  -4.31287931e-02,-7.83156537e-02,-2.62502750e-02, 8.88822015e-02,
   6.88805202e-02, 3.25364687e-02, 1.63355362e-02, 1.85014761e-02,
   1.61374691e-02, 3.19376673e-03, 7.86985044e-03,-7.30030376e-03,
  -1.43383247e-02,-1.24829503e-02,-5.99370812e-02,-9.26847535e-02,
  -8.87754267e-02,-1.10783742e-01,-8.70955126e-02, 1.81883874e-02,
   7.40373032e-02,-6.78571038e-02,-7.36397620e-02,-6.70568842e-02,
  -1.29328934e-01,-1.37946295e-02,-5.74327383e-02,-4.50689475e-03,
   3.22787354e-02,-9.26929015e-03, 7.81472297e-02, 1.43322125e-01,
   1.41605044e-01, 6.27282649e-02, 4.72306826e-02, 2.00000736e-02,
   1.44003704e-02, 2.81352770e-02, 2.26358893e-02,-6.90242463e-03,
  -4.01249125e-02,-5.76676735e-02,-7.34241581e-02,-8.87273109e-02,
  -4.76279729e-02, 4.57164409e-02, 7.15002364e-02, 5.78503730e-02,
  -9.12636499e-03,-4.15223068e-02,-3.14415474e-02,-5.55973404e-02,
  -8.46862790e-02, 1.64662490e-02, 2.77067611e-02, 1.03546032e-01,
   3.07889148e-02, 2.18036087e-02, 1.28395559e-01, 1.75519889e-01,
   1.59954619e-01, 9.98042707e-02, 5.85707181e-02, 7.79954038e-03,
   2.79882263e-02, 1.59713774e-02,-7.30481211e-03,-1.63252071e-02,
  -8.83798215e-02,-7.28965754e-02,-2.42347893e-02,-2.76919031e-02,
  -2.57874971e-03, 9.81599104e-02, 3.55141476e-02, 2.25500346e-02,
   4.56408010e-02, 3.17336228e-02, 1.90957894e-02,-2.31504674e-02,
   9.52589808e-04,-3.19601975e-02, 5.50714580e-02, 7.98178304e-02,
   4.17184361e-02, 1.02594723e-01, 6.42099526e-02, 8.13619778e-02,
   2.10845073e-01, 1.43604416e-01, 6.01028899e-02,-8.53544709e-05,
   9.87257871e-03, 8.57921736e-03, 3.36073439e-04,-4.35738754e-02,
  -5.48637025e-02,-5.30996089e-02,-5.39830618e-03,-3.02756909e-02,
  -1.23460042e-03, 1.36652579e-02,-7.49884516e-02,-1.99109540e-02,
  -7.29887378e-03,-3.03415292e-02,-5.18519569e-02,-8.96223445e-03,
   4.77110449e-02, 1.10591612e-01, 1.21943842e-01, 9.23448091e-02,
   1.73558170e-02, 4.52027386e-02, 9.12900330e-02, 7.96132984e-02,
   1.49643727e-01, 8.81408458e-02, 3.39884131e-02, 3.94787441e-03,
   1.32780140e-02, 1.96974454e-02, 2.09267906e-03,-6.09937683e-02,
  -3.16963645e-02,-6.91443854e-02,-1.01205343e-01,-1.21095310e-01,
  -2.62472958e-02,-4.08207354e-03,-1.55321326e-02, 5.70045886e-02,
   5.21295254e-02,-1.04383300e-01,-1.19201548e-01,-7.45059764e-02,
  -1.01102625e-01,-6.40915232e-02,-8.02524917e-02,-1.00164751e-02,
  -4.86144149e-02, 1.12627401e-02, 5.24551554e-02, 4.86725644e-02,
   4.06327927e-02, 5.11840067e-02, 2.65686711e-02, 1.59476572e-02,
   2.30963110e-04, 1.97992101e-02,-2.45417728e-02,-5.87626668e-02,
  -8.99725192e-02,-7.16102644e-02,-1.26384269e-01,-1.24301561e-01,
  -1.57002910e-02, 7.87751274e-02, 1.08702289e-01, 2.70175755e-02,
   4.14150883e-02,-1.56933252e-01,-1.76626931e-01,-1.25216095e-01,
  -2.71654506e-02,-1.84134897e-01,-1.42825103e-01,-1.00194759e-01,
  -6.14807882e-02,-3.41812356e-02,-1.88562401e-02,-2.94521534e-02,
  -2.05182741e-02, 1.35309996e-03, 1.43193926e-02, 2.39333779e-02,
   1.86161290e-03, 2.51213502e-02, 1.27931790e-02,-5.37913854e-02,
  -9.76026619e-02,-1.06360065e-01,-1.13008231e-01,-1.13040583e-01,
   8.43100977e-03, 4.30541874e-02, 1.50199477e-01, 2.10484473e-01,
   1.40693659e-01, 7.79658367e-02,-5.32225803e-02,-8.22770935e-03,
  -2.55055338e-02,-1.12319419e-01,-1.82828583e-01,-1.28603009e-01,
  -5.04690916e-03,-5.03924569e-02,-6.10855978e-02,-2.47025409e-02,
  -2.70759216e-02,-1.94920668e-02,-1.57373510e-02,-1.24020649e-03,
   8.63165990e-03, 1.53448254e-02, 1.04034332e-02,-2.92522517e-02,
  -8.54398684e-02,-9.55455106e-02,-8.79516320e-02, 2.30001966e-04,
   1.59117144e-02, 9.74397178e-02, 1.55594067e-01, 7.82588462e-02,
   1.59874262e-01, 1.36369081e-01, 1.25241109e-01, 1.86105218e-01,
   6.75521782e-02,-1.21560795e-02,-8.88008635e-02,-4.98254751e-02,
   9.25932355e-04,-1.41529657e-01,-6.28311031e-02,-4.59104661e-02,
  -6.07150647e-02,-5.72269198e-02,-3.98575929e-02,-3.68107099e-03,
   2.80182859e-02, 8.17834408e-03, 1.87314048e-02,-1.36812836e-02,
  -2.33604682e-02,-3.23468791e-03,-8.05479618e-02, 1.92266878e-02,
   9.09668908e-02, 8.76430799e-02, 3.77079013e-02, 4.96863711e-03,
   8.85119715e-02, 1.67172763e-01, 1.36740733e-01, 1.94426166e-01,
   1.28827308e-01, 2.33156672e-02,-7.82732268e-02,-5.79185711e-02,
  -7.49215203e-02,-1.43313983e-01,-8.33969586e-02,-7.65987648e-02,
  -9.19512286e-02,-6.38638620e-02,-3.75193322e-02, 2.73306872e-02,
   2.93151735e-02, 2.33114639e-02, 2.92811339e-02, 4.56330171e-03,
   2.67272621e-03,-8.26809051e-02,-1.30991020e-01,-7.43493207e-02,
  -1.83374912e-02, 3.80560965e-02, 6.14626984e-02,-1.42017295e-04,
   1.09842113e-01, 2.77905666e-02, 1.69067959e-01, 1.66689347e-01,
   1.20763542e-01, 5.17640431e-02,-9.07082981e-02,-9.83601645e-02,
  -1.13802386e-01,-8.43261475e-02,-4.39548921e-02,-1.74280200e-02,
  -6.29534274e-02,-6.31843460e-02, 7.86338419e-04, 1.13624947e-02,
   3.00681771e-02, 1.90690137e-02, 1.66299056e-02,-3.75110008e-02,
  -2.66136718e-02,-5.56024601e-02,-7.28552311e-02,-9.55783294e-02,
  -7.70292856e-02,-7.97871929e-02,-3.67710174e-02, 2.20427432e-02,
   1.44301043e-01, 1.35915766e-01, 1.13865347e-01, 1.54850244e-01,
   1.06513817e-01, 1.42029404e-02,-8.15276466e-02,-1.15689436e-01,
  -1.06888864e-01,-1.16593471e-01,-7.84231178e-02,-3.06776907e-02,
  -8.32041445e-02,-5.25147061e-02,-3.11210192e-02,-4.25589485e-03,
   1.36073556e-02, 2.33802393e-02, 1.46829325e-02,-5.64177796e-02,
  -2.98352127e-02,-5.82071037e-02,-7.48616820e-02,-7.04546406e-02,
  -8.06304371e-02,-3.50183796e-02, 1.52961835e-02,-9.39907925e-03,
   3.28961423e-02, 3.75565221e-02, 6.41590844e-02, 9.47072481e-02,
   7.72079240e-02, 1.09082800e-02,-6.17282251e-02,-1.80491835e-01,
  -7.75136058e-02,-1.24436050e-01,-1.21725834e-01,-5.44428552e-02,
  -8.22582102e-02,-6.22759753e-02,-1.83564811e-02, 2.03346987e-02,
  -4.71344037e-04, 1.09635014e-02, 1.69371797e-02,-3.04173936e-02,
  -4.57751218e-02,-2.42590100e-02, 2.92321854e-02,-6.26453884e-02,
  -1.30821655e-01,-1.26218400e-01,-1.51741851e-01,-3.36917946e-02,
   7.64350799e-02, 1.25962074e-01, 6.29904312e-02,-4.92255464e-03,
   8.58682115e-02,-4.46020546e-02,-9.87333049e-02,-1.46549021e-01,
  -1.24946926e-01,-1.59703518e-01,-1.72535175e-01,-8.89485787e-02,
  -6.01461296e-02,-3.21012518e-02, 1.56801437e-02, 1.36525977e-03,
   2.57287230e-02, 2.39195370e-02, 9.06986375e-03,-2.15650214e-02,
  -2.14252065e-02,-1.24419625e-02,-2.73853013e-02,-5.74863357e-02,
  -8.02559896e-02,-1.57319223e-01,-1.51724130e-01,-7.10951288e-02,
   7.29627060e-02, 2.34534856e-02, 9.93804041e-02, 3.79117175e-02,
   6.75979129e-02, 2.17022725e-02,-8.71616277e-02,-1.11609732e-01,
  -1.75062950e-01,-1.61181045e-01,-1.40264995e-01,-8.59910071e-02,
  -5.96908466e-02,-2.63052833e-02, 4.24803165e-03, 2.71202423e-02,
   1.12595945e-02, 2.26195483e-03, 1.56891286e-02,-3.25296730e-02,
  -9.77877925e-02,-2.71474178e-02,-6.19546181e-02,-1.18604487e-01,
  -9.11774881e-02,-1.24485969e-01,-9.26741838e-02, 3.96921480e-03,
   5.72160256e-02, 6.21701006e-02, 4.58322041e-02,-6.62947519e-05,
   6.31193522e-02, 8.04846215e-03,-7.56074555e-02,-8.96146102e-02,
  -2.29123013e-01,-1.59811767e-01,-8.71757041e-02,-8.84131652e-02,
  -4.51652265e-02,-2.09925535e-03, 2.54510160e-02, 1.67579760e-02,
   1.65797706e-03, 2.89080922e-03,-9.73357946e-03,-1.34405450e-02,
  -4.54935951e-02,-1.17329775e-02,-5.18228247e-03,-4.52060109e-02,
   5.00187242e-03, 3.57848301e-02,-2.68688798e-02, 1.07879749e-01,
   8.67006590e-02, 6.48323900e-03,-3.58544926e-02, 1.98429801e-02,
  -1.85176987e-02,-1.38370015e-02,-6.27986019e-02,-1.64797473e-01,
  -2.12774565e-01,-1.73521806e-01,-7.88757014e-02,-2.77105496e-02,
  -9.26885917e-03, 1.05966271e-02, 2.22238303e-02, 1.58883886e-02,
   2.89474886e-02, 3.53090796e-03,-9.99977008e-03,-7.59475226e-03,
  -3.04710158e-02,-4.26156474e-02, 2.17866593e-02, 3.05012084e-02,
   9.79692813e-02, 3.10978200e-02, 1.31298172e-01, 1.29872683e-01,
   1.33574397e-01, 1.09985262e-01, 2.13565047e-03, 2.51286052e-02,
  -3.09970970e-03,-4.57362564e-02,-9.13765660e-02,-1.08017751e-01,
  -1.68827271e-01,-1.02264653e-01,-5.64236430e-02,-5.85532149e-03,
   1.17936319e-02, 4.07696688e-03, 1.35995241e-02, 2.45938726e-02,
   2.38761417e-03, 2.65361251e-02, 4.95534674e-03, 2.22928860e-03,
  -3.12235154e-02,-5.89841713e-02,-4.28958099e-02, 1.92546055e-02,
   1.68433145e-01, 1.09348880e-01, 1.77391820e-01, 1.21686816e-01,
   7.49481798e-02, 7.11595704e-02, 1.15679070e-01, 2.97836896e-02,
   4.73945922e-02,-1.52402022e-02,-5.05801634e-03,-7.46213148e-02,
  -8.58108744e-02,-8.51850223e-02,-2.80252919e-02,-1.97884397e-03,
  -9.82089486e-03, 2.37762863e-02, 2.86290725e-02, 2.19977186e-02,
   1.62631643e-02, 1.26370007e-03, 2.82626010e-03, 1.54483093e-02,
   1.54972067e-02,-1.13858267e-02,-2.42228004e-02, 4.90730307e-02,
   9.17550815e-02, 1.17401150e-01, 9.88173030e-02, 9.36123249e-02,
   2.78898833e-02, 6.02796529e-02,-2.04909366e-03, 2.46561141e-02,
   3.63840972e-02,-4.12209366e-03, 7.42175511e-03, 6.06347428e-03,
  -1.20576948e-02,-2.24384480e-02,-3.32611142e-03, 2.26629252e-02,
   1.99779342e-02, 1.52357251e-02, 4.25041429e-03, 6.48129717e-03,
   3.09184257e-02, 2.96596719e-02, 2.98264068e-02, 1.29477027e-02,
   7.01008484e-03, 1.48038386e-02,-4.10955126e-02,-4.06488661e-02,
  -5.99160169e-02,-1.98974534e-02,-6.03474267e-03,-2.03553918e-02,
  -9.42430173e-02,-2.70368244e-02,-2.39060804e-02, 2.39373748e-02,
   1.55825667e-02, 1.50257521e-02, 3.44555464e-02, 4.21137132e-02,
   4.64034827e-02, 2.26719671e-02, 4.67721037e-02, 2.80107742e-02,
   2.38108911e-02, 1.81297211e-03, 7.73128053e-03, 5.24191213e-04,
   3.00156751e-02, 4.56524986e-03, 2.82992114e-02, 5.23341452e-03,
   3.85726162e-02, 5.82456358e-02, 3.94958212e-02, 1.70234651e-02,
   1.16906753e-02,-1.20276868e-02,-2.56599361e-02, 4.18541947e-03,
   2.76709979e-02,-1.49381539e-02,-8.23020112e-03, 2.13799496e-02,
   3.38950145e-02, 3.28030287e-02, 1.39919176e-02, 2.05186482e-02,
   2.49296041e-02, 7.27990236e-03, 1.87537171e-02, 2.06301245e-02,
   2.37448458e-02, 2.84638320e-02, 6.80543045e-03, 1.53176464e-02,
   2.33677847e-02, 5.46879979e-03, 1.86016270e-03, 1.63837842e-02,
   8.27201605e-03, 2.71947220e-02, 4.93238204e-03, 2.76861725e-03,
   1.65852617e-03, 4.81919234e-03, 2.14667117e-03, 2.26851027e-02,
   2.02888242e-02, 1.29861098e-02,-6.30785139e-03, 6.61953458e-03,
  -2.16147642e-03, 1.54218173e-02, 6.55002815e-03, 8.17447674e-03,
   9.54733308e-03,-1.82997975e-03,-1.96312958e-03, 2.01434161e-02,
   2.55784342e-02, 6.10387697e-04, 1.54126450e-02, 2.46175403e-02],
 [ 1.98571280e-02, 1.91152737e-02, 7.97264726e-03, 1.19827059e-02,
   1.22934749e-02, 2.66640863e-02, 8.63687337e-03, 1.17162882e-02,
   1.73437682e-02, 9.71317661e-03, 6.13960397e-03, 3.55543126e-03,
   2.42211393e-02, 1.34276001e-02, 4.14564946e-04, 8.63146134e-03,
   1.07836356e-02, 1.08630373e-02, 9.56775454e-03, 1.99508878e-02,
   1.69659295e-02, 1.38341439e-02, 2.37428698e-03, 2.22887055e-02,
   1.98251373e-02, 1.80851093e-02, 1.83495279e-04, 8.60002200e-03,
   1.37442786e-02, 1.44145256e-02, 5.40573605e-03, 8.04212143e-03,
   2.65502844e-02, 3.33717887e-03, 2.94588097e-03, 5.99500730e-03,
   3.35777043e-03, 2.11304953e-02,-1.10392356e-03, 1.42436347e-02,
   2.15002505e-02, 8.18758414e-03, 6.51868679e-03, 1.56526648e-02,
   9.12109930e-03, 4.05061156e-03, 2.66592011e-02, 5.31413274e-03,
   2.09819904e-02, 1.06332070e-02, 4.07975809e-03, 1.83164916e-02,
   8.85950351e-04, 9.12193080e-04, 8.30737878e-04, 8.21783903e-03,
   1.56512405e-02, 2.51651045e-02, 2.87697249e-02, 2.88144607e-03,
   3.03661191e-02, 1.25486523e-02, 5.99537960e-03, 2.38564920e-02,
  -4.27148340e-03, 1.53748125e-02, 7.50189118e-03, 7.96585140e-04,
  -1.80126014e-02,-3.67408909e-02,-1.41294552e-02,-4.64260375e-02,
  -2.40795338e-02,-5.86231523e-03,-5.03359711e-03,-2.44716424e-02,
   7.23748328e-03, 1.85198954e-02,-1.98983246e-03, 1.56287652e-02,
   1.49294800e-02, 2.04628736e-02, 2.16665741e-02, 2.78847949e-02,
   2.08766726e-02, 1.88769459e-02, 2.32301535e-03, 2.22066691e-02,
   2.27955954e-02, 2.21043748e-02, 2.33913125e-03, 5.73582362e-04,
  -6.09741447e-03,-2.81456548e-02,-2.86143686e-02,-4.74793229e-02,
  -6.69551106e-02,-9.72566788e-02,-8.45418650e-02,-8.73313046e-02,
  -8.10659236e-02, 5.44850202e-03,-1.86006479e-02,-2.69823806e-02,
   5.77433309e-03, 1.39059445e-02, 1.87569640e-02, 3.20357884e-02,
   1.50320075e-02, 2.19043752e-02, 1.38462697e-02, 8.93731877e-03,
   1.19119820e-02, 3.68396069e-03, 2.55967680e-02, 2.97111469e-02,
   1.37225065e-02, 8.30551902e-03,-3.23454822e-03,-1.10279795e-02,
  -2.88336346e-02,-9.21108517e-03,-1.02518692e-02,-7.15751845e-03,
  -6.69424933e-03,-7.29996950e-02,-4.83537261e-02,-8.06453009e-03,
  -2.04186724e-03, 5.23472652e-02, 5.38141700e-02, 8.69685140e-03,
   3.12474956e-03, 2.61438579e-03, 2.33121016e-02, 4.98233685e-02,
   3.64649274e-02, 3.86415489e-02, 2.13748167e-02, 3.58997295e-03,
   1.43781727e-02, 5.34688576e-03, 2.10585438e-02, 1.41778385e-02,
   1.50371973e-02, 2.79325454e-03,-3.33958826e-02,-3.49973190e-02,
  -2.55316321e-02,-2.02170010e-02, 7.90651195e-03, 1.16222004e-01,
   1.04261293e-01, 8.78704535e-02, 6.69666473e-02, 8.38396640e-02,
   8.41875876e-02, 1.38281278e-01, 1.08761395e-01, 4.51374204e-02,
   4.71266494e-02,-9.15614649e-03,-1.23841604e-02,-2.32969934e-03,
   1.99330358e-02, 5.49457173e-02, 2.93555293e-02, 3.09037287e-02,
   1.80845501e-02, 2.53411654e-02, 1.59196115e-02, 2.42050910e-03,
  -6.36411868e-03,-1.74150265e-02,-4.67296150e-02,-5.06853572e-02,
  -4.22937056e-02,-1.33174230e-02, 1.48670517e-02, 4.47746946e-02,
   8.38576278e-02, 1.57766596e-01, 1.69523044e-01, 1.88321986e-01,
   1.79600046e-01, 1.17438414e-01, 4.98592646e-02, 5.64349226e-02,
   3.80219738e-02, 1.77078876e-02, 2.04572853e-02, 1.33873141e-02,
   1.13169015e-02, 4.63355717e-02, 2.74988613e-02, 3.03804703e-02,
   8.22363045e-03, 1.33069463e-02, 1.56979179e-02, 1.35285455e-02,
  -2.71678227e-02,-4.68935868e-02,-5.42894185e-02,-1.09602318e-01,
  -7.82914119e-02,-3.31466682e-02, 5.72012498e-02, 1.03801185e-01,
   1.05788832e-01, 1.76090002e-01, 1.51750957e-01, 2.16762334e-01,
   8.08681721e-02, 2.85565264e-02, 1.53658285e-02,-2.28832993e-02,
   2.07283610e-03, 3.06993960e-02, 1.54362857e-02, 3.96384793e-02,
   2.89438368e-02, 3.63769429e-02, 3.54331003e-02, 1.81776290e-03,
   5.48155951e-03,-1.38509195e-03, 1.98718926e-02,-1.57197510e-03,
  -5.00065146e-02,-5.50591749e-02,-2.04809109e-02,-5.52924275e-02,
  -2.10296158e-02, 2.39410074e-02, 6.65442460e-02, 1.58828939e-01,
   7.89177802e-02, 7.61736958e-02, 7.70221216e-02, 6.62080229e-02,
   3.45208066e-02,-5.90475783e-02, 5.22850308e-02, 1.50787219e-02,
  -4.22859831e-02, 2.19366812e-02,-4.80310409e-02, 1.29029869e-02,
   8.07436674e-02, 6.01240762e-02, 1.41457962e-02, 1.86899917e-02,
   2.67535396e-02, 2.37732632e-02, 2.27276921e-02,-1.83753240e-02,
  -7.87300931e-02,-3.73970527e-02, 7.70432275e-03,-1.01762702e-02,
   5.05848008e-04, 2.88312726e-02, 1.22960102e-01, 1.21715157e-01,
   4.89291856e-02, 7.89336877e-03,-1.17389534e-01,-1.51307608e-01,
  -1.18375820e-01, 5.50217255e-02, 1.03625075e-01, 6.37298859e-02,
   3.21710874e-02,-4.84426999e-02,-6.14061014e-02, 1.42922549e-02,
   5.66228358e-02, 3.19834398e-02, 1.41318283e-02, 1.60444800e-02,
   2.02358196e-02, 8.99133234e-03,-5.95511109e-03,-1.20469395e-02,
  -2.97891665e-02, 6.10026372e-03, 6.11919818e-02, 5.28969462e-02,
   5.29523463e-02, 1.14119407e-01, 1.10037944e-01, 7.87307356e-02,
   6.88398006e-02,-1.67242791e-01,-1.46932337e-01,-1.78719287e-01,
  -1.07946263e-01, 2.41627953e-02, 1.25733753e-01, 3.12115285e-02,
   4.98667292e-03,-5.20403883e-02, 1.18419913e-02, 4.92757729e-02,
   4.28438869e-02, 3.81889420e-02, 2.80350159e-02, 8.04896195e-03,
   1.33775029e-03, 5.37719774e-03,-9.21987967e-03,-2.61047352e-02,
  -3.75447084e-02, 3.86580850e-02, 1.07937512e-01, 1.30013229e-01,
   1.36880627e-01, 1.45961403e-01, 1.38696534e-01,-1.62408683e-02,
  -6.71414896e-02,-1.01860647e-01,-8.62679256e-02,-1.25919892e-01,
  -3.36212214e-02, 7.19404654e-02, 4.47824645e-02,-2.02911489e-02,
  -2.35909917e-02,-7.05301914e-03, 2.78548848e-02, 3.29387884e-02,
   4.68807923e-02, 2.40024791e-02, 1.54677785e-02, 6.66634913e-03,
   2.81550449e-03, 9.52647565e-03,-2.59785332e-03, 1.49484490e-02,
   3.46396595e-02, 8.77108724e-02, 1.26974900e-01, 8.79660914e-02,
   8.49919372e-02, 3.87810913e-02,-3.91352608e-02,-1.34313150e-01,
  -2.38379209e-01,-6.52869318e-02,-1.02731631e-01,-9.04821855e-02,
  -5.18697391e-02, 1.77997379e-02,-4.38078002e-02, 2.56083820e-02,
   1.27561264e-02, 4.83832599e-02, 8.10997621e-02, 7.29237596e-02,
   9.08101001e-03,-7.91255880e-03, 3.32011992e-02,-1.75293870e-03,
   9.69427549e-03, 1.72715482e-02,-2.08607708e-03, 1.76734933e-02,
   8.11513214e-02, 7.13775157e-02, 4.56485335e-02, 1.24135215e-01,
   9.53602479e-02, 3.64121666e-02,-4.37670775e-02,-1.34352357e-01,
  -1.26201210e-01,-4.08643985e-02,-3.99445520e-02,-1.12187834e-02,
  -6.42136129e-02,-5.07403062e-02,-6.29206219e-02, 9.02062078e-03,
   7.20669515e-02, 6.62517060e-02, 8.08981606e-02, 4.53928633e-02,
  -2.75829867e-02,-1.43559798e-03, 1.34855147e-02, 1.80856916e-02,
   2.56762144e-02, 1.17865298e-02, 2.35984340e-02, 2.18588168e-02,
   8.31499667e-02, 7.46656469e-02, 5.51871994e-02, 1.15334362e-01,
   4.94828147e-02, 1.67873909e-02,-9.70961304e-03,-4.67810093e-02,
  -5.67405239e-02, 8.11325635e-03,-2.45281266e-02,-2.07296831e-02,
  -6.85741063e-02,-6.68553745e-02,-4.26045097e-02,-4.61447272e-02,
   2.53017787e-02, 3.16700533e-02, 2.33751490e-02,-1.70638957e-02,
  -4.52032056e-02,-7.71654007e-03, 2.18991755e-02, 1.10240901e-02,
   9.36530720e-03, 2.57019933e-02,-7.20165302e-04, 1.55685203e-02,
   7.50306681e-02, 1.80771821e-02, 1.30700611e-02, 5.30543043e-02,
   4.40263762e-02, 3.31127211e-04, 3.12857883e-02,-6.67846970e-02,
  -4.25321660e-02,-2.84399598e-02, 2.15200796e-02, 2.86288860e-03,
  -5.02144027e-02,-2.60951232e-02,-7.54758789e-02,-8.02739509e-02,
  -8.13483157e-02,-5.83041497e-02,-5.55741623e-03,-1.51736909e-02,
  -4.45420320e-02,-1.27672027e-02, 1.20808209e-02, 1.06563978e-02,
   2.38587038e-02, 9.01806746e-03, 2.50590915e-02,-6.36096975e-03,
   3.39874656e-02, 4.18327074e-02, 9.86183350e-03, 1.40967626e-02,
   4.02837199e-02,-7.52771561e-03,-1.39558667e-02,-4.48233131e-03,
   4.12639291e-02,-1.72668205e-04, 7.41724118e-03, 4.85379842e-02,
   4.69908297e-02, 2.15853045e-02,-5.51849844e-02,-9.57788119e-02,
  -6.29754254e-02,-8.38449601e-02,-1.11737283e-02,-2.15843862e-02,
  -2.26835054e-02,-1.53706758e-02, 1.47824221e-02, 2.46332460e-02,
   1.05456993e-02, 3.04446466e-02, 1.96727016e-02,-6.33443203e-03,
  -1.33948192e-03, 5.35753394e-03,-1.24903345e-02, 2.85492999e-02,
   4.53576220e-02, 5.16282717e-02,-9.08841792e-03,-1.32850452e-04,
   3.98923040e-02,-2.12501936e-03,-5.56426819e-02, 3.30471190e-02,
   3.94138699e-02, 3.24463123e-02,-1.53788363e-02,-6.23862926e-02,
  -7.07767803e-02,-5.88839630e-02,-2.00663937e-02,-1.41928359e-02,
  -3.42399674e-02,-1.74621070e-02, 2.06355701e-02, 1.42064242e-02,
   1.60362445e-02, 1.65410427e-02, 1.14109569e-03,-1.00325218e-02,
  -5.18534149e-03,-1.19600409e-02, 3.51261383e-02, 3.66225050e-02,
   2.69810202e-02, 3.77778567e-02, 3.82015555e-02, 9.25470259e-02,
  -1.09473156e-02,-5.25163223e-02,-7.66722307e-02, 1.14499018e-02,
   4.74236836e-03, 1.96704024e-02,-2.37575447e-02,-1.71412566e-03,
  -1.78096921e-02,-1.70770488e-02,-1.38195520e-02,-1.63327728e-02,
  -1.23643114e-02,-1.32479145e-02, 1.16961567e-02, 2.72917548e-02,
   1.72586755e-03, 2.73224634e-02, 1.51674645e-02,-1.76298432e-02,
  -1.03792192e-02, 1.57872971e-02,-5.62386666e-03, 1.55389870e-02,
   1.53099985e-02,-3.47661992e-02, 4.86232876e-02,-3.11169940e-02,
  -4.27903302e-02,-9.42782444e-02,-9.80413941e-02,-2.63222145e-02,
  -1.39561650e-02, 2.75266221e-02, 6.05533620e-02,-5.51234617e-03,
  -6.54359454e-03,-1.35493997e-02,-8.16536873e-03, 3.34216258e-03,
   3.50379955e-03,-6.98807905e-03, 6.79184879e-03, 1.69308209e-02,
   2.97666900e-02, 2.80804818e-02, 2.22938254e-02, 2.54665819e-03,
  -1.66541779e-02, 2.33248418e-02,-2.41372770e-02,-2.73413144e-02,
  -2.34081214e-02,-7.49941532e-02,-2.52540868e-02,-1.22508291e-01,
  -8.12449941e-02,-5.81754926e-02,-1.10366592e-01,-4.58766151e-02,
  -3.27739199e-02,-2.07357532e-02,-4.20898075e-02,-3.65939951e-02,
  -5.53028922e-02,-3.31043858e-02,-1.17008362e-02,-9.17385406e-03,
   8.72993271e-03, 1.36229061e-02, 1.37875597e-04, 9.40493977e-04,
   3.08793279e-02, 2.47659414e-02, 3.22967641e-03,-1.60484670e-02,
  -2.35540737e-02,-2.63077319e-02,-8.72256989e-03,-6.61642432e-03,
   9.53849974e-03, 4.88767137e-02,-4.31835743e-02,-3.39837709e-02,
  -4.82913933e-02,-4.49161814e-02,-8.85848039e-02,-2.35197697e-02,
  -8.74535903e-02,-1.23231001e-01,-8.30349579e-02,-9.90842877e-02,
  -4.13964454e-02,-8.44661037e-03, 3.01834244e-02, 3.45396038e-02,
   8.41082330e-03,-6.03337764e-03, 1.75886417e-02, 2.51069522e-02,
   4.53547594e-03, 2.70415630e-02, 1.63747745e-02, 1.13712968e-02,
  -2.03782591e-02,-6.71990982e-02,-7.53321323e-03,-3.37110035e-03,
   6.10024348e-02, 2.17684455e-02, 3.56239517e-02, 1.22540382e-01,
   1.40916606e-01, 1.36302549e-01, 8.96541764e-02, 8.48089659e-03,
  -5.05560165e-02,-5.93790226e-02,-5.42260237e-02,-5.33029913e-02,
   3.59490809e-03, 5.15125276e-03, 5.96033042e-02, 6.51045291e-02,
   1.70187381e-02, 2.74788280e-03, 2.27381391e-02, 4.34293530e-03,
   2.20251379e-02, 1.47284228e-02, 3.09248388e-02, 1.78844114e-02,
   2.23304855e-02,-3.02242776e-02,-2.08509942e-02,-6.82104669e-03,
   7.64824890e-02, 3.69186213e-02, 6.05681230e-02, 1.36773032e-01,
   5.64412123e-02, 7.76620617e-02, 1.41860210e-01, 6.55872355e-02,
   3.96550545e-02, 1.43492971e-02, 2.21051589e-02, 7.55311021e-03,
   5.70315303e-02, 3.81544338e-02, 6.11065474e-02, 5.45050691e-02,
   2.90049326e-02, 1.61905355e-02,-2.11967295e-03, 1.99173179e-02,
   1.74963716e-02, 2.43905930e-03, 2.54632826e-02, 1.75026586e-02,
   1.32560050e-02,-1.27490013e-02,-4.08616150e-02, 2.11574918e-03,
   6.27055732e-02, 3.36984896e-02,-4.15635872e-05, 1.87664353e-02,
   1.06700758e-02, 2.02335117e-02,-1.13142122e-03, 5.60339175e-02,
   6.38063348e-02,-5.53081570e-02, 3.10729911e-03, 4.83181783e-02,
   8.15265267e-02, 4.01069711e-02, 3.88325863e-02, 3.60072340e-02,
  -5.49037436e-03, 1.87951935e-02, 1.62240590e-02, 6.67948446e-03,
   2.66588277e-02, 1.07238552e-02, 2.88511853e-02, 2.49617000e-02,
   6.05763286e-03, 1.51695126e-02, 3.62126046e-03,-9.04208241e-03,
  -1.36979484e-02,-1.87610364e-02, 4.75516910e-02, 1.78160116e-02,
  -4.00235453e-02,-4.09000207e-02,-2.62423639e-02,-1.88025725e-03,
   2.03189460e-02, 6.27397194e-02, 7.12537652e-02, 8.05758652e-02,
   7.46267186e-02, 3.21987529e-02, 1.38349124e-02, 3.49344110e-02,
   1.48339436e-03, 1.66249489e-02, 1.71476966e-02, 2.41483339e-02,
   2.90846451e-02, 2.88769818e-02, 2.47519484e-02, 2.80682820e-02,
   3.70236193e-02, 3.88382869e-02, 4.82091097e-02, 2.32127406e-02,
   3.95114518e-02, 5.61049829e-02, 4.57893858e-02, 6.95160246e-02,
   9.47983656e-02, 8.78850437e-02, 1.11640451e-01, 5.41074087e-02,
   5.23508914e-02, 4.69161715e-02, 4.28359232e-02, 2.96385831e-02,
   4.87703924e-02, 7.43149190e-03, 3.18283404e-02, 2.51556198e-02,
   2.75930668e-02, 5.88183667e-03, 9.15603117e-04, 1.34488625e-02,
   2.95296587e-02, 8.30454531e-03, 8.83345857e-03, 2.21877410e-02,
   1.87135822e-02, 6.64803506e-03, 2.73746609e-02, 4.91782535e-03,
   2.75113022e-02, 2.83955936e-02, 1.06619173e-02, 3.27138651e-02,
   3.79425323e-02,-9.45583583e-04, 2.07868291e-02, 1.46172597e-02,
   1.57358689e-02, 7.57753027e-03, 1.94563112e-02, 2.99593479e-02,
   2.57680097e-02,-3.76350022e-03, 2.43117010e-02, 3.02768585e-02,
   1.82492581e-02, 2.28780180e-02, 3.06724387e-02, 3.71809174e-03],
 [ 1.90411176e-02, 9.56385368e-03, 4.31319649e-03, 2.59016853e-02,
   1.77852148e-02, 5.77799939e-03, 1.50375911e-02, 1.36044227e-02,
   3.77594170e-03, 1.56408534e-02, 2.31926223e-02, 1.28529989e-02,
   2.37463236e-02, 1.51650138e-02, 2.74823420e-02, 1.98314190e-02,
   9.48667811e-03, 2.72517051e-02, 3.01269043e-02, 6.22160204e-03,
   1.56588756e-02, 7.46381483e-03, 2.14773430e-02, 9.19850641e-03,
   2.31815569e-02, 4.14479441e-03, 3.34031119e-05, 1.03669291e-02,
   2.68747705e-02, 1.34438461e-02, 2.52644365e-02, 3.02630220e-02,
   1.22408644e-02, 2.57214464e-02, 2.57821726e-02, 1.74496877e-02,
   3.01112867e-02, 2.70431131e-02, 1.67969994e-02, 2.10069832e-02,
   4.27767207e-02, 9.88396702e-03, 5.79587682e-03, 1.78262146e-02,
   4.87066131e-02, 2.71279089e-02, 1.82757781e-02, 3.92472952e-02,
   2.78875073e-02, 1.04555606e-02, 2.54107848e-02, 2.76350630e-02,
   7.44307266e-03, 1.16134936e-02, 3.02716226e-02, 2.98732832e-02,
   1.55745321e-02, 1.02600871e-02, 6.50047162e-03, 2.68402874e-02,
   5.00111962e-04, 5.55541118e-03, 1.09016929e-02, 4.16729656e-02,
   6.66179542e-02, 5.94723546e-02, 6.67863469e-02, 7.20495527e-02,
   9.89231826e-02, 4.59315781e-02, 5.99803785e-02, 4.10160334e-02,
   6.44621130e-02, 7.79786892e-02, 7.08884017e-02, 7.12280967e-02,
   6.77826593e-02, 5.41494891e-02, 5.30414020e-02, 2.10420503e-02,
   1.35716278e-02, 1.74021089e-02, 6.86485150e-03, 2.47996891e-02,
   1.18620871e-03, 9.01450750e-04, 2.14953833e-02, 3.12084529e-02,
   1.60681237e-02, 1.87459255e-02, 3.53904126e-02, 5.13379326e-02,
   7.32724769e-02, 9.87715574e-02, 6.69251635e-02, 8.81257508e-02,
   8.38307345e-02, 1.00846164e-01, 6.72340875e-02, 5.33218556e-02,
   4.72545695e-02, 5.39646292e-03, 2.76830532e-02, 3.86069932e-02,
   1.63259113e-02, 5.02192881e-02, 2.82860563e-02, 3.31726807e-02,
   3.41544138e-02, 2.64365163e-03, 2.99147872e-02, 9.77495816e-03,
   6.68270167e-03, 1.45004494e-02, 2.41150748e-03, 1.14981066e-02,
   2.91577172e-02, 1.55505665e-02, 1.37271952e-02, 5.88095339e-02,
   5.82092068e-02, 1.34326393e-01, 1.23768635e-01, 9.67455385e-02,
   9.08921474e-02, 3.02438609e-02, 1.16540335e-01, 5.51375203e-02,
   6.54680663e-02, 5.61676173e-02,-3.97009776e-02,-2.10337100e-02,
  -2.00442174e-02,-6.02549564e-02,-6.11944800e-02,-3.51874721e-02,
   5.96796405e-04, 2.04632396e-02, 3.50155913e-02, 1.02825665e-02,
   2.14808556e-02, 2.49126769e-02, 1.59138249e-02, 1.88352340e-02,
   2.62395078e-03,-6.94012467e-02,-5.85054403e-02, 1.45423545e-02,
   7.63637382e-02, 6.73858519e-02, 4.03297707e-02, 8.21635838e-03,
   4.29186590e-02,-6.01414191e-02,-3.81041931e-02,-9.66552272e-02,
  -4.60195091e-02,-6.46623631e-02,-1.22543323e-01,-3.31144312e-02,
  -7.16699831e-03,-6.00452993e-02,-7.81462367e-02,-4.49229860e-02,
  -9.43102976e-03, 1.07980332e-02, 3.17024128e-02, 1.41703128e-02,
   1.90253074e-02, 1.95422333e-02, 7.24801507e-03,-6.24394871e-03,
  -2.99652947e-02,-4.63865093e-02,-7.72619314e-02, 1.71013117e-02,
   5.85821302e-02,-3.66822501e-02,-7.88519509e-02,-2.86521339e-02,
  -8.78148154e-03,-1.52753195e-01,-1.74257633e-01,-2.17688019e-01,
  -1.32779732e-01,-6.35724763e-02,-1.97535201e-01,-1.35713587e-01,
  -1.12464830e-01,-1.09031170e-01,-3.63850580e-02, 2.01794704e-02,
   9.31572416e-03, 2.87555712e-02, 8.41891538e-03, 9.64588710e-03,
   1.77671287e-03, 2.16880212e-02, 7.59270966e-03,-4.45586663e-02,
   1.93169607e-02, 1.12885842e-02,-8.50938552e-02, 4.17589941e-02,
   1.00881239e-01,-2.37785622e-02, 6.54817903e-03,-2.83614615e-03,
  -9.37499762e-02,-1.48615785e-01,-1.43194963e-01,-1.24697613e-01,
  -1.59487139e-01,-1.14351176e-01,-1.26068609e-01,-1.67720758e-01,
  -1.79463790e-01,-6.84518134e-02,-5.25438992e-02,-7.59237325e-02,
  -1.56052641e-02, 1.67434901e-02,-3.58410241e-03, 9.27439981e-03,
   5.12328616e-03, 1.63790862e-02, 1.96899760e-03,-2.95570611e-02,
   2.94437656e-02,-7.52933709e-03,-2.05562249e-02, 5.71214315e-02,
  -5.76720328e-03, 1.76869119e-02, 8.53695545e-02,-3.70752025e-02,
  -5.91199343e-02,-7.77467136e-02,-1.20862125e-01,-9.75373071e-02,
  -6.52166845e-02,-3.37669226e-02,-1.01713598e-01,-6.25163313e-02,
   1.25804145e-03, 1.55903887e-03,-6.33203424e-02,-1.12611661e-01,
  -1.08502218e-01,-4.37578456e-02,-2.34090466e-02, 2.14578916e-02,
   2.06958742e-02, 2.61016430e-02, 7.50829739e-03,-1.66750405e-03,
   1.70030316e-02, 1.28514311e-02,-6.01921355e-02, 1.67309448e-02,
  -2.00631749e-02, 1.77806090e-02, 1.92252497e-02,-7.04214196e-02,
  -1.27729325e-01,-1.53232870e-01,-1.58802046e-01,-1.42938744e-01,
   5.93126143e-02, 2.21108787e-02, 6.47747429e-03, 8.80544171e-02,
   1.07343355e-01, 7.67102316e-02,-5.98545166e-02,-5.64168419e-02,
  -5.07239076e-02,-5.84605791e-02,-3.09843241e-02,-1.83066064e-02,
   2.66341244e-03, 2.90305769e-02,-5.52932545e-03,-3.77000087e-02,
   1.06747264e-02, 4.96720053e-02, 1.11454185e-02, 7.19852815e-02,
   5.62311623e-02, 8.33317427e-03, 5.30261230e-02,-3.12902758e-02,
  -6.74276436e-02,-1.96757714e-01,-2.08591029e-01,-3.74837210e-02,
   2.55192367e-02, 1.12922430e-01, 7.72485913e-02, 3.01234554e-03,
   2.03809538e-02, 3.93434898e-02,-9.45051345e-02, 3.16548427e-03,
   1.05915270e-02,-4.75005479e-02,-1.78429796e-02, 1.79859444e-02,
   3.18028726e-03, 1.68479014e-02,-2.22114812e-02,-8.19198204e-03,
  -1.36032294e-03, 7.55154900e-02, 3.31360894e-02, 2.00883706e-02,
  -6.74312070e-03, 3.74504757e-02,-6.91345003e-03,-1.51613386e-03,
  -2.46441089e-02,-1.83722712e-01,-1.18088203e-01,-1.09729316e-02,
   1.05143424e-01,-9.78596937e-03,-2.08004870e-02, 5.20513219e-02,
  -5.39370000e-02,-2.89762594e-03,-5.18967468e-02, 4.97640918e-02,
   9.78744457e-02, 2.84503135e-02, 8.13648208e-03, 3.02346105e-03,
   1.36969719e-02, 5.46897376e-03, 3.78608610e-03,-2.75409578e-02,
  -5.65535542e-02, 5.76459543e-02,-2.66176478e-02,-4.12981759e-03,
   2.43793127e-03, 3.74452099e-02, 3.83181072e-02, 5.24919715e-02,
  -1.38911633e-02,-6.15952580e-02,-1.03935323e-01,-5.56420019e-02,
   4.09264710e-02,-1.78691570e-02,-6.52490142e-02, 4.65800611e-02,
   4.00060541e-02, 7.33816702e-02, 3.01217181e-02, 1.00609447e-01,
   1.70206850e-01, 5.14042943e-02,-6.57442262e-03, 1.09421806e-02,
   1.28170518e-02, 1.75533176e-02, 4.22519670e-03,-2.39837032e-02,
  -9.87151831e-02, 7.55031696e-03, 6.78865773e-03,-2.56621185e-02,
   4.46709061e-02, 3.32331497e-02,-4.13972487e-02,-1.72583989e-02,
   1.94762568e-02,-1.49440598e-02,-6.17341428e-02, 1.36554735e-02,
  -3.79973045e-02,-6.07254643e-02, 3.21152750e-02, 1.65381056e-01,
   1.15514014e-01, 7.28620118e-02, 1.11146308e-01, 1.85955667e-01,
   1.19271162e-01, 3.49900385e-02, 2.38626981e-02, 9.61243714e-03,
   5.90889036e-03, 7.57133407e-03, 4.22561593e-03,-4.22038745e-03,
  -6.57583842e-02, 2.18111282e-02, 3.86505835e-02, 4.61472544e-02,
   7.61306934e-03,-1.01077289e-02,-3.32645874e-02, 4.07174584e-02,
   3.40384107e-02, 1.04104044e-01, 1.08281986e-01, 1.30592422e-01,
   6.37605922e-02, 2.70511954e-02, 6.71170410e-02, 4.50329558e-02,
   2.40805095e-02, 7.67960976e-02, 9.55424510e-02, 8.17332006e-02,
   8.85164437e-02, 4.07509274e-02, 3.17520260e-02, 3.03075854e-03,
   2.52529340e-02, 2.41888139e-02,-8.18211124e-04, 5.69242771e-02,
  -4.66888888e-02,-1.69042506e-03,-2.78413361e-02, 4.79586872e-02,
   4.30311128e-02,-6.58311231e-02,-1.12811277e-01,-6.13827223e-02,
  -9.76517790e-03, 2.13620919e-01, 2.26264749e-01, 8.89734051e-02,
   1.49782750e-02,-1.58584366e-02, 3.66546182e-02,-3.69533891e-02,
  -1.51085673e-02, 4.23609012e-03,-1.39183829e-02, 4.61395206e-02,
   7.72263609e-02, 1.07946127e-01, 4.11677301e-02, 1.97129205e-02,
   2.57305872e-02, 2.58922378e-02, 1.59603985e-02, 3.56564260e-02,
  -3.54217596e-02, 1.38920150e-02, 5.87115740e-03,-2.89953377e-03,
  -8.22403059e-02,-1.72933482e-01,-1.55740971e-01,-4.20144986e-02,
   9.21643903e-02, 1.56430490e-01, 1.99671560e-01, 1.39643597e-01,
   7.85759949e-02, 2.37603283e-02, 5.68479781e-03,-4.67635061e-02,
  -1.00119375e-01,-8.08474232e-03,-7.65752590e-02, 7.21225674e-02,
   7.77554547e-02, 1.22364154e-01, 3.61365178e-02, 6.58077631e-03,
   4.70744956e-04, 2.07640058e-03, 2.70019101e-02, 9.48600371e-03,
  -2.53985911e-02,-1.63662880e-02, 4.31780870e-03,-2.77381629e-02,
  -6.31501522e-02,-2.47845543e-01,-1.65927537e-01, 1.25674790e-02,
   1.63167443e-01, 1.29397245e-01, 5.92776896e-02, 2.94366327e-02,
   1.21093574e-01, 4.70796787e-02, 4.28992282e-02,-1.41056523e-02,
   1.72029559e-02,-3.75112633e-02,-5.84172583e-02, 3.87139825e-02,
   5.40851654e-02, 9.29018370e-02, 1.62114895e-02, 3.27626001e-02,
   1.34202285e-03, 2.47100841e-03,-3.48588334e-03, 7.40347191e-03,
   7.26067126e-03, 4.58765400e-03,-1.16377981e-02, 2.14873509e-02,
  -7.79344867e-02,-2.10290802e-01,-6.34957566e-02, 5.36699171e-02,
   3.87317173e-01, 2.53188638e-01, 1.18778032e-01, 8.84559614e-02,
   1.10950090e-01, 2.32068654e-02, 4.88513488e-02,-5.27874826e-03,
  -5.62558528e-02,-9.30469442e-02,-4.12726023e-02, 9.61125957e-02,
   1.18370909e-01, 7.31393084e-02, 2.02482965e-02, 1.96892858e-02,
   1.63135912e-02, 1.15381480e-02,-7.97291541e-04,-6.24016916e-03,
  -1.71484398e-02,-4.98401902e-03,-1.17564992e-02, 8.89703004e-03,
  -1.36847860e-01,-1.69095751e-01, 2.03395211e-02, 2.36116952e-01,
   2.48432807e-01, 2.29439490e-01, 1.56202699e-01, 7.75842096e-02,
   6.02483726e-02, 1.50302211e-01, 1.31010263e-01,-6.45991814e-02,
  -9.22071786e-03,-5.66556798e-02, 3.57893020e-02, 9.96775464e-02,
   7.21656637e-02, 5.68467512e-02, 3.01070465e-02, 1.14253163e-02,
   1.62233674e-02, 2.48089807e-02, 2.11194951e-02, 1.25036022e-02,
  -1.54038865e-02,-2.37885406e-02,-6.74713166e-02, 4.09873960e-02,
  -8.63852670e-02,-5.47273874e-02, 9.56029268e-02, 2.28939509e-01,
   2.16217088e-01, 1.55740439e-01, 1.17515202e-01, 1.01975770e-01,
   5.66194451e-02, 7.12104988e-02, 1.11080811e-01, 2.09493761e-03,
  -1.88052929e-03,-1.50867423e-02, 6.39218024e-05, 1.74315997e-02,
   1.90639376e-02, 3.13024838e-02, 1.62317572e-02, 2.14954481e-02,
   1.91252042e-03, 1.58163873e-02, 2.46174616e-02, 3.14160587e-02,
  -2.53360235e-02,-6.77812401e-02,-8.25936192e-02,-2.56098303e-02,
  -3.27756141e-02, 4.61368309e-02, 3.07532796e-02, 1.11787678e-01,
   5.74611211e-02, 1.44254308e-01, 1.29088436e-01, 6.14206259e-02,
   4.04511429e-02, 1.96275349e-01, 1.19336443e-02,-7.88870617e-03,
  -3.32575521e-02,-1.75127774e-02, 4.73806478e-02, 2.66947649e-02,
  -3.84208148e-03, 4.16102548e-02, 3.81122471e-02, 7.71473022e-03,
   4.53206503e-03, 2.56053717e-02, 1.47447386e-02, 3.02879532e-02,
  -5.10642893e-03,-4.73606205e-03,-4.00203263e-02,-7.47217506e-02,
  -4.79818958e-02, 9.63177201e-03, 8.54222090e-03, 1.33957219e-03,
   3.04113944e-02, 7.74794950e-02,-7.47619388e-03, 2.79642238e-03,
   3.85762996e-02, 7.93160509e-02,-2.31140950e-03, 6.01880956e-02,
   1.76351282e-02, 2.16662837e-02, 2.97500018e-03,-1.32840220e-02,
  -2.28198383e-02, 1.19446673e-02, 3.60537782e-03, 1.38164282e-02,
   7.90913831e-03, 9.98060526e-04, 1.50012072e-02, 1.45589354e-02,
   1.60897461e-02,-4.52977132e-02,-1.09161957e-01,-1.53663608e-01,
  -1.07093375e-01,-1.62758898e-01,-2.31625674e-01,-1.57107475e-01,
  -3.31675535e-03, 7.10359669e-03, 5.47291410e-02, 6.08470178e-02,
   7.63933722e-02, 3.84433515e-03, 2.54749466e-02, 3.04749520e-02,
   7.33258663e-02, 8.25888769e-02, 3.43928112e-02, 1.67070672e-02,
  -2.73213845e-02,-2.52713571e-03, 1.72642105e-02, 1.86747014e-02,
   8.05459955e-03, 1.63849245e-03, 1.91726522e-02, 1.64584356e-02,
  -1.88046774e-02,-5.51863153e-02,-1.46636750e-01,-2.14957291e-01,
  -1.77374746e-01,-1.63326309e-01,-1.94365411e-01,-1.30300644e-01,
  -7.15317245e-02,-5.96726369e-02, 7.84327712e-02, 6.79215942e-02,
   1.06588252e-01,-1.12303787e-02, 1.65982251e-02, 2.27577047e-03,
  -2.90851500e-02,-5.29943374e-03, 1.15936805e-02, 1.16301723e-02,
   1.19824500e-02, 5.68938896e-03, 3.59779841e-03, 8.20308942e-03,
   2.82153254e-02, 2.63200151e-02, 2.83880435e-02, 2.30995133e-02,
  -1.22177292e-02,-3.80926368e-02,-5.52581973e-02,-1.01313514e-01,
  -1.21693071e-01,-1.31628395e-01,-1.05960146e-01,-1.42021618e-01,
  -1.59864315e-01,-1.37792688e-01,-8.27404494e-02,-2.27766629e-02,
  -5.75402543e-02,-3.17420362e-02,-3.59579115e-02,-5.82768049e-02,
  -4.91719632e-02,-5.63651415e-02,-2.99379602e-02,-1.29068307e-02,
   1.52375462e-03, 2.82791435e-02, 1.79922061e-02, 8.31888427e-03,
   5.77293062e-04, 1.02270610e-02, 2.54769622e-02, 1.92247569e-02,
   2.10994618e-02, 1.05413297e-02, 9.43501737e-03,-2.59290982e-02,
  -3.96056738e-02,-7.85013336e-02,-8.50486243e-02,-8.67509864e-02,
  -8.22966953e-02,-1.28152413e-01,-1.63264865e-01,-1.03117274e-01,
  -8.79890619e-02,-5.71620853e-02,-4.89705190e-02,-4.62429913e-02,
  -2.94111571e-02, 8.88082787e-03,-4.29317108e-04, 1.58037448e-02,
   2.69553309e-02, 8.22918170e-03, 1.26199281e-02, 1.08210387e-02,
   1.02173134e-02, 4.41926335e-04, 1.23896705e-02, 4.00565467e-03,
   1.14931560e-02, 1.70244811e-02, 2.82019215e-02, 2.11118785e-02,
   2.19190564e-02, 1.99288631e-02,-8.20999339e-03,-9.82551396e-03,
   5.25960528e-03, 2.43524825e-04,-3.70204434e-03,-7.59850250e-03,
   1.20003638e-02, 6.24073725e-03,-1.35940041e-02, 2.41169071e-02,
   1.26413601e-02, 6.99765300e-03, 2.78042590e-02, 2.23574761e-02,
   1.91620188e-02, 2.50009721e-02, 1.62365168e-02, 2.89871038e-02],
 [ 3.45672296e-03, 3.00425004e-02, 1.02214869e-02, 5.20942600e-03,
   2.71236252e-02, 1.76926867e-02, 2.56389263e-02, 1.04944502e-02,
   1.09877496e-02, 2.38477065e-02, 9.41468781e-03, 2.78874714e-02,
   5.67397097e-04, 2.41170112e-03, 1.14601165e-02, 2.06841778e-02,
   4.09353312e-03, 1.35436543e-02, 9.01131930e-03, 9.57830362e-03,
   2.91351170e-03, 1.17059268e-02, 1.19463379e-02, 4.55139622e-04,
   1.22143463e-02, 1.84005237e-02, 5.31797909e-03, 2.84653535e-03,
   2.19405177e-02, 1.97403063e-02, 1.30624463e-02, 9.26132111e-03,
   1.18412086e-02, 2.43877505e-02, 1.06153898e-02, 2.05640025e-03,
   1.64410584e-02, 1.14737150e-02, 2.14986804e-02, 1.72728398e-02,
   1.99274349e-02, 1.20613358e-02, 4.91243478e-04, 1.18988655e-02,
   1.26800468e-02, 7.95507129e-03, 2.49074434e-02, 2.48480222e-02,
   2.40246439e-02, 3.55872162e-03, 2.29555737e-02, 2.13187824e-02,
   5.68210343e-03, 2.67347048e-02, 9.77146531e-03, 9.31642971e-03,
   1.12229256e-02, 1.88555961e-02, 2.60825428e-02, 5.74114194e-04,
   2.24795059e-02, 5.12299617e-03, 7.27164491e-03, 1.62054771e-02,
   1.74676384e-02, 2.16067421e-02, 1.60221388e-02, 1.94230076e-02,
   2.50406105e-02, 6.36604268e-03, 2.96307335e-02, 3.58950265e-03,
   1.31252939e-03, 6.82552694e-04, 1.13766981e-02,-4.95838074e-03,
   1.23430036e-02, 2.04227841e-02, 1.63008206e-02, 1.29078540e-02,
   2.81677876e-02, 2.38334340e-02, 1.07661224e-02, 1.98298503e-02,
   7.61459797e-03, 2.16773234e-02, 2.81533437e-03, 3.10739035e-02,
   2.75846576e-02, 1.54873502e-02,-3.83181486e-03,-3.14351434e-03,
   9.93987529e-04, 1.79866623e-02, 1.88313004e-02, 3.84560071e-02,
   3.72555010e-02, 5.16327968e-02, 5.67399956e-02, 2.94335661e-02,
   4.35211036e-02, 1.19896833e-02,-9.22738285e-05,-9.34578509e-03,
  -1.66719432e-02,-2.27165349e-02,-7.12719244e-03,-8.38819932e-03,
   2.62382857e-02, 1.12468988e-02, 1.48672514e-02, 2.95811284e-02,
   2.54995546e-02, 1.52565838e-02, 8.07499884e-04, 1.32304645e-03,
   5.52376080e-03, 1.06266128e-02,-4.30471051e-03, 2.18218736e-03,
  -1.20169131e-02, 2.37471075e-04,-3.90096231e-02,-1.84543066e-02,
   2.90195081e-02, 9.77589974e-02, 6.80892845e-02, 1.11919732e-01,
   1.01504516e-01, 7.08243896e-02, 4.01270612e-02, 9.57299875e-03,
  -1.02916818e-02,-1.01133275e-02,-4.93943501e-03,-4.85100166e-03,
  -1.52376303e-02, 1.22772384e-02, 2.13843172e-02, 3.00795179e-03,
   2.59523700e-02, 1.46523615e-03, 1.83475914e-02, 2.85268516e-02,
  -5.89594700e-03, 5.99722126e-03, 9.08613414e-03, 1.76777673e-02,
   6.53162198e-02, 2.49360218e-02, 1.87765756e-02,-4.97413243e-02,
   2.00375585e-03, 1.68001643e-01, 1.73312260e-01, 2.57235240e-02,
   2.59809754e-02, 1.42880307e-02, 3.49503316e-02, 6.90292636e-02,
  -3.98405396e-02, 7.47200113e-03, 5.46436638e-02, 3.83271824e-02,
   1.85595819e-02,-3.57772741e-03, 2.83602559e-02, 1.88065043e-02,
   2.94776515e-02, 2.61638517e-02, 2.90217363e-02, 3.68024472e-02,
   3.85172942e-02, 2.68497927e-02,-1.91068879e-02,-4.30209378e-03,
   4.12374005e-02,-8.16433947e-03, 2.73116751e-02,-3.94440467e-02,
   4.20936896e-02, 6.49881040e-02, 3.75777766e-02,-1.97114638e-02,
  -1.71809907e-02, 1.19649249e-02, 1.34259767e-02,-1.31092314e-02,
  -9.46870470e-03, 4.51014665e-02, 3.25672294e-02, 1.02517719e-02,
   1.04247161e-02, 3.36340051e-03, 5.19220412e-03,-2.96804244e-03,
   4.02018228e-03, 2.37137406e-02, 4.41141033e-02, 5.06556408e-02,
   3.90006187e-02,-1.91877253e-02, 3.19669931e-02, 1.33219330e-01,
   6.26524002e-03, 5.57386436e-02, 5.84835250e-02, 6.92076244e-02,
   1.48597890e-01, 4.45756919e-02, 4.06662315e-02,-7.75231040e-02,
   9.06204702e-02,-3.61241849e-02, 6.06837691e-03, 3.69357437e-02,
   2.10594951e-02,-3.79423299e-02,-3.72643913e-02,-3.28398793e-02,
   2.68073267e-04,-1.01150890e-02,-3.70305334e-03, 3.38737822e-03,
   1.73592377e-03, 2.80966000e-02, 2.30664446e-02, 3.89615233e-02,
   2.30674656e-02, 1.00362281e-02,-4.11646267e-03, 6.46477343e-02,
   3.46140398e-02, 3.94425767e-02, 1.60769983e-02, 6.28977702e-03,
   2.13027521e-01, 6.10828127e-02, 1.58545686e-01, 1.06853448e-01,
   6.30024752e-02,-6.60181093e-02,-1.84845002e-02, 2.02326777e-03,
   2.64104775e-02, 3.25912299e-02,-1.06893769e-02, 9.83539268e-02,
   4.68098489e-02,-1.62371524e-02, 9.49225468e-03, 1.85993604e-02,
   1.44831542e-02, 3.76598087e-02, 4.75007392e-02, 4.90856981e-02,
   9.83398875e-02, 8.94131537e-02, 4.61614452e-02, 1.09732107e-01,
   4.42390553e-02, 1.11905291e-01, 8.57684486e-02, 2.69756711e-02,
   1.41025679e-01, 2.13570735e-01, 1.56006834e-01, 9.55624951e-02,
   1.50509332e-02, 2.23994427e-02, 1.64681742e-01, 1.42675847e-01,
   5.03681014e-02, 6.43620409e-02, 1.10587620e-01, 1.24116854e-01,
   8.21303818e-02, 1.38423296e-02, 2.03136073e-02, 2.39888236e-02,
   3.54130335e-03, 3.06510669e-02, 5.93613883e-02, 9.23996589e-02,
   1.26332808e-01, 1.13564689e-01, 8.51105294e-02, 2.34425613e-02,
   7.38924501e-02, 9.57338886e-02, 7.87924445e-02, 1.40046856e-01,
   1.64891227e-01, 1.87683649e-01,-5.63414598e-02,-5.35955928e-02,
  -3.75601320e-02, 8.86283188e-02, 1.61599051e-01, 1.08103508e-01,
   1.28808807e-01, 1.47237652e-01, 1.37478777e-01, 1.11882799e-01,
   1.22571254e-01, 3.40310204e-02, 1.53875983e-02, 2.28956295e-02,
   1.91710782e-02, 3.39481848e-02, 1.07852526e-01, 9.93745062e-02,
   8.24363842e-02, 6.42810674e-02, 8.29625954e-02,-8.32296777e-03,
  -3.41922068e-02, 5.96413280e-02, 1.26213131e-01, 2.23189624e-01,
   1.53652447e-01,-1.13578347e-01,-3.75273418e-01,-2.48355655e-01,
  -7.26180705e-02, 8.77463300e-02, 1.57563596e-01, 8.65955222e-02,
  -2.79285399e-02, 1.23084989e-02, 5.23723692e-02, 8.33518784e-02,
   1.33340369e-01, 3.49261694e-02, 4.84499283e-02, 5.90008655e-03,
   3.05066261e-02, 3.58087319e-02, 8.31347460e-02, 6.16651833e-02,
   2.63771172e-02, 2.54042089e-02, 1.02492887e-01, 4.42280841e-02,
   1.17993356e-01, 2.03794138e-01, 1.45112210e-01, 3.63388614e-02,
  -1.25281825e-01,-4.06191882e-01,-4.15209557e-01,-1.40558839e-01,
  -3.73452630e-02, 4.47290478e-03, 3.27375857e-02,-1.47422637e-01,
  -3.26042280e-03,-9.97006770e-02, 3.32941019e-02, 3.65761750e-02,
   1.18529350e-01, 2.46930262e-02, 3.50632870e-02, 2.13850131e-02,
   2.28802597e-02, 2.21558448e-02, 4.76593726e-02, 1.01273220e-02,
  -3.19748537e-02,-2.43697150e-02, 4.74257397e-02, 5.27883300e-02,
   3.83806438e-02, 9.92800719e-02, 1.00328254e-02,-1.41590778e-01,
  -3.16895868e-01,-4.07623702e-01,-1.88936558e-01,-1.34234444e-01,
  -9.14657695e-02,-6.25538524e-02,-1.08729737e-01,-2.07507923e-01,
  -9.03439800e-02,-2.19874312e-02,-5.96139791e-02,-2.94294812e-03,
   9.58360035e-02, 3.92695003e-02, 1.42639595e-02, 1.79054340e-02,
   3.08661039e-02, 2.76605572e-02, 4.69119422e-02, 3.14263839e-02,
  -7.47321701e-02, 4.66997645e-03,-2.38879156e-02,-6.94394015e-02,
   1.31150685e-02,-8.11868381e-02,-9.86130151e-02,-2.77478236e-01,
  -3.58195482e-01,-3.18930502e-01,-5.78594467e-02, 5.34643198e-02,
  -1.26251676e-01,-1.80331571e-01,-1.98780686e-01,-1.59300840e-01,
  -9.26344079e-02,-2.57364793e-02,-5.18997028e-02, 6.18917250e-02,
   9.33234425e-02,-1.33585161e-03, 1.13975227e-02, 2.37599877e-02,
   5.83139931e-04, 2.95923774e-02, 1.67585117e-02, 2.09413845e-02,
  -7.06134669e-02, 3.85089088e-02, 9.10843192e-03, 1.15307597e-02,
  -8.29686542e-02,-1.10676804e-01,-1.87235466e-01,-2.67644658e-01,
  -3.00604864e-01,-2.35105483e-01,-1.24161804e-01, 5.57618718e-02,
  -7.93369810e-02,-1.22226493e-01,-1.07498677e-01,-1.23985982e-01,
  -2.27082160e-04, 2.83648863e-02,-1.78238257e-02, 4.60972818e-02,
   6.91070019e-02, 1.96718449e-03, 1.86060252e-02, 1.71108675e-02,
   1.40142960e-02, 2.20425676e-02, 8.24734603e-03, 1.63388690e-02,
  -4.26679929e-02, 6.87438830e-03,-6.88263487e-02, 4.47944611e-03,
  -3.05946192e-02,-1.44751428e-01,-1.59700572e-01,-2.48173536e-01,
  -2.80008412e-01,-2.55777809e-01,-1.44102961e-01,-1.42857732e-02,
  -9.54034764e-02,-1.04842246e-01,-1.01702069e-01,-6.85459256e-02,
  -2.52788868e-02,-3.00912008e-02,-2.06980825e-02, 2.77911152e-02,
   2.06960185e-02,-1.99133974e-02, 2.55069742e-02, 7.94941800e-03,
   2.04074485e-02, 1.64676019e-02,-2.92834530e-03, 1.95032205e-02,
  -3.99473291e-02,-4.29033727e-02,-1.07070227e-01,-1.20606901e-01,
  -1.29655513e-01,-1.22045884e-01,-1.64727972e-02,-1.11021426e-01,
  -1.68202787e-01,-2.14398667e-01,-6.47196730e-02, 3.07276138e-03,
  -1.40302225e-01,-6.66495576e-02,-1.32201861e-03,-2.86969245e-02,
   2.23430854e-02,-5.55861096e-02, 4.73010773e-02, 1.42419221e-02,
  -2.28005987e-02,-2.21435317e-03, 1.47046159e-02, 1.44838738e-02,
   9.92546189e-03, 4.07708019e-03, 2.52323448e-02, 1.04540570e-02,
  -6.63453524e-02,-6.52609629e-02,-1.36208982e-01,-7.68335700e-02,
  -1.01752212e-01,-8.99664648e-02,-2.41281022e-02,-1.44949340e-01,
  -2.49482920e-01,-2.48069249e-01,-1.21762809e-01,-8.23220965e-02,
  -1.26823848e-01,-2.53697838e-02, 4.76046387e-02,-3.00864214e-02,
   3.25320456e-03, 8.76540555e-02, 7.45638416e-02,-1.06601056e-02,
  -4.93827805e-02, 1.48272040e-02, 2.92813498e-02, 3.52271587e-03,
   2.48999861e-02, 2.51149989e-02, 3.28392822e-02,-1.59738615e-02,
  -2.68598235e-02,-9.51535904e-02,-7.42124598e-02, 1.87717301e-03,
  -4.00384114e-02,-4.21284667e-02,-1.26108224e-01,-1.26410332e-01,
  -2.15690508e-01,-2.62762563e-01,-1.23889730e-01,-7.20155100e-02,
  -4.18586558e-02, 3.82540896e-02,-4.79694912e-02,-8.19461578e-03,
   8.30006129e-02, 7.31271222e-02, 3.42353538e-02,-3.17458979e-02,
  -2.51398991e-02, 5.29076261e-03, 2.36377742e-02, 2.76662052e-02,
   8.64151250e-03, 2.37845908e-02, 1.21069750e-02, 1.96995493e-02,
  -2.68947581e-02,-3.15443726e-02,-1.87537706e-02,-4.05266933e-03,
   2.43054102e-02, 3.54622030e-02,-4.02349337e-03, 5.43784554e-03,
   2.21678075e-02,-1.97686196e-02, 3.32333003e-02, 6.65550365e-02,
   3.33095060e-02,-9.89162129e-04,-2.92053318e-02, 6.72768375e-02,
   1.83732301e-02, 2.48906899e-02, 2.85956947e-02, 6.78999538e-03,
  -1.82866259e-02, 2.52949820e-02, 1.98151567e-02, 6.81820061e-03,
   2.87585366e-02, 3.85768584e-03, 3.50813047e-02, 1.35702165e-02,
   7.98630244e-03, 4.91199346e-04,-1.72703092e-02,-4.56416630e-02,
   2.49255991e-02, 2.47655157e-02, 1.79452072e-01, 2.22389914e-01,
   2.33828135e-01, 1.79907361e-01, 1.65039905e-01, 1.85624223e-01,
   1.49768267e-01, 3.57708905e-02, 7.95745539e-02, 3.50324891e-02,
   3.31333292e-02, 3.65095356e-02, 3.19426850e-02, 3.19050854e-02,
   3.09535255e-02, 3.27819167e-02, 1.00430330e-02, 1.87307243e-02,
   4.34437373e-03, 1.61739646e-02, 2.16787862e-02, 2.75790357e-02,
   1.46923887e-02, 3.54682156e-02, 4.12519915e-02, 1.64689884e-02,
   1.29227019e-01, 1.59647083e-01, 1.20065015e-01, 1.74060283e-01,
   9.14678027e-02, 1.55945996e-01, 1.50228387e-01, 1.86283622e-01,
   9.75297777e-02, 2.10551223e-01, 1.82207620e-01, 1.11612177e-01,
   3.29999618e-02, 1.47089399e-02, 2.08540650e-02, 2.49414107e-02,
  -8.25902403e-03, 8.95493742e-03, 1.89081003e-02, 3.50758537e-03,
   2.73861841e-02, 1.33728379e-02, 1.39013744e-02, 2.22559366e-02,
   1.55376645e-02, 4.46539932e-02, 1.02893985e-01, 8.99358170e-02,
   3.79286131e-02, 1.27577500e-01, 1.20147319e-01, 7.86408560e-02,
   7.45840300e-02, 1.13919802e-02, 1.45774523e-01, 1.33588869e-01,
   1.01510982e-01, 2.07340600e-01, 1.28357755e-01, 1.24414617e-01,
   2.61940778e-02, 1.99353194e-02, 9.49962384e-03,-1.07268266e-02,
   1.70008553e-02, 2.06361397e-02, 3.09582152e-02, 2.10301271e-02,
   7.59934969e-03, 3.07999163e-02, 1.79035226e-02, 1.94862126e-02,
   4.42257185e-02, 7.34008772e-02, 8.27474896e-02, 1.02020913e-01,
   9.93110833e-02, 1.13495485e-01, 6.99849158e-02, 5.51219287e-04,
   9.68702264e-02, 1.45048383e-02, 8.29657559e-02, 1.31178090e-01,
   4.01707049e-02, 1.48887643e-01, 1.18787077e-01, 6.29255233e-02,
  -1.70840482e-02,-1.99486497e-02,-3.13324939e-02,-7.23783045e-03,
   2.78253796e-02, 2.52850872e-02, 2.90101920e-02, 2.20050775e-02,
   2.98535924e-02, 1.42411373e-02, 1.16044821e-03, 2.31958676e-03,
   2.76219725e-02, 5.92644891e-03,-8.32008034e-03, 7.23734492e-02,
   1.46396657e-01, 1.27793015e-01,-2.39025018e-02, 2.43868930e-02,
   1.10496431e-01, 2.41272947e-02, 2.03575513e-02, 3.79034416e-02,
   5.08908240e-02, 3.99633608e-02, 8.49559861e-02, 1.09406613e-01,
   6.96139295e-03, 2.30269295e-02, 1.50877386e-02, 9.75928611e-03,
   3.62573780e-02, 2.25576086e-02, 1.03436622e-02, 3.02933100e-02,
   3.02425145e-02, 3.63368321e-03, 2.07715262e-02, 5.64070038e-04,
   3.68040277e-03,-3.98430648e-02,-3.06414854e-02, 3.20074474e-02,
   3.85881863e-02, 2.97308866e-02,-2.06279019e-02, 9.35379827e-03,
   4.21614734e-03, 2.49288224e-02, 2.50961951e-02, 7.17149172e-02,
   7.88129826e-02, 3.04165287e-02, 7.00443659e-02, 1.07270078e-01,
   6.30028418e-02, 3.29251657e-02, 1.28856246e-02, 2.62614275e-02,
   1.71657061e-02, 2.33919812e-02, 1.01411695e-03, 5.97928982e-03,
   1.79639387e-02, 6.97962941e-03, 2.83780386e-02, 6.48812029e-03,
   9.23996070e-03, 3.09395546e-02, 3.15081895e-02, 1.44562769e-02,
   1.87505432e-02, 1.03239950e-02, 4.29297803e-02, 3.96322758e-02,
   2.22229284e-02, 4.84760172e-02, 3.10255688e-02, 1.66768548e-02,
   9.35131340e-03, 3.82670341e-02, 5.34662831e-02, 1.60158058e-02,
   3.07155692e-02, 2.26145816e-02, 2.61789866e-02, 2.43205816e-02,
   2.50537625e-02, 2.32397794e-02, 2.70876250e-02, 2.51247602e-02],
 [ 2.33861458e-02, 3.08567478e-02, 3.00372213e-03, 4.96830862e-03,
   1.15658443e-02, 6.96280373e-03, 1.92800154e-02, 2.94603223e-02,
   1.53746198e-02, 3.27521724e-03, 3.05754446e-02, 2.73300813e-02,
   1.18976297e-02, 2.63491965e-02, 1.00851390e-03, 4.48230975e-03,
   1.84402840e-02, 2.79837657e-02, 2.63624355e-02, 1.16966118e-03,
   2.68144477e-02, 2.53775105e-02, 1.31548184e-03, 7.67114691e-03,
   2.20412517e-02, 2.57660806e-02, 8.01769777e-03, 5.46949929e-03,
   2.35273181e-02, 1.29499136e-02, 4.26238268e-03, 2.17684780e-02,
   2.19136838e-02, 4.55524625e-03, 1.14150033e-02,-1.13801706e-03,
   7.07453804e-03, 1.36703050e-02, 2.32650639e-02, 1.06157982e-02,
  -5.88534397e-03,-8.72177839e-03, 1.69459715e-02, 2.46527925e-02,
   7.52585118e-03, 8.96482236e-03, 5.55632204e-03, 6.45883568e-03,
   2.23251035e-02, 2.15133687e-02, 7.24466050e-03, 4.05622383e-03,
   6.67133548e-03, 2.41639221e-02, 1.80500854e-02, 2.16476060e-02,
   1.61355135e-02, 1.77863279e-02, 7.67486510e-03, 1.32466590e-02,
   1.42822610e-02, 1.33820210e-03, 8.61961390e-04,-2.21152835e-02,
  -6.46395304e-03, 1.26015322e-03,-3.54962884e-02,-3.71010457e-02,
  -5.57408856e-02,-8.57454364e-02,-4.05721083e-02,-3.14481624e-02,
  -2.98665663e-02,-2.57170624e-02,-1.76183461e-02,-9.23263722e-03,
   1.03240822e-02,-9.00514211e-03,-1.12521608e-02, 8.16774393e-03,
   4.21707243e-03, 1.18070063e-02, 2.64394824e-02, 2.62520284e-02,
   1.33768749e-02, 2.00332116e-02, 3.32612156e-03, 1.63133588e-02,
   7.08706326e-04, 5.94615663e-03,-1.98199074e-02,-2.03000478e-02,
  -2.03562860e-02,-3.88182576e-02,-3.87619027e-02,-8.57256286e-02,
  -1.24139980e-01,-1.82816211e-01,-1.92421615e-01,-1.26189216e-01,
  -1.15905829e-01,-5.56811228e-02,-7.02736470e-02,-4.45113041e-02,
  -2.59084894e-02,-2.45475323e-02, 4.01028184e-03,-6.61690253e-03,
   1.37737470e-02, 1.69273342e-02, 1.13271873e-02, 3.06422599e-03,
   8.94184619e-03, 8.87337193e-03, 8.88018171e-03, 6.03563492e-04,
   2.80707566e-02,-1.23008012e-03,-1.88173120e-02,-2.34135022e-02,
  -9.80597302e-03,-1.13459745e-02, 2.85748376e-02, 2.85781004e-02,
  -1.18859780e-02,-1.10945098e-01,-1.25974518e-01,-1.21162371e-01,
  -1.60437618e-01,-9.05489075e-02,-8.60573078e-02,-9.37810762e-02,
  -2.74266712e-02,-6.23327981e-02,-3.28422426e-02, 3.27422313e-03,
   4.78935895e-02, 4.10799369e-02, 1.91723819e-02, 5.90624143e-03,
   2.76845870e-02, 2.42932359e-02, 6.09286087e-03, 2.40841367e-02,
   2.88248601e-02, 3.95168207e-03,-4.42496199e-03,-1.85614989e-03,
   8.71707320e-03, 6.77745289e-02, 8.55150157e-02, 1.86241126e-01,
   1.28034622e-01, 5.25689674e-02,-3.29557094e-03,-7.19611186e-02,
  -1.52503913e-01,-1.37350164e-01,-1.38089797e-01,-1.09851398e-01,
  -4.25242600e-02,-8.51868856e-02,-5.19106778e-02,-2.82862993e-02,
   2.96392846e-02, 2.98477572e-02, 2.50080125e-02, 2.98693632e-02,
   3.06673170e-02, 5.95642847e-04, 2.73583057e-02, 4.39959863e-02,
   2.39689741e-02, 1.03285769e-02, 2.61570521e-02, 1.06273690e-02,
   9.92039506e-02, 1.59347069e-01, 1.00475979e-01, 1.38696960e-01,
   1.12771519e-01, 1.47657339e-01, 1.30610281e-01, 6.14971286e-02,
   1.90824081e-02, 8.39753687e-02,-1.44582564e-02,-5.76636839e-02,
  -4.72127319e-02,-5.59683281e-02,-1.33608690e-01,-4.87869018e-02,
  -1.68114640e-02, 1.42322853e-02, 7.32862517e-03, 8.57450908e-03,
   9.50665514e-03, 1.08327816e-02, 2.78259210e-02, 5.43857403e-02,
   4.50734676e-02, 1.19987710e-02, 6.04012044e-02,-3.46250355e-02,
   7.73025884e-02, 6.74495480e-02, 5.03507247e-02, 4.34963262e-02,
   1.07093144e-01, 2.48108880e-01, 1.52037240e-01, 2.66358441e-01,
   1.75020488e-01, 2.02843895e-01, 6.74968858e-02,-7.74001413e-02,
  -6.39876624e-02,-9.65782996e-02,-1.66630842e-01,-1.31067329e-01,
  -5.04082556e-02,-8.89084680e-03,-8.49434121e-03, 2.92497320e-02,
   2.65186134e-02, 1.12261022e-02, 2.03412305e-02, 2.35931456e-02,
   1.67590881e-02,-5.27719150e-03, 4.73908604e-02,-3.92759242e-02,
   6.31227084e-02, 3.16442620e-02, 5.34630738e-02, 5.39313652e-02,
   3.85523921e-02, 1.49131456e-01, 2.58492610e-01, 2.38447314e-01,
   2.98970421e-01, 1.41240394e-01, 1.00689488e-01,-1.70212134e-02,
  -7.58946612e-02,-9.35065480e-02,-1.36726735e-01,-1.66304663e-01,
  -7.49737855e-02,-1.44455764e-02, 1.12762785e-02, 2.61993623e-02,
   5.37524876e-03, 1.39751749e-02,-2.46213159e-03, 3.66301736e-02,
   1.36202943e-02, 3.02049168e-02, 9.74503782e-02, 3.96294961e-02,
   4.28913039e-02, 2.37788821e-02, 9.16792980e-02, 5.00184709e-02,
   6.39112189e-02, 1.35269588e-01, 1.26406524e-01, 1.80153993e-01,
   2.32217041e-01, 2.12275792e-01, 6.55431684e-02, 9.63629266e-03,
  -2.31654150e-03,-9.30390818e-02,-9.23918677e-02,-1.04924944e-01,
  -6.71841436e-02,-5.25613215e-03, 1.64653796e-02, 2.80976433e-02,
   2.82539743e-03, 2.16424214e-02,-1.11280943e-02, 4.73538107e-02,
   4.24910966e-03, 2.76065924e-02, 1.29005925e-01, 1.27903357e-02,
   7.86281464e-03, 4.19100515e-02, 1.20315797e-04,-4.64488237e-02,
  -8.53757092e-03,-4.79164345e-02,-1.07082553e-02, 4.34424408e-03,
   1.56010828e-01, 4.77899050e-02, 4.36764514e-02,-1.40378616e-02,
  -2.75358312e-02,-1.15005927e-01, 1.74370369e-04, 3.36127956e-02,
  -1.68399021e-02, 1.31042228e-02, 2.59091036e-02, 2.45880305e-02,
   1.99939711e-02, 1.30675929e-02, 9.12189397e-03, 2.10014837e-02,
   3.49176823e-02, 1.86919889e-02, 8.36265162e-02, 2.06107850e-02,
   4.73442131e-02, 3.68580126e-02, 3.89217998e-02,-7.38898444e-03,
  -5.70047729e-02,-6.05116559e-02,-1.05719914e-01, 3.79456203e-02,
   6.52436336e-02, 1.10690035e-01, 3.15832411e-02,-3.62713926e-02,
  -2.00506138e-02,-7.96479646e-02, 4.24719473e-02, 2.72526150e-02,
  -7.04118596e-04, 2.08964533e-02, 3.85827083e-02, 3.54311234e-03,
   1.00759154e-02, 6.69739710e-03, 3.28913349e-03, 7.89547979e-03,
   8.65259382e-02, 6.11512801e-02, 5.15136257e-02,-1.04438287e-02,
  -3.91020924e-02, 1.70953301e-02,-2.02184741e-02,-7.26427105e-02,
  -2.30413288e-01,-1.33785111e-01,-6.09972928e-02,-1.84279035e-02,
  -1.65120292e-02, 5.40176911e-02, 3.22968548e-02, 3.77354927e-02,
  -6.08159258e-02, 2.16793800e-02, 8.54572220e-02, 4.32756393e-02,
  -3.51236940e-02, 5.05629409e-02, 5.14691133e-02, 5.94012901e-04,
   2.51930361e-02, 2.64554068e-02, 1.47607967e-02, 2.76396994e-03,
   1.00594635e-01, 1.49883521e-02,-1.49657741e-02,-4.58213207e-03,
   8.19576089e-03, 3.28657303e-02,-2.15500164e-03,-7.30631191e-04,
  -6.60991862e-02, 3.81724685e-02,-1.21031118e-02,-1.96410993e-02,
  -2.78123299e-03, 2.96974509e-02, 4.64605639e-02, 1.32664349e-02,
   3.07456415e-03, 8.41823180e-02, 7.38401846e-02,-3.38372919e-02,
  -4.23179023e-02, 4.26812866e-02, 1.95495660e-02, 6.84962412e-03,
   1.06095210e-02, 1.03295607e-02, 8.97014131e-03,-5.21851850e-03,
   4.25717691e-02,-4.81703868e-02,-1.63632308e-02, 1.08262177e-02,
  -4.93161777e-03,-1.02628498e-02,-4.24533078e-02, 3.30963365e-02,
   4.18517388e-02, 2.34284807e-02,-7.55273289e-02,-4.48047586e-03,
   4.25780034e-04, 4.99864556e-02, 7.37541070e-02,-5.32247428e-03,
   3.74879906e-02, 3.53982637e-02,-3.32487967e-02,-4.62411584e-02,
  -3.92037581e-02, 2.92004771e-02, 2.00292761e-02, 2.60079814e-02,
   1.29174510e-02, 2.75889483e-02, 2.37684638e-02,-5.92535952e-03,
   4.00566333e-02,-4.50820185e-02,-1.64602691e-02,-4.44622796e-02,
   9.43301199e-03,-5.49532366e-02, 2.24239333e-02, 7.65378309e-02,
  -2.94617196e-02,-2.71433405e-02,-7.19281480e-02, 2.74858118e-02,
   1.45781686e-02, 7.59691619e-02,-1.69399671e-03, 3.06781531e-02,
   4.47962155e-02,-3.09023108e-02, 1.35901046e-02,-4.43000707e-02,
  -4.10545414e-02,-2.33216556e-02, 2.49109317e-02, 5.09664397e-03,
   2.86678146e-02, 6.49772390e-03, 2.72291602e-02,-2.73277221e-02,
   2.10563349e-02,-5.69313368e-02,-6.34723095e-02,-3.31658883e-03,
   7.24219633e-02,-7.86623096e-03, 8.11030089e-02, 7.43944593e-02,
   6.99861244e-02,-1.32353986e-02,-1.18040578e-01,-1.74177249e-02,
   5.26482620e-02, 1.21971130e-01, 4.24661583e-02,-1.56423473e-02,
   4.86403913e-02,-4.40871614e-02,-2.31505741e-03,-2.40891223e-02,
  -1.33555641e-02,-1.99429483e-02, 1.04327657e-02, 2.47571615e-02,
   1.97953680e-02, 4.11001263e-03, 8.92114898e-04,-1.41957567e-02,
  -3.02541066e-02,-1.02420663e-01,-9.04606966e-02, 2.25890882e-02,
   1.14017666e-01, 5.55356207e-02, 1.30952620e-02, 1.96553806e-02,
   4.42137457e-02, 3.94435036e-02,-7.00504747e-02,-6.53154860e-03,
   4.66791866e-02, 9.14844848e-02, 3.10807323e-03,-8.26576273e-03,
  -2.54286912e-02,-4.21026565e-02,-3.94753834e-02,-4.02728611e-02,
  -1.16484402e-02,-2.08158300e-02, 1.60232049e-02, 6.52710329e-03,
   2.36869196e-02, 2.33906690e-02, 3.37663029e-03,-3.97710056e-03,
  -5.67812088e-02,-9.58637986e-02,-4.32689628e-02,-4.64700755e-02,
  -1.46511801e-02,-7.66290335e-02,-5.80931691e-02, 1.36690074e-02,
  -1.00893415e-01,-8.17238334e-02,-9.15103491e-02,-2.73047896e-02,
  -1.67612896e-02, 6.65438955e-02,-1.71167466e-02,-1.95487351e-03,
  -4.78656209e-02, 1.47312591e-02,-3.48488019e-02,-6.81954979e-02,
  -3.29613986e-02,-3.42949020e-02, 2.06981710e-02, 5.29440748e-03,
   2.89863123e-02, 2.83980937e-02, 1.58192730e-02, 2.14498465e-03,
  -3.78762138e-02,-4.66465199e-02,-7.08987513e-02,-5.12968242e-02,
  -1.55259922e-02,-8.93956589e-02,-8.44624772e-02,-1.09201291e-01,
   1.03192310e-02,-7.38782894e-02,-7.12366175e-02,-1.02237625e-01,
  -2.26804606e-02, 8.87212761e-03, 3.78069131e-02, 6.03021406e-02,
  -3.50955518e-04, 5.65003844e-02,-7.34350488e-03,-4.65831322e-02,
  -4.59217977e-02,-1.74223375e-02, 7.61833493e-04, 3.05615958e-02,
   2.89477006e-02, 3.01827757e-02, 1.51523699e-03, 6.84565688e-03,
   8.44691565e-04,-2.87721604e-03,-2.92278363e-02,-1.04765034e-02,
   3.49728251e-02,-7.13360711e-02,-9.45006618e-02,-9.50060770e-02,
  -1.30547996e-01,-6.75473941e-02,-4.42208321e-02,-4.60905973e-02,
  -2.95305531e-02,-2.68033024e-02,-5.38841831e-02, 2.55466637e-02,
   5.09439801e-02, 2.86437604e-02,-2.58165294e-02,-3.67924638e-02,
   1.25601472e-02, 2.35867991e-02, 6.45175980e-03, 2.05344195e-02,
   1.64844078e-02, 2.08781302e-02, 3.02775317e-03,-3.39502289e-03,
   1.09485587e-02, 3.18337637e-02, 1.53847192e-02, 2.97751184e-02,
  -3.39922577e-03,-4.80279962e-02,-4.87361985e-02,-6.67562929e-02,
  -8.22058944e-02,-6.73715390e-02,-8.03580776e-02,-2.12469004e-02,
   3.29311642e-02,-8.14249758e-02,-3.76023763e-02,-2.08762322e-03,
  -2.68951424e-03,-1.69774389e-02,-2.35364609e-02,-1.63806279e-02,
   5.60020602e-03,-5.98360721e-03, 2.79452006e-02, 2.18064828e-03,
   2.14863819e-02, 9.42738869e-03,-6.04337300e-03, 6.89569539e-03,
  -6.53136022e-03, 5.71579976e-03, 7.75677665e-02, 3.39139762e-03,
  -1.89598726e-02,-4.14027063e-02,-2.23923021e-02,-8.12934543e-03,
  -9.31210436e-03,-4.62110915e-02, 1.49886139e-02,-7.57689335e-02,
   1.48936035e-02,-3.48804903e-02,-2.01098386e-02,-5.95624642e-02,
   1.70996652e-02,-2.43514529e-02, 3.60252861e-02, 3.07562594e-02,
   4.28315757e-02, 9.77460688e-03, 3.48244523e-03, 2.38209991e-02,
   8.66074722e-03, 2.01147841e-02, 2.04875922e-02, 1.37228744e-02,
   1.98718286e-02, 2.15552143e-02, 3.76028882e-02, 1.78211700e-02,
   6.51024994e-02,-5.57567204e-02,-8.95380087e-03, 9.93759467e-02,
  -5.93577915e-02,-8.83973009e-03,-1.50986019e-02,-1.03522841e-02,
  -1.05649438e-02, 2.13552516e-02, 4.59154732e-02,-2.15534273e-02,
   3.16163931e-02, 2.80785443e-02, 1.80804422e-02, 6.30638401e-02,
   5.80491585e-02, 1.06642274e-02, 2.68628553e-02, 3.50788786e-03,
   2.56317637e-02, 2.30833374e-02, 2.38625924e-02, 1.48758035e-02,
   4.18700993e-02, 6.13756186e-02, 4.70507187e-02, 6.00496103e-02,
   5.29822650e-02, 3.45834777e-03, 2.78419801e-02, 6.04940898e-02,
  -2.71716714e-02, 2.17088983e-02,-6.31941675e-02,-1.22375394e-02,
   1.40363495e-02,-4.19667497e-03,-2.37581358e-02, 6.45643786e-03,
   7.56213987e-02, 5.25472004e-02, 5.51634565e-02, 5.73046741e-02,
   1.59999550e-02,-4.80403149e-03, 1.38316515e-02, 1.24557948e-02,
   2.59524223e-02, 2.24590946e-02, 1.61588371e-02,-9.89147083e-05,
   4.12146506e-02, 7.03651419e-02, 6.55517779e-02, 7.43427254e-02,
   1.06727607e-01, 8.35010890e-02, 9.94870714e-02, 9.12786032e-02,
   6.24309645e-02, 2.21680025e-02, 6.65419620e-02, 3.77400951e-02,
   1.12491456e-01, 8.78838337e-02, 8.89349947e-02, 1.38881287e-01,
   1.25097014e-01, 6.41095488e-02, 2.64458557e-02,-2.51681950e-03,
   1.18780827e-03, 1.45156106e-02,-5.14424706e-04, 8.62183656e-03,
   2.02814631e-02, 8.87222864e-03, 2.24571984e-02, 1.40910182e-02,
   2.06438918e-02, 3.23316704e-02, 5.71502982e-02, 3.90586451e-02,
   6.57278757e-02, 1.30847856e-01, 1.20009245e-01, 1.46308458e-01,
   1.30365141e-01, 1.77678542e-01, 2.48477021e-01, 1.28204672e-01,
   1.01771931e-01, 1.21201429e-01, 1.09365909e-01, 6.74280817e-02,
   7.84619954e-02, 4.16440693e-02, 3.10888581e-02, 2.16958454e-02,
   1.05159198e-02, 2.62935961e-02, 1.24582055e-02, 1.41937804e-02,
   2.88419661e-02, 1.31072073e-02, 1.90105156e-03, 8.19867260e-03,
   1.88325868e-02, 6.87229633e-03, 2.49073714e-02, 8.21196069e-03,
   2.80477298e-02, 1.76347657e-02, 1.45082198e-02, 2.90056039e-02,
   2.04373037e-02, 7.90820054e-03, 4.30985100e-02, 2.76069187e-02,
   8.03922261e-03, 1.99337549e-02, 3.82949276e-02, 1.92297031e-02,
   3.02586109e-02, 1.84140157e-02, 1.35301183e-02, 3.08972361e-02,
   1.52961958e-03, 3.09448744e-02, 1.11519993e-02, 1.13416895e-02],
 [ 2.37097899e-02, 1.98975435e-02, 6.30638359e-03, 1.72012620e-02,
   2.17004371e-02, 2.47283643e-02, 1.70808362e-03, 2.82174681e-02,
   2.80998632e-02, 1.02171922e-02, 9.86327233e-05, 2.96765992e-02,
   8.09738924e-03, 1.27676557e-02, 1.68422463e-02, 1.66522816e-02,
   7.35271628e-03, 2.68025199e-02, 1.20719055e-02, 2.32001764e-04,
   1.66502440e-02, 2.51464152e-02, 2.77115162e-02, 2.77610239e-02,
   1.66797752e-02, 2.96398218e-02, 2.75114694e-02, 1.52157946e-02,
   1.15004418e-02, 7.45347336e-04, 1.56068904e-02, 9.07560508e-04,
   1.15435847e-02, 1.89615128e-02, 1.16394911e-02, 2.62736900e-02,
   1.36978760e-02, 2.60716725e-02, 1.91419235e-02, 9.61170901e-03,
   1.17486229e-02, 1.58795046e-02, 2.13743705e-02,-4.42687696e-03,
   2.81932083e-02, 1.40614205e-02, 2.51951056e-02, 2.23131886e-03,
   9.01284593e-05,-1.96567210e-04, 1.29666733e-03, 1.79897789e-02,
   4.28509074e-03, 9.60802216e-03, 2.25041251e-02, 1.52234121e-02,
   2.38279989e-02, 2.67337921e-02, 2.98219140e-03, 8.79809538e-03,
   3.52437430e-03, 3.02829744e-02,-1.74284033e-03, 1.46377501e-02,
  -1.55211185e-06, 2.20041585e-02, 3.44840299e-02, 1.51462237e-02,
   3.09516658e-02,-1.39732074e-02, 4.64700613e-03, 4.39819383e-03,
   1.99829317e-02, 3.07704735e-02, 2.06018754e-02, 9.08161951e-03,
   1.94012737e-02, 7.67637570e-03, 8.50418091e-03, 3.18155446e-03,
   1.60042784e-02, 3.10337603e-02, 1.61188484e-02, 1.54847174e-02,
   8.78248706e-03, 3.10981503e-02, 1.75297949e-02, 1.17072179e-02,
   2.64015767e-02, 1.11975309e-02, 1.43939883e-02,-5.57025386e-03,
  -3.88951528e-03, 2.12269189e-02, 1.15831552e-02, 5.35662272e-02,
  -3.39602134e-02,-4.59258833e-02,-1.93037695e-02, 9.21682904e-03,
   1.68928982e-02, 2.67820372e-02,-3.57740386e-02,-9.76439565e-03,
  -1.79565406e-02, 2.16295448e-02, 8.75371036e-03, 7.65998506e-03,
   3.09298816e-02, 3.91732251e-03, 2.49330307e-02, 1.68670250e-02,
   1.93145474e-02, 1.49594003e-02, 2.40731987e-02, 2.54018609e-02,
  -5.48757717e-04,-1.70745879e-02,-1.36663587e-02,-2.88761502e-02,
  -3.90079372e-02,-1.81631001e-02,-7.44792737e-02,-5.68114431e-02,
  -4.17640284e-02,-3.98932598e-02,-5.44314233e-02,-1.41702640e-02,
  -4.03041438e-02, 4.24012270e-02, 1.28686508e-02,-1.95961684e-03,
   3.40704260e-04,-1.94005027e-02, 8.95625265e-03, 2.21573128e-04,
  -1.04258811e-02, 1.04333531e-02, 7.40556237e-03, 8.26407763e-03,
   1.25453112e-02, 5.74939301e-03, 7.36566493e-03, 1.47730369e-02,
   4.89240954e-03,-3.92471492e-03, 1.20231107e-02, 2.96917765e-02,
   1.03160639e-01, 4.93534130e-02, 3.08130574e-02,-3.97592006e-02,
  -8.64702552e-02,-1.30434389e-01,-1.26755574e-01,-1.02439818e-01,
  -2.20362447e-02,-1.43067512e-02, 2.70913716e-02,-1.81582281e-02,
  -3.56294958e-02,-1.96952977e-02,-1.75010745e-02, 2.24384711e-02,
   1.83487596e-02,-1.08690492e-02, 7.74566782e-03, 2.81507948e-02,
   3.10236356e-02, 3.62728266e-03, 2.03719613e-03, 3.20054537e-02,
   1.61352114e-02, 5.70390651e-02, 5.88487538e-02, 5.95402469e-02,
   7.56698481e-02, 6.87455017e-02,-4.44147591e-02,-7.67176210e-02,
  -9.95166022e-02,-1.45026988e-01,-1.60887385e-01,-1.07682695e-01,
  -5.70105191e-02, 1.17998881e-02,-3.18364903e-02,-3.61148416e-02,
  -5.25381862e-02, 4.51503502e-02, 5.78430065e-02, 3.31511474e-02,
  -4.58225112e-02,-3.06518440e-02, 3.18522339e-04, 1.92942812e-02,
   1.94150836e-02, 9.91920086e-03, 2.47166087e-02, 5.27258453e-02,
   3.08183525e-02, 3.64075658e-02, 6.30360244e-02, 9.79530233e-02,
   3.02875121e-02, 3.60660580e-02,-5.31505689e-02,-4.34930895e-02,
  -8.46900385e-02,-4.84902170e-02,-1.59286806e-01,-1.04540106e-01,
  -7.60161551e-02, 2.83089876e-02,-2.29792287e-02,-3.38071522e-02,
  -5.22278581e-02,-3.39443987e-02, 4.06257924e-02, 5.66948868e-02,
   2.32621470e-02,-1.91434007e-02,-3.99625351e-03, 2.27645358e-02,
   1.82252553e-02, 3.33083892e-02, 2.11196527e-02, 5.02756545e-02,
   1.16090348e-02, 4.11915702e-02, 4.00880962e-02, 4.17154811e-02,
  -4.11625046e-03, 1.30574259e-03,-6.21754451e-02,-6.69910397e-02,
  -2.95617465e-02,-5.51031436e-02,-7.22436764e-02,-2.83075335e-02,
  -1.84512878e-02,-4.55858555e-02,-6.19826939e-02,-9.39353817e-02,
  -4.44550701e-02,-4.85074761e-02,-1.94347229e-02, 6.19227269e-02,
   1.43065993e-02,-4.79502827e-02,-1.81956648e-02, 1.23719628e-02,
   1.20976108e-02, 3.29997932e-02, 2.01171228e-02, 4.00331725e-02,
   1.31420584e-02, 4.14107942e-02,-4.03158154e-02,-5.09531159e-02,
  -8.93804919e-02,-7.94403983e-02,-6.90033941e-02,-4.05609014e-02,
   4.90360271e-02,-1.29829843e-02, 1.75528849e-02,-5.97899333e-02,
  -9.99518702e-03, 5.33228346e-02, 2.38450516e-02, 1.85265617e-02,
   2.60720733e-02,-1.07310621e-02,-5.37499643e-02, 3.26026416e-02,
  -2.52868062e-03,-7.14787285e-02,-1.08383985e-02, 5.18203359e-03,
   6.23753699e-03, 3.05106635e-02, 3.69114438e-02, 4.41772093e-02,
  -9.77967120e-03, 1.44566886e-02,-7.79844370e-02,-5.58929664e-02,
  -9.43536707e-02,-6.11574555e-02,-5.31513101e-02, 4.09163806e-02,
   6.98223412e-02, 1.04272708e-01, 4.53140470e-02, 1.01037687e-02,
  -4.57811839e-02, 8.69609411e-02, 4.42893698e-02, 6.89850062e-02,
   1.42655666e-02, 2.38717305e-03,-4.75571904e-03,-6.96280484e-02,
  -8.78828172e-02,-9.58681357e-02,-1.30228242e-02, 4.84443940e-03,
   2.28476875e-02, 2.98960735e-02, 6.09073339e-02, 4.96494100e-02,
  -3.54579900e-02,-4.51075565e-02,-7.96356523e-02,-3.97929471e-02,
  -3.04111081e-02, 1.48217551e-03, 7.65175614e-02, 1.36338921e-01,
   1.65660609e-01, 1.01507840e-01, 5.68393550e-02, 5.74515721e-03,
  -5.68184830e-02,-1.96570985e-02, 5.42258394e-03, 4.13989258e-02,
  -1.31099412e-02,-3.68160694e-02,-4.40946200e-02,-9.40760858e-02,
  -1.30041231e-01,-9.11443307e-02,-2.32623052e-02, 2.02242822e-02,
   3.76058585e-03, 2.04388685e-02, 3.46411293e-02, 4.42787520e-02,
  -4.89859691e-02,-5.42566843e-02,-7.23858171e-02,-4.67767117e-02,
   3.32889403e-02, 3.35708130e-02, 9.17949801e-02, 1.97338498e-01,
   2.51026484e-01, 1.45219890e-01, 1.45404713e-02,-2.21760057e-02,
  -3.63813120e-02, 3.24610707e-03, 3.66266956e-02, 2.66105001e-02,
  -1.26471172e-02,-6.93392059e-02,-1.26889847e-02,-5.71173041e-02,
  -6.00213289e-03,-1.78041579e-02,-9.38764667e-03, 2.01236920e-02,
   1.27021617e-02, 3.95497345e-03, 2.61061047e-02, 4.05798609e-02,
  -6.90518915e-03,-4.92100843e-03, 6.58942403e-04, 1.44440022e-02,
   2.29248492e-04, 3.91335285e-02, 1.61293171e-01, 1.94419177e-01,
   1.06650635e-01,-7.29700803e-02,-7.33622746e-02,-3.87565096e-02,
  -6.61686456e-02, 7.22075967e-02, 1.44787342e-01,-5.91615143e-03,
  -3.55411963e-02,-4.42953167e-02,-1.55467283e-03, 3.55734337e-02,
   7.23804493e-02, 3.63586096e-02, 2.17686636e-02, 2.90696958e-02,
   1.79069369e-03, 6.86232409e-03, 3.01226495e-02, 4.03266636e-02,
   3.26885157e-02, 8.19705463e-02, 1.78480397e-02, 6.35771931e-02,
   3.54022796e-02, 3.72623325e-02, 7.17953221e-02, 9.23660290e-02,
   3.31027325e-02,-9.00820811e-02,-4.33044621e-02, 1.98324220e-02,
   1.66696645e-02, 1.57432119e-01, 1.55792477e-01, 1.56241265e-01,
   1.32429099e-02, 8.73683035e-03, 6.26525617e-02, 1.11834604e-01,
   6.16844139e-02, 2.88002273e-02, 2.92147670e-02, 2.47604668e-02,
   8.56853480e-03, 6.25215454e-03, 1.46473159e-02, 4.17733693e-02,
   3.53600638e-02, 5.37182368e-02,-5.97234872e-03, 2.69918230e-02,
  -4.56133899e-02, 6.97131588e-04, 4.60567859e-02, 4.41672427e-02,
  -3.51359428e-02,-6.86282322e-02, 1.13443097e-03, 1.16377143e-01,
   2.43805843e-02, 2.05113215e-01, 1.84599373e-01, 1.67914680e-01,
   9.70537272e-02, 6.69274433e-02, 1.23853090e-01, 7.99441853e-02,
   4.86059015e-02, 2.76011165e-02, 3.28138533e-02, 1.49797706e-02,
   3.08966951e-02, 1.12579290e-03, 2.47047593e-02, 9.95079989e-03,
   1.08179926e-02, 3.02759028e-02, 1.85421674e-02, 8.45809035e-02,
   2.15380314e-02,-3.29296865e-02,-7.26600816e-02, 2.45560039e-04,
   3.67716884e-02,-3.12565659e-02, 7.95950257e-02, 2.13245399e-01,
   1.49698264e-01, 2.89865205e-01, 2.01067423e-01, 1.71381790e-01,
   1.67004528e-01, 1.28328778e-01, 7.74415388e-02, 1.51964640e-02,
  -1.01745165e-02, 2.80514094e-02, 3.00937959e-02, 3.02104064e-02,
   1.66197044e-02, 1.84446824e-02, 1.24556458e-03,-1.02652872e-02,
   3.34500964e-02, 5.30046382e-02, 1.36959753e-02, 2.20633261e-02,
  -1.44453562e-03,-8.48018404e-02,-6.89444070e-02,-6.71987016e-03,
  -4.68923090e-02,-2.45371509e-02, 4.28850698e-02, 1.40732100e-01,
   1.57603476e-01, 2.31208962e-01, 1.89576240e-01, 5.45924742e-02,
   7.02413168e-02, 1.09002631e-01, 7.97656135e-02, 4.55838713e-03,
   1.44342039e-02, 4.09037981e-02, 2.94544962e-02, 1.17630206e-02,
   2.85289057e-02, 1.71050202e-02, 5.60505067e-03,-2.37531648e-03,
   4.32645964e-02, 5.36829562e-02, 1.90323281e-02, 3.05890941e-02,
  -1.12768551e-02,-8.17279547e-02,-6.70828151e-02,-8.17908363e-02,
  -1.03421887e-01,-1.94815432e-02, 5.87723235e-02, 1.35624533e-01,
   2.10180712e-01, 1.53557077e-01, 1.49412885e-01, 4.77127109e-02,
  -7.62077070e-04, 6.57863837e-02, 2.95029890e-02, 3.51323385e-03,
   1.56412565e-02, 2.64953963e-02, 2.19653976e-02, 1.21922392e-02,
   9.76902794e-03, 2.57901784e-02, 2.03017718e-02,-5.64215448e-03,
   5.01224360e-02, 5.46060215e-02, 5.43381404e-02, 1.59973045e-02,
  -1.67632183e-02,-8.19549224e-02,-1.05060331e-01,-1.23866905e-01,
  -1.20197193e-01,-7.14150207e-02, 6.25384728e-02, 6.46826291e-02,
   6.14559005e-02, 3.76010482e-02,-1.00760287e-02,-4.32894611e-02,
  -2.16771226e-02, 4.59058362e-03,-8.20291611e-03,-4.83593834e-02,
  -3.52846241e-02,-6.26192409e-03, 2.09531861e-02, 8.73126596e-03,
   2.43220113e-02, 9.51608802e-03, 3.35038075e-02,-4.03433327e-03,
  -2.73999507e-03, 3.15888281e-02,-3.40229182e-02, 3.64550525e-03,
  -4.52495143e-02,-4.68442900e-02,-3.44244379e-02,-9.03653464e-02,
   6.95255472e-03,-8.49741044e-03,-4.92450684e-03,-1.80623549e-02,
  -2.70322089e-02,-1.02103847e-01,-1.33645168e-01,-1.02534752e-01,
  -6.32981291e-02,-3.04809273e-02,-6.76497566e-02,-3.62928064e-02,
  -1.32935891e-02, 9.16629553e-03, 9.02803444e-03, 2.53132900e-02,
   7.11149808e-04, 7.04787791e-03, 2.97916522e-02,-9.27424767e-03,
  -3.67972721e-02,-3.93210846e-02,-1.07462718e-01,-1.22455508e-01,
  -2.48813928e-02,-1.47814580e-02,-4.88305334e-03,-1.86476663e-02,
   3.59051923e-02,-3.11899851e-02,-1.06918028e-01,-6.96639536e-02,
  -3.62695733e-02,-1.11764396e-01,-1.66362055e-01,-1.38018385e-01,
  -1.09433921e-01,-5.38428672e-02,-8.18889178e-02,-3.68624280e-02,
  -9.80154290e-03,-1.70633546e-02, 2.55089643e-02, 1.34967003e-02,
   3.06465888e-02, 1.00071440e-02, 5.09181322e-03, 4.35481623e-03,
  -6.39944444e-02,-7.49943114e-02,-6.35695920e-02,-5.98475890e-02,
  -2.07271755e-02,-4.25494990e-02, 3.15390699e-02, 3.45127178e-02,
   7.60224221e-02,-2.68491903e-02,-8.98709380e-02,-6.00258750e-02,
  -6.91363718e-02,-1.29869759e-01,-1.46007721e-01,-7.45156230e-02,
  -1.03576101e-01,-1.89901584e-02,-2.66423525e-02,-4.34654450e-02,
  -8.36944679e-04,-1.81825256e-02, 3.12703906e-04, 2.89727385e-02,
   2.59018915e-02, 6.15863823e-03, 7.72611060e-03,-1.04608138e-02,
  -5.53152942e-02,-8.93569130e-02,-2.84321483e-02, 2.99863147e-02,
  -5.88824304e-02,-5.35655009e-02, 4.39806682e-04, 8.53999395e-02,
   4.05827096e-02, 2.20019760e-02, 7.23710664e-02,-1.47246044e-02,
  -5.26479500e-02,-5.50674984e-02,-4.50158979e-02,-2.63427318e-02,
  -6.43050619e-02, 1.00285572e-02,-1.69007843e-02,-1.11467396e-02,
  -1.55008163e-02,-1.26872410e-02, 1.76316325e-02, 1.62488197e-02,
   2.10865120e-02, 2.91238741e-02,-6.68667093e-04,-9.88119145e-03,
  -1.01891928e-03, 1.64194130e-02, 3.02814293e-03,-2.57924064e-02,
  -6.28545324e-02,-4.44955227e-02,-3.77737093e-02, 2.04206434e-02,
   3.91589648e-02, 3.79686033e-02, 4.69116308e-02,-1.45491644e-02,
   1.99496739e-02, 4.39911664e-02,-2.44468194e-02,-1.89645690e-02,
  -7.46579384e-04, 2.41973333e-02, 2.67976464e-02,-5.15147885e-03,
   1.75663725e-02, 3.10413570e-02, 1.81809484e-02, 2.80458527e-03,
   1.97457044e-02, 6.23078941e-03, 1.60812113e-02, 1.05468375e-02,
   1.84654979e-02, 4.84595943e-03,-2.74183357e-02,-3.01228639e-02,
  -5.89753173e-02,-5.07749904e-02,-1.84362308e-03, 2.46807498e-02,
  -5.12442809e-02,-1.72691801e-02, 1.96046339e-02, 1.81037430e-02,
   4.33230195e-03,-3.84502976e-02,-2.40266381e-02,-6.57249660e-02,
  -5.14689312e-02,-1.02657589e-02, 3.83525256e-03,-7.12322610e-03,
   1.82603506e-02, 2.99064615e-03, 3.14477476e-02, 2.04050291e-02,
   7.70273140e-04, 1.86811057e-02, 2.79302832e-02, 1.34750845e-02,
  -6.83304047e-03,-1.41468133e-02,-1.56560452e-02, 1.01780299e-02,
  -3.78981076e-03, 1.32431687e-02, 5.84621043e-03,-3.85601558e-02,
  -3.36254202e-02,-2.73904423e-02,-2.32860307e-02,-1.30719763e-02,
  -2.92802297e-02,-5.41365819e-02,-2.88603157e-02, 1.00731157e-03,
   9.88560655e-03, 9.41532485e-04, 2.25547435e-02, 1.60394961e-02,
   2.56277214e-02, 3.08732432e-02, 1.61265187e-03, 1.14358632e-02,
   2.70874313e-02, 2.35466737e-02, 1.53527485e-02, 3.04023069e-02,
   5.19320997e-05, 2.72399561e-03, 1.79389276e-03, 1.09979545e-02,
  -1.88017058e-03, 3.08029095e-02, 2.03057619e-02, 1.39579051e-02,
  -7.62825890e-04, 1.48702265e-02, 1.35233684e-02, 1.17215095e-02,
   7.47062350e-03, 3.88329279e-02, 3.86079747e-02, 1.24638540e-02,
   9.99356208e-03, 3.69179652e-02, 3.26129024e-02, 2.01675992e-02,
   1.01923995e-02, 1.21861945e-02, 1.24154125e-02, 2.56906510e-02],
 [ 2.65783981e-02, 1.36890375e-02, 2.52548925e-02, 6.76089258e-03,
   2.71243097e-02, 2.48880744e-02, 1.55181310e-03, 3.02767011e-04,
   1.71053245e-02, 1.83426452e-02, 4.59549802e-03, 8.02228886e-04,
   1.08850645e-02, 3.68702038e-04, 1.61131332e-02, 1.37005338e-02,
   2.86429265e-02, 1.83449443e-02, 1.14928933e-02, 1.03689190e-02,
   6.94213782e-03, 1.32563566e-02, 1.58146400e-04, 2.70637779e-02,
   2.22753834e-02, 3.86385348e-03, 5.51613297e-03, 2.41090685e-02,
   2.23504177e-02, 1.19296737e-02, 1.91910576e-02, 1.45975852e-02,
   2.98917963e-02, 2.41643471e-02, 3.06687643e-02, 6.38185003e-03,
   2.50452884e-02, 2.95660799e-02, 2.61167069e-02, 2.80544839e-02,
   1.08781587e-02, 1.73924636e-02, 1.42649626e-02, 7.13728942e-04,
   2.26684019e-02, 9.28582423e-03, 1.90919630e-02, 2.54860380e-02,
   3.00790104e-02, 8.30407755e-03, 2.38087965e-02, 1.70172228e-02,
   1.92695096e-02, 1.75975940e-02, 1.41090361e-02, 1.86994262e-02,
   2.47105458e-02, 2.55365581e-03, 2.61750570e-02, 1.71451240e-02,
   2.39440307e-02, 2.82315474e-03, 3.87147256e-03, 3.17793591e-03,
   3.00010023e-02, 1.86133445e-02, 5.03304185e-03,-7.36820956e-04,
   7.35513989e-03,-5.40854653e-03,-3.65514081e-03,-1.51226621e-02,
   1.52280481e-02, 2.14407678e-02, 5.38346630e-02, 1.74178371e-02,
   1.28273022e-02, 9.10986608e-03, 1.72927923e-02, 2.99649806e-02,
   1.28508986e-02, 8.56035782e-03, 3.11852152e-02, 4.76158287e-03,
   1.06231336e-02, 1.45855522e-02, 5.77478843e-03, 5.48693613e-03,
   2.96049203e-02, 1.37928233e-02, 4.53689698e-04, 1.88204246e-02,
   1.11024802e-02,-9.26865679e-03,-1.68823273e-02,-1.32103629e-02,
  -8.86673025e-03, 5.76505149e-03, 3.02031080e-02, 1.85677164e-02,
  -1.09588742e-02, 2.30086587e-02, 6.89965439e-02, 8.20709805e-02,
   9.62723808e-02, 7.90264020e-02, 4.72051556e-02, 1.38901601e-02,
   7.94806734e-03, 1.26822018e-02, 2.16641261e-02, 1.16271345e-02,
   1.32806219e-02, 1.32189692e-02, 8.98729682e-03, 2.56915856e-03,
   5.52941950e-03, 2.10866790e-02,-2.20323529e-02,-1.35942472e-02,
  -4.73008826e-02,-5.40511176e-02,-7.88044969e-02,-6.48284080e-02,
  -4.03491653e-02,-2.58091235e-02,-1.22456652e-02, 3.09061625e-02,
   2.19739485e-02, 3.99029958e-02, 2.23875381e-02,-8.89434073e-03,
   4.34676578e-03, 5.61679182e-02, 4.30539863e-02, 3.41964416e-02,
   3.09081141e-02, 3.81322925e-02, 6.83547818e-03, 2.60253631e-02,
   8.81111206e-03, 5.38129158e-03, 2.94793115e-02, 9.35280041e-03,
   2.10169917e-02,-7.32160729e-03,-5.48088157e-02,-6.93415459e-02,
  -8.51369765e-02,-1.34669461e-01,-8.59875155e-02,-7.95582658e-02,
  -4.21882122e-02, 2.07663576e-02,-4.29400247e-02,-3.97952042e-02,
  -1.33943939e-02, 9.29681047e-02, 5.18994657e-02, 7.00020656e-02,
   9.88061449e-02,-5.41945866e-03,-3.77549232e-03,-2.86036867e-02,
   1.50668847e-02, 3.77537297e-02, 3.44449864e-02, 6.71453737e-03,
   9.20513029e-03, 6.41471494e-03, 3.21270938e-02,-1.01795792e-02,
   1.75404829e-03,-3.75015925e-02,-5.16541767e-02,-7.75788943e-02,
  -6.54568388e-02,-1.38968117e-01,-1.33108359e-01,-1.67814510e-01,
  -1.10952856e-01,-6.79151428e-02,-7.52308733e-02,-2.20451169e-02,
  -1.19499374e-02, 4.64016520e-02,-5.27299863e-03, 5.32640086e-02,
   3.69391261e-02,-3.00580893e-02,-1.87858375e-02, 1.13056282e-02,
   6.30273343e-02, 7.64801567e-02, 4.33158846e-02, 2.48755343e-03,
   4.59006923e-03, 6.19988465e-03,-1.03280451e-03,-7.97654579e-03,
  -2.71101869e-02,-3.40645207e-02,-6.87300710e-02,-9.92273011e-02,
  -1.04333237e-01,-1.34317643e-01,-1.23066465e-01,-9.82252724e-02,
  -1.00850272e-01,-9.53977567e-02,-2.10062440e-02, 1.19608225e-01,
   9.79823619e-02, 8.50096967e-02, 3.86118794e-02, 6.39211029e-04,
   2.15583998e-02,-5.15840997e-02, 4.69558388e-03, 3.47271306e-02,
   2.86301954e-02, 5.89569770e-02, 1.16616138e-02, 1.74392372e-02,
   2.29593504e-02, 1.95533985e-02, 2.20896586e-03,-4.12394752e-03,
  -2.28224362e-02,-3.62172554e-02,-6.03006606e-02,-1.24941853e-01,
  -1.28369894e-01,-1.29229660e-01,-7.62981088e-02,-8.42395965e-02,
  -7.07567942e-02,-2.51607917e-03,-1.42362953e-02, 3.65067349e-02,
   1.18278036e-01, 2.00813804e-02, 2.04956915e-02, 2.09120299e-02,
   5.29909075e-02, 6.77729096e-02, 6.01303024e-02, 3.87655371e-02,
   1.08043747e-01, 6.51073065e-02, 1.56688255e-02, 2.29612289e-02,
   2.55462105e-02, 2.78857056e-02, 1.68213852e-02,-8.99008093e-03,
  -4.22595067e-02,-5.05403505e-02,-7.75913703e-02,-1.04875474e-01,
  -1.46568465e-01,-9.96261494e-02,-1.48378006e-02, 1.77400669e-02,
   6.80711994e-02, 7.50031490e-02,-3.11583644e-02,-8.87839899e-02,
  -6.16109941e-02,-2.41558941e-02,-3.11179893e-02, 2.19792290e-02,
   3.61344074e-02, 8.01190589e-03, 4.77704974e-02, 3.60209508e-02,
   1.27364064e-01, 1.07173481e-01, 3.56644269e-02,-7.52974645e-03,
   2.01785264e-02,-6.74716241e-04,-2.41799151e-03,-2.07498391e-02,
  -1.35309683e-02,-4.09052809e-02,-6.50826731e-02,-7.16335088e-02,
  -8.92518895e-02,-6.64882960e-02, 4.19442285e-02, 1.37591893e-01,
   1.92103161e-01, 5.10574179e-02,-3.91830710e-02,-9.08215878e-02,
  -9.47478746e-02,-1.22317807e-01,-2.85837711e-02,-6.83923451e-02,
   3.99796402e-02,-2.60376642e-02, 4.42401026e-02, 1.05015841e-01,
   1.15337700e-01, 1.07683645e-01, 4.44709827e-02, 5.31911402e-03,
   2.21889570e-02, 1.13181436e-02, 3.50759565e-03,-1.46055596e-02,
  -4.48923638e-02,-3.47356421e-02,-3.98752011e-02,-5.23623071e-02,
  -8.47680268e-02,-8.27185150e-02,-1.89812287e-02, 4.81168003e-04,
   8.34217431e-03, 2.31927545e-02,-3.85238162e-02,-3.37911469e-02,
   3.75356592e-02, 3.75519991e-02, 6.27590992e-02,-3.20905964e-03,
  -5.47182018e-02,-3.17777220e-02, 1.31231722e-02, 8.21064632e-02,
   8.18749181e-02, 6.26535486e-02, 2.69810040e-02, 2.97962779e-02,
   3.03556529e-02, 5.65442111e-03, 2.47592598e-02,-3.57610012e-02,
  -1.13652716e-02, 1.13673984e-02,-2.86897268e-02,-7.85077965e-02,
  -1.21819595e-01,-1.00263678e-01,-4.39622394e-02,-2.10631822e-02,
  -7.41393578e-02, 2.19610238e-03, 4.86495784e-02, 6.24529026e-02,
   1.85586519e-02, 9.40191566e-02, 5.40117021e-02, 9.03928542e-03,
  -2.51021542e-02,-9.06566338e-02,-2.12172474e-02, 5.01173569e-02,
   4.67395651e-03, 1.84456742e-02, 3.28809013e-02, 1.94562255e-02,
   2.57810426e-02, 1.23551170e-02,-5.73685878e-03,-1.19172744e-02,
   2.12747391e-03, 8.89811251e-03,-4.55718149e-02,-8.70050150e-02,
  -1.08340684e-01,-1.17315514e-01,-5.92485411e-02,-4.56870318e-02,
   6.47577260e-02, 3.16457496e-02, 8.28786924e-02, 1.16883355e-01,
  -1.72565225e-02, 1.15166619e-03, 1.32464646e-02, 3.20848535e-02,
  -5.54287383e-02,-5.85167584e-02,-3.50085345e-02, 1.81155548e-02,
  -3.86678861e-02,-3.35089611e-02,-7.70127558e-03, 9.08018241e-04,
   2.62197244e-02, 2.16011693e-02, 1.69718155e-02, 3.53629988e-03,
  -9.18408443e-03,-1.45572595e-02,-6.10641686e-02,-1.16230753e-01,
  -1.02250106e-01,-8.62433763e-02,-2.87463279e-02, 2.30562787e-02,
   6.18661059e-02, 1.40644972e-01, 5.19231969e-02, 3.55763813e-02,
  -9.28813131e-02,-6.69942722e-02,-4.93115270e-02,-2.74354695e-02,
   3.37740219e-02,-1.84825729e-02,-4.73869286e-02,-4.05001724e-02,
  -3.25031303e-02,-3.41502983e-02, 9.66367449e-03, 6.26201540e-03,
   2.55066405e-03, 1.41325986e-02, 1.37931782e-03,-1.57154129e-02,
   1.69497250e-02, 1.38347602e-02,-2.42874565e-02,-7.75538199e-02,
  -9.31814714e-02,-9.47975749e-02,-3.69013420e-02,-1.95656976e-02,
   7.71528158e-02, 2.55530700e-02, 6.77433118e-04,-1.21886943e-02,
  -7.37798507e-02,-6.39201039e-02, 3.95242757e-02, 4.10570716e-02,
   3.24563504e-02,-9.04729545e-02,-8.11005760e-02,-1.50361547e-02,
  -2.07345927e-02,-3.38644186e-02,-7.60766310e-03, 1.33716075e-02,
   1.30220037e-02, 1.49361895e-02, 2.37298865e-02,-1.16125067e-02,
   2.26341671e-02, 3.04269746e-02,-1.95674826e-02,-5.64941565e-02,
  -5.64044533e-02,-9.97756982e-02,-3.19991156e-02,-1.09858558e-02,
  -1.04552399e-02,-4.51533121e-02,-2.49187952e-03,-1.18877071e-02,
  -3.61282381e-02, 4.87847009e-03, 3.87280726e-02, 4.73016986e-03,
  -3.70158665e-02,-1.45520365e-01,-9.17920229e-02,-5.28888348e-02,
  -2.64499566e-02,-1.69482030e-02,-1.15842017e-02, 5.43237201e-05,
   2.24810658e-02, 1.26962504e-02, 1.59293837e-03, 1.58003391e-02,
   3.35015503e-02, 2.43578001e-02,-5.22293981e-03,-1.76400125e-03,
  -3.32761965e-02,-6.17216118e-02,-1.95602018e-02,-2.51233293e-02,
  -8.05259860e-02,-9.70203315e-02,-3.75465020e-02, 8.88832820e-02,
   1.20444920e-01, 1.66051880e-01, 6.15249967e-02,-1.52107543e-02,
  -6.76718264e-02,-1.81700056e-01,-1.30303752e-01,-7.09166391e-02,
  -3.52361472e-02,-3.96045188e-02,-7.60980066e-03, 6.18779594e-03,
   8.75324132e-03, 8.40981485e-03, 5.69310528e-03,-1.06600422e-02,
   1.48407909e-02, 3.99927170e-02, 9.04458255e-02, 4.45678690e-02,
   3.94278012e-02,-4.76949232e-03, 2.82629092e-02, 2.73352805e-02,
  -1.09100747e-01,-9.54465954e-02,-4.31791886e-03, 1.53496674e-01,
   2.33545338e-01, 1.78511904e-01, 5.09471526e-02,-1.14027158e-01,
  -1.55197953e-01,-2.15467229e-01,-1.63887723e-01,-8.52906703e-02,
  -5.50250745e-02,-2.88053610e-02, 1.77652235e-02, 5.16460320e-03,
   1.92089491e-02, 9.83109118e-03, 1.15362730e-02, 2.34406769e-02,
   2.05806554e-02, 6.49048051e-02, 5.66107232e-02, 5.12082199e-03,
   4.59943945e-02,-1.45125070e-02, 7.93277749e-02, 3.04625592e-02,
  -3.30603793e-02,-4.45909351e-02, 5.81558344e-02, 1.33299792e-01,
   1.88754736e-01, 1.50196699e-01, 6.50718264e-02,-1.49960874e-01,
  -1.87077517e-01,-2.07198944e-01,-1.42610705e-01,-6.00979358e-02,
  -3.44435641e-02,-2.49459211e-02, 2.01415991e-02, 9.22918651e-03,
   2.74128955e-02, 2.40988942e-02, 2.13220754e-02,-2.23047850e-03,
   1.17191953e-02, 7.66900772e-02, 5.68148712e-02,-1.09599285e-02,
   4.57683898e-02, 4.69162119e-02, 1.36003943e-01, 1.11771380e-01,
   3.72013984e-02, 8.96737797e-02, 3.09729169e-02, 1.00662363e-01,
   4.96527337e-02, 1.30746188e-01,-6.89733878e-02,-2.13182911e-01,
  -2.61086452e-01,-1.86143951e-01,-9.15443297e-02,-5.47582360e-02,
  -2.67647888e-02, 4.46918273e-03, 1.59253868e-02, 3.00763941e-02,
   1.13000018e-02, 2.56796478e-02,-2.03338725e-02,-1.26400284e-02,
  -1.70457753e-02,-3.64160757e-02, 6.45025642e-02, 6.49550403e-02,
   1.43249616e-02, 7.19952097e-02, 9.43564215e-02, 1.55068753e-01,
   7.19257282e-02, 1.29554713e-01, 7.90686381e-02, 7.31254197e-02,
  -4.83851130e-03,-9.87367448e-03,-1.61949050e-01,-2.57053062e-01,
  -2.03970011e-01,-1.33760565e-01,-7.30232883e-02,-3.53037544e-02,
  -5.45773370e-03, 1.93275864e-02, 2.16887893e-02, 7.97962115e-03,
   2.51688260e-02, 9.77013492e-03, 1.06317516e-02, 1.33274593e-03,
  -2.57456847e-02,-3.46830767e-02,-8.28568913e-03, 1.44961941e-02,
   1.59256265e-02, 4.19759330e-02, 7.88572955e-02, 1.62659661e-01,
   1.43234602e-01, 1.26428904e-01, 1.22536214e-01, 1.19488946e-02,
  -1.06035566e-01,-1.60031363e-01,-2.31853270e-01,-1.93455825e-01,
  -1.51807263e-01,-1.02728786e-01,-3.51407154e-02,-9.75108176e-03,
   3.47876619e-03, 2.17159089e-02, 4.77871791e-03, 8.93820404e-03,
   1.94440848e-02, 2.79150581e-02, 3.62145446e-02, 4.03218329e-02,
   2.27409826e-02, 2.51706150e-02,-1.43109196e-02,-3.57741604e-02,
   3.33893612e-02,-2.68606695e-02, 1.11432741e-02, 3.46997287e-04,
  -2.60945257e-02,-2.05230324e-03,-1.47883953e-02,-7.91101480e-02,
  -1.65067550e-01,-2.09290938e-01,-1.62833995e-01,-1.38194242e-01,
  -8.72585869e-02,-4.07418405e-02,-1.19276596e-02, 6.74045198e-03,
  -5.77309014e-03, 1.99740885e-02, 2.66939252e-02, 2.17761054e-02,
   1.19525400e-03, 2.55449778e-03, 2.73089133e-02, 3.98174595e-02,
   2.01150880e-02, 8.92106572e-03,-3.58103874e-02,-2.86316545e-02,
  -8.51273452e-03, 2.74448162e-03,-1.71138109e-02,-5.52098534e-02,
  -2.52561686e-02,-1.74812685e-02,-5.57337494e-02,-4.45307055e-02,
  -5.67781086e-02,-7.22211131e-02,-2.13337451e-02,-2.66628194e-02,
   7.86859014e-04,-3.10337953e-02,-1.87346768e-02, 1.96300449e-02,
   2.10366875e-02,-1.13810857e-03, 1.47221230e-02, 2.79972848e-02,
   2.85173596e-02, 8.37588822e-03, 8.18081708e-03, 4.84836362e-03,
  -1.48222749e-02, 1.26283701e-02, 1.88598140e-02, 3.51340728e-03,
  -1.15788530e-02, 1.93326175e-02,-1.03066271e-02,-1.94106912e-02,
  -6.39406249e-02,-4.94491089e-02,-3.67003919e-02, 4.98296687e-02,
   6.43261393e-02, 8.40428591e-02, 4.22154795e-02, 2.70876026e-02,
   3.42926923e-02, 3.10538993e-02, 8.29162444e-03, 9.79681730e-03,
   1.87712061e-02, 4.91892409e-03, 9.24314380e-03, 1.99943979e-02,
   2.42389768e-03, 1.69520576e-02, 3.31065380e-03, 2.98075636e-02,
   2.54484573e-02, 3.72999164e-02, 2.87298418e-02, 5.54878853e-03,
   5.69688520e-03,-1.53941080e-03, 2.84365509e-02, 8.24085482e-02,
   5.57276543e-02, 3.14377349e-02, 5.36134052e-02, 6.26469646e-02,
   4.52734672e-02, 4.61236149e-02, 3.04775720e-02, 1.26245710e-02,
   3.14755491e-03, 2.65359778e-02, 3.43859869e-03, 6.38096061e-03,
   1.39462017e-02, 2.10211669e-02, 1.80052928e-03, 8.89955676e-03,
   2.51856171e-02, 2.41388335e-02, 7.84047354e-03, 1.67421260e-02,
   5.88894278e-03, 1.90937052e-02, 1.72097262e-02, 2.05944738e-02,
   3.94275262e-03, 1.82623326e-02, 1.50612910e-02, 4.43006880e-03,
   3.26569314e-03,-4.14226945e-03, 1.63647035e-02, 1.10424560e-02,
   8.56141753e-03, 1.38366624e-02, 8.39136364e-04, 2.09031093e-02,
   3.33127211e-03, 2.13108181e-02, 1.69178779e-02, 6.07863542e-03,
   3.50925203e-03, 1.67027203e-02, 6.53046975e-03, 1.08358764e-02],
 [ 7.15826138e-04, 1.36477959e-02, 9.68953063e-03, 8.55222021e-03,
   2.84811467e-02, 2.31934219e-02, 2.31945062e-02, 1.76517838e-02,
   2.95535814e-03, 6.53165403e-03, 1.58552254e-02, 2.29823981e-02,
   4.08596270e-03, 1.42082782e-02, 1.72569210e-02, 1.76303557e-02,
   2.30052232e-02, 1.91197406e-02, 1.66432312e-02, 2.64449253e-02,
   7.78846174e-03, 2.93130869e-02, 1.86267982e-02, 3.49806329e-05,
   2.87011599e-02, 1.17057931e-02, 1.41072007e-02, 5.57446404e-03,
   1.08258623e-02, 2.06145914e-02, 5.29647819e-03, 1.83417141e-02,
   2.14435165e-02, 1.76522575e-02, 1.11235273e-02, 5.40380651e-04,
   6.98290145e-03, 1.91570507e-02, 2.05833432e-02, 2.46649366e-02,
   1.85400848e-03, 1.64724009e-02, 9.78949742e-03, 1.47701946e-02,
  -1.07435717e-02,-4.95263856e-03, 6.13650760e-04,-2.25244774e-04,
   7.09828777e-03,-5.40952832e-04, 2.86552354e-02, 1.39910823e-02,
   2.23624064e-02, 2.84396212e-02, 2.35528423e-02, 3.43999099e-03,
   1.72530344e-02, 1.42165330e-02, 2.84757524e-02, 2.51502221e-02,
   1.32932827e-02, 1.54359759e-03, 1.23072593e-02, 1.61558847e-02,
   1.14699653e-02,-7.46760042e-03,-2.52383059e-03, 1.32265772e-02,
   1.70682540e-03,-9.68212131e-03, 6.04684843e-03, 1.12283528e-02,
   6.09656154e-03, 2.62140045e-02, 4.37466315e-03, 4.38265334e-03,
   3.07406273e-03, 1.27506682e-02, 1.95900221e-02, 8.84511403e-03,
   3.91874490e-03, 3.54217042e-03, 2.03947639e-02, 6.39291053e-03,
   2.94333911e-02, 2.22186149e-03, 2.02551822e-02, 2.94964755e-02,
   2.78101201e-02, 2.01055882e-02, 1.42195435e-02, 2.93443286e-02,
  -8.24990568e-03, 7.72794923e-03, 1.11230872e-02, 1.54146562e-02,
   7.31297817e-04,-4.12971941e-03,-1.19417698e-02, 8.20516323e-03,
   5.56986233e-03, 5.61200843e-03, 2.01613777e-02, 2.70666727e-02,
  -3.72377033e-03, 2.21809820e-02, 2.98250501e-02, 3.50781087e-02,
   1.26372501e-03, 3.01791792e-03, 4.20623373e-03, 1.23978197e-02,
   1.08698239e-02, 1.60362373e-02, 1.50982147e-03, 2.91007195e-02,
   1.40295210e-02, 3.96972040e-02, 2.51077516e-02, 5.37764291e-02,
   7.32205427e-02, 4.59782246e-02, 5.62473567e-02, 7.70304910e-02,
   9.13534699e-02, 8.85957937e-02, 8.34328224e-02, 4.16761020e-02,
   7.84463993e-02, 3.04209201e-02,-9.45014285e-03,-2.48471747e-02,
   2.98967710e-03,-1.52987378e-02,-2.07143980e-03, 1.82219362e-02,
   6.95914761e-03, 4.28926329e-03, 2.64817159e-02, 1.96114150e-02,
   1.25185310e-02, 2.88793233e-02, 2.42485035e-02, 3.24434442e-02,
   2.61242649e-02, 2.70550977e-02, 4.99351890e-02, 4.98264209e-02,
   1.78145401e-02, 1.25037295e-02, 3.02092388e-02, 5.95289837e-02,
   8.27819280e-02, 4.02426901e-02, 9.21013655e-02, 1.26211168e-01,
   7.34177472e-02, 3.21060005e-02, 1.67786429e-02, 6.60970508e-02,
   3.46295168e-02,-7.67212063e-03,-2.45849522e-02, 1.22264253e-02,
   1.91446830e-02, 4.01853105e-02, 2.36055111e-02, 2.52891285e-02,
   2.71046658e-02, 8.65384808e-03, 2.55973276e-02, 2.20975186e-02,
   3.33105978e-02, 3.56745953e-02, 4.70856389e-02, 4.12319708e-02,
   2.75714420e-02, 5.90904535e-02,-6.12295567e-03, 7.00145788e-03,
   6.23531414e-02, 9.12812532e-02, 8.35633155e-02, 8.73079991e-02,
   5.80157347e-02, 2.49747536e-02,-6.21766685e-02, 2.56867644e-02,
   2.01473858e-02,-5.25266115e-02,-4.47201137e-02, 2.66596711e-02,
   2.04180315e-02, 2.90736878e-02, 2.15312419e-02, 7.44955808e-03,
   3.07086150e-02, 2.92889817e-02, 1.40280443e-02, 1.32041744e-02,
   1.16041941e-02, 4.85229800e-02,-1.22904621e-03,-7.47216005e-02,
  -8.36547229e-03, 1.27746686e-02,-1.71424443e-02,-3.63051606e-02,
   5.32719415e-02, 9.80673752e-02, 5.34127460e-02, 1.66050934e-01,
   7.71911061e-02, 7.71408717e-05,-1.17886461e-02, 5.30605432e-03,
  -4.43553629e-02,-2.50375886e-02,-3.39564943e-02, 2.70262266e-02,
   6.14986348e-02, 2.73920706e-02, 3.47758230e-02, 1.94180160e-02,
   2.28801934e-02, 9.50740970e-03, 6.23644964e-03,-1.12674315e-02,
   2.09124724e-02, 1.46295454e-02,-1.28525463e-03,-4.79788773e-02,
  -3.21668674e-02,-2.12859485e-02, 2.16165289e-03,-2.43357768e-02,
  -2.49424185e-02, 1.21612660e-01, 1.10784102e-01, 9.33292598e-02,
   1.07332105e-01, 2.29691518e-02, 5.86811001e-02, 4.17788976e-02,
  -7.75278024e-02,-3.03526424e-02,-1.84792317e-02,-2.58899062e-02,
   2.30880383e-02, 4.53649714e-02, 3.05947700e-02, 2.14842362e-02,
   1.75813961e-02, 1.79864645e-02, 3.98228007e-03,-6.74282908e-03,
  -4.96545306e-04,-1.27283196e-02,-4.74659933e-03,-1.22168285e-02,
   5.10047208e-03,-2.54237051e-02,-5.53136671e-02,-4.93529948e-02,
  -9.21655388e-03, 1.03845028e-01, 7.36497719e-02, 6.72044693e-02,
   6.52192664e-02, 7.84079923e-02, 4.66880834e-02, 4.18904303e-02,
  -1.86399526e-02,-1.83619403e-02,-1.28440777e-02, 1.26639524e-02,
   9.58119312e-03, 1.66246585e-02, 3.23544174e-02, 5.18259797e-03,
   2.17772236e-02,-5.59453225e-03,-2.98974365e-02,-1.88509623e-02,
  -8.17223215e-03,-5.07651354e-02,-3.05196217e-02,-3.43305167e-02,
  -6.64523335e-02,-4.82131713e-02,-3.72614480e-02, 5.26796715e-03,
   8.61597609e-02, 1.83824665e-02,-2.68809321e-02,-9.06134417e-02,
  -4.06787867e-02, 3.09968978e-02, 3.64356546e-02, 1.34944490e-02,
  -5.41519313e-02,-1.01932766e-01, 6.80607458e-03, 5.20762092e-02,
  -2.64485698e-02,-1.46016461e-02, 7.39212583e-03, 2.38531654e-02,
   7.45645061e-03,-5.31499520e-03,-4.40188052e-02,-1.68149634e-02,
  -4.71297989e-02,-6.71691374e-03,-6.28157236e-03,-1.64056461e-02,
  -1.75240934e-02, 1.29107506e-02, 3.16785636e-02,-8.70195895e-03,
   9.85398124e-02,-1.24306728e-02,-3.35686628e-02,-1.00730622e-01,
   1.73265805e-02, 4.77618414e-02,-7.58004779e-03,-5.84693575e-02,
  -3.77079636e-02,-9.32921110e-02,-1.16553134e-02, 2.16025106e-03,
   2.51689380e-03, 3.55036007e-03, 4.86849907e-03, 6.35978647e-03,
   1.58754552e-02, 2.28675103e-02, 6.27385291e-04,-5.11766520e-02,
  -2.57421159e-02, 5.27287048e-03,-4.10176140e-04,-8.10738410e-03,
  -5.01497153e-02,-1.60451078e-02, 5.10186920e-02, 4.72800396e-02,
   5.41710214e-02, 9.56528669e-03,-4.76682421e-02,-4.65903560e-02,
   3.53964561e-02, 5.54800857e-02,-2.32230897e-03, 1.92470657e-02,
  -3.26848761e-02, 5.68279998e-03, 2.70101034e-02, 5.76476566e-02,
   8.45800565e-03,-1.15419862e-02, 2.54006958e-03, 2.41307713e-02,
   4.45959985e-03, 2.11499093e-02,-2.76081272e-03,-1.17978964e-02,
   2.21298234e-03,-7.27395055e-04,-1.58012898e-04, 2.37235396e-02,
   6.86768530e-02, 4.96482965e-02, 1.62973155e-02, 1.10702881e-02,
   6.17599299e-03, 5.32284806e-02, 1.74405308e-02, 6.05022267e-02,
   5.43349695e-02, 1.02188468e-01, 7.56939537e-02, 6.24595517e-02,
   6.25780039e-02,-2.45772979e-03, 3.64975765e-02, 1.09652577e-02,
  -4.72664926e-02, 1.41760498e-02, 1.56737721e-02, 2.34821088e-02,
   1.58465122e-02, 1.56471083e-02, 1.10733291e-03,-5.76227942e-03,
   1.02118159e-02, 8.53498230e-04, 3.18090557e-02, 5.85656595e-02,
   7.14539780e-02, 6.99159649e-02, 2.72243656e-03, 2.06595098e-02,
   4.45173255e-02, 1.01262665e-01, 4.76301258e-02, 2.75601571e-02,
   7.60096456e-02, 1.33766539e-01, 4.30163799e-02, 5.35295511e-02,
   2.68614831e-03,-1.05435643e-02,-2.59517377e-03,-6.88376017e-02,
  -5.63430118e-02, 7.69666747e-03,-8.80477216e-03, 3.51403677e-03,
   4.63117265e-04, 1.68031444e-02, 1.76142506e-02, 3.25796393e-02,
   4.88598198e-02,-2.25094495e-02, 4.14992911e-02, 4.58676540e-02,
   1.05213008e-01, 4.06450205e-03,-1.38544976e-05,-1.18482500e-02,
   6.87581805e-03, 3.44160754e-02, 5.50439617e-02,-1.35117354e-02,
   9.20741789e-02, 7.18326009e-02,-2.50159703e-02, 3.09876783e-02,
  -3.18549741e-02,-3.57103858e-02, 3.33081784e-02,-1.25408091e-02,
  -6.05605339e-02, 3.09841756e-02, 3.54880208e-02, 2.64131142e-02,
   1.13016768e-02, 3.08718656e-02, 1.39979509e-02, 2.22653023e-02,
   2.95536550e-02, 1.99489827e-02, 7.84808533e-02, 8.24256999e-02,
   7.72658391e-02, 2.79204725e-02,-8.90120050e-03,-2.02722368e-02,
   2.64227427e-02, 5.51409691e-02, 3.46113928e-02,-1.33924148e-02,
   2.07160378e-02,-3.32468328e-03, 4.77070840e-02, 1.57171070e-02,
   1.24473633e-02,-1.51535210e-02, 1.45781071e-02, 2.44288792e-02,
  -6.16104391e-03, 1.79662834e-02, 5.81448881e-04, 1.03120534e-02,
