{
  "layers": [
    {
      "size": 32,
      "weights": [
        [
          6.74064789e-3,
          1.89885352e-2,
          1.09818763e-3,
          6.78071319e-3,
          2.55312099e-2,
          1.66430246e-2,
          6.26731716e-3,
          1.49387564e-2,
          -2.62059368e-2,
          -2.58617533e-2,
          -5.84427781e-2,
          -1.88444695e-2,
          7.75863557e-2,
          1.01458524e-1,
          6.944005e-2,
          1.0705165e-1,
          2.77803979e-2,
          -2.00351034e-2,
          -5.99474977e-2,
          -1.00664699e-1,
          -5.83815406e-2,
          5.17193188e-3,
          2.87535596e-2,
          3.3889896e-2,
          6.64424305e-3,
          -2.04577878e-3,
          2.4046055e-2,
          1.95271308e-2,
          2.7431245e-2,
          8.06423035e-3,
          1.85811578e-2,
          1.3063522e-2,
          9.72212509e-3,
          3.28703915e-2,
          3.54677171e-2,
          3.34322859e-3,
          9.17215519e-3,
          -7.64350793e-3,
          -1.20121487e-3,
          6.27742018e-2,
          9.58147944e-2,
          8.19408969e-2,
          1.10997423e-1,
          1.04423156e-1,
          5.93851751e-3,
          -1.35849612e-2,
          -6.00234761e-2,
          -9.03920753e-2,
          -6.23435131e-2,
          -8.3144542e-3,
          4.59641047e-3,
          9.41462898e-3,
          1.75793852e-3,
          1.31592948e-2,
          8.35762179e-3,
          1.94536129e-2,
          1.56590997e-2,
          1.73901305e-2,
          2.86947096e-2,
          2.04962541e-2,
          1.35457933e-2,
          2.3666588e-2,
          3.20637888e-4,
          -3.55339582e-2,
          3.44811282e-2,
          4.54114828e-2,
          1.44794001e-2,
          1.19031502e-2,
          1.56899567e-2,
          6.80790228e-2,
          5.97385939e-2,
          3.06370965e-2,
          -1.69022541e-2,
          -3.77633872e-2,
          2.612595e-3,
          2.03020354e-2,
          -7.58241031e-2,
          -6.82046436e-2,
          -3.16725448e-2,
          -2.12853633e-2,
          -2.54153469e-2,
          -1.44388745e-3,
          1.39187327e-2,
          3.59865177e-3,
          5.8035908e-3,
          2.38727134e-2,
          6.39241745e-3,
          1.58925002e-2,
          -7.3371812e-3,
          1.67487541e-2,
          -1.48370321e-2,
          5.09169136e-2,
          4.21751466e-2,
          1.89976777e-2,
          -4.52269292e-2,
          1.52535783e-2,
          7.95605701e-3,
          7.64445005e-2,
          9.84410911e-2,
          3.23278445e-2,
          -2.05050617e-2,
          -6.0913184e-2,
          -2.71613406e-2,
          -4.30685189e-3,
          2.97362235e-2,
          -4.2909594e-2,
          -3.57894025e-2,
          -4.3431752e-2,
          -3.4354288e-2,
          1.13569543e-2,
          2.64827476e-2,
          1.35023679e-2,
          1.67988891e-2,
          1.6641632e-2,
          4.50937266e-3,
          1.47644318e-2,
          -1.35358134e-2,
          8.90605535e-3,
          1.02323028e-3,
          4.3372096e-2,
          3.00256898e-2,
          -1.31085452e-2,
          2.31794907e-2,
          3.80524923e-2,
          2.83583249e-2,
          2.71544128e-2,
          9.06130923e-2,
          2.45941054e-2,
          1.7997109e-2,
          -7.27515165e-2,
          -7.34979834e-2,
          -9.66432751e-3,
          -2.54471685e-3,
          -3.87748248e-2,
          -2.18585541e-2,
          -5.93563799e-2,
          -3.90569865e-2,
          1.57775563e-2,
          3.63890434e-2,
          2.02936335e-3,
          2.53918565e-2,
          2.12740919e-2,
          2.03830185e-2,
          -3.21490332e-3,
          -4.21166785e-2,
          -2.3705827e-2,
          -4.23207035e-2,
          3.52043211e-2,
          3.24263985e-2,
          1.99644226e-2,
          5.69540701e-2,
          -4.89766054e-3,
          -1.86532337e-2,
          2.03011872e-2,
          1.46198672e-2,
          -3.17260343e-2,
          -1.40089707e-2,
          -5.91142457e-2,
          -4.94599449e-2,
          -2.30493854e-2,
          -2.94202096e-2,
          -3.02940778e-2,
          -2.11296786e-2,
          -7.43364343e-2,
          -5.74777534e-2,
          -1.65530488e-2,
          3.51646226e-2,
          4.54554625e-4,
          -6.56325213e-4,
          1.97023441e-2,
          5.92147878e-3,
          -1.94974172e-4,
          1.51388675e-2,
          -2.53324648e-2,
          -2.74489429e-2,
          5.47895331e-2,
          -3.31420804e-3,
          6.73531424e-2,
          4.20804946e-2,
          2.83071224e-2,
          1.73148967e-2,
          2.50085472e-2,
          7.92882428e-2,
          -5.77405261e-2,
          -4.04210959e-2,
          -1.8679931e-2,
          -4.05568518e-2,
          4.7674106e-3,
          2.42497152e-2,
          1.94856513e-2,
          -5.82896462e-2,
          -7.18181188e-2,
          -3.94433953e-2,
          -2.85044851e-2,
          1.55574227e-4,
          1.46127661e-2,
          -1.91898165e-3,
          7.27740277e-3,
          3.07091081e-3,
          -2.10031303e-2,
          -1.86026268e-2,
          -2.03408294e-2,
          -1.26728552e-2,
          1.57939081e-2,
          -1.34781859e-2,
          5.72758437e-2,
          4.51053294e-2,
          5.2410285e-2,
          -3.42531975e-4,
          -2.29493739e-3,
          5.10997592e-2,
          -1.61710688e-2,
          -3.98360388e-2,
          -6.79143913e-2,
          -3.09415914e-2,
          -1.54028753e-2,
          -1.60593927e-2,
          9.71329582e-3,
          -5.2154711e-2,
          -3.64136714e-2,
          -1.75242103e-2,
          -3.73123726e-2,
          -1.38558341e-2,
          2.00452111e-3,
          1.6030371e-2,
          -3.76151784e-3,
          -1.01522502e-2,
          -7.419661e-3,
          -2.8005714e-2,
          5.32892397e-5,
          4.61247542e-3,
          2.30007895e-2,
          -1.53327496e-2,
          7.57568397e-2,
          1.48668894e-2,
          1.65921748e-2,
          -2.72910288e-2,
          2.17825471e-2,
          3.79156636e-2,
          -2.5575976e-2,
          -3.57197188e-2,
          -9.41269638e-2,
          -2.97213241e-2,
          -2.7082989e-2,
          -1.15753576e-3,
          -1.35450894e-3,
          -6.1395018e-2,
          -2.87766156e-2,
          -5.35989298e-2,
          -2.65418991e-2,
          -1.65301463e-4,
          7.79666016e-3,
          1.80524509e-2,
          1.57319659e-2,
          -1.14639704e-2,
          -2.0558876e-2,
          -1.36302383e-2,
          -1.86861687e-2,
          4.57514092e-3,
          3.13557159e-2,
          9.13094523e-3,
          5.51183902e-2,
          -1.52065467e-2,
          -1.88261249e-2,
          -5.64196619e-2,
          -1.17194752e-2,
          5.32332897e-2,
          -2.56958739e-2,
          -2.781495e-2,
          -7.99850041e-2,
          -3.06649345e-2,
          2.29316399e-2,
          1.86088629e-2,
          -4.48372064e-2,
          -6.9972338e-2,
          -2.4964434e-2,
          -1.82098342e-2,
          -3.32864196e-5,
          2.5552881e-3,
          1.51713135e-2,
          9.92314852e-3,
          1.74664379e-2,
          1.10056881e-2,
          2.57589139e-2,
          1.49208549e-3,
          -3.11625577e-2,
          4.42979091e-2,
          2.645447e-2,
          5.49555134e-2,
          2.46884365e-2,
          -2.70734524e-2,
          -1.4968787e-2,
          -1.27842235e-2,
          1.47800932e-2,
          6.07952534e-2,
          -1.66313636e-2,
          -3.45548266e-2,
          -4.5176913e-2,
          -3.34391633e-2,
          3.1685275e-2,
          2.12041177e-2,
          -4.36867133e-2,
          -6.00758502e-2,
          -3.67354278e-2,
          -1.04380991e-2,
          3.71135094e-2,
          2.4468528e-2,
          2.58344698e-2,
          3.17793228e-2,
          2.10785305e-2,
          -2.59694434e-2,
          -7.02373338e-3,
          -9.01910198e-3,
          -1.43256892e-3,
          7.04308554e-2,
          1.75635425e-2,
          3.79482689e-2,
          3.97793981e-2,
          1.90932595e-3,
          3.82665319e-3,
          -8.24943216e-3,
          1.0611755e-2,
          4.04821655e-4,
          -9.34556149e-3,
          -3.67832875e-2,
          -3.91527041e-2,
          -3.77263407e-2,
          4.14964571e-2,
          2.99380369e-2,
          4.35945365e-3,
          -2.38197638e-2,
          -2.72096646e-2,
          -3.91697976e-3,
          -8.44108493e-4,
          5.01354838e-2,
          2.02728341e-2,
          7.01629429e-3,
          2.58114432e-2,
          -5.62248837e-3,
          1.0579197e-5,
          -4.09574385e-3,
          4.36665253e-2,
          4.26442436e-2,
          1.80271059e-2,
          4.12291596e-2,
          2.65256364e-2,
          4.70008879e-3,
          -2.74353016e-2,
          -4.7501432e-2,
          -3.66001634e-3,
          -1.50737483e-2,
          -1.76734712e-2,
          -8.05529901e-2,
          -3.09313939e-2,
          -3.80470556e-2,
          3.23788691e-2,
          6.02672883e-2,
          8.28405944e-3,
          3.1585624e-2,
          -3.39042325e-2,
          -2.42363634e-2,
          1.03366218e-2,
          4.26265003e-2,
          3.12940961e-2,
          1.38677147e-2,
          1.3278774e-2,
          -8.8554469e-3,
          3.56785661e-3,
          -2.03406884e-3,
          2.70645641e-2,
          2.36187361e-2,
          2.58891096e-2,
          7.15977531e-2,
          4.0244728e-2,
          -1.50619531e-3,
          -3.92077281e-2,
          -3.77893167e-2,
          6.665716e-3,
          1.34768513e-2,
          -1.8306597e-2,
          -6.30020828e-2,
          -3.91158545e-2,
          -2.09627464e-2,
          -1.65808948e-3,
          5.07974755e-2,
          6.03854995e-3,
          3.56248287e-2,
          -2.86050174e-2,
          -3.29322929e-2,
          1.24307694e-3,
          3.49731183e-2,
          4.4557515e-2,
          3.56321121e-3,
          8.32490082e-3,
          6.2910949e-3,
          1.75717208e-2,
          1.40459235e-3,
          2.44318411e-2,
          2.01438413e-2,
          3.1606051e-2,
          1.50807302e-2,
          -3.3952756e-3,
          -1.14716952e-2,
          -1.43456044e-2,
          -2.19426027e-2,
          2.25754528e-2,
          6.67240891e-3,
          -5.38901651e-2,
          -7.35015105e-2,
          -3.23217667e-2,
          -2.97567821e-2,
          -1.81318319e-3,
          1.89247337e-2,
          -4.0849129e-2,
          -1.24951265e-2,
          -1.4665885e-2,
          -3.66467113e-3,
          1.62046563e-2,
          3.46701717e-2,
          4.45571978e-2,
          4.56788138e-2,
          1.96632846e-2,
          -2.51854944e-3,
          4.00989726e-2,
          3.31665958e-2,
          3.90102161e-2,
          2.60352279e-2,
          4.9679688e-2,
          -4.15651894e-3,
          8.34177453e-3,
          -6.51261219e-2,
          -3.90253926e-2,
          -5.99574436e-2,
          -1.78641546e-2,
          1.90002499e-2,
          -5.59144593e-2,
          -8.38676671e-2,
          -4.51054952e-2,
          -1.78166864e-2,
          -1.12701231e-2,
          1.60119175e-2,
          -4.8571377e-3,
          2.37691543e-2,
          3.51900406e-2,
          8.22290491e-4,
          2.0072424e-2,
          1.1515494e-2,
          3.652278e-2,
          2.52122903e-2,
          2.45740235e-3,
          -6.67178407e-3,
          1.09230463e-2,
          -2.10190949e-3,
          1.25646601e-2,
          -2.88948774e-3,
          2.49972055e-2,
          4.76365622e-3,
          3.81549294e-2,
          -3.37643925e-2,
          -5.37300335e-2,
          -6.49167729e-2,
          -6.14145866e-4,
          1.47860216e-2,
          -2.74985184e-2,
          -4.65799405e-2,
          -1.51385726e-2,
          -1.9075948e-2,
          1.09143647e-2,
          1.66317106e-2,
          8.18508724e-3,
          2.83352483e-2,
          5.25033111e-2,
          3.35487097e-3,
          -1.03575091e-2,
          7.0907025e-4,
          3.21930563e-2,
          3.2262958e-2,
          -2.5602606e-3,
          -1.09881624e-2,
          7.53466429e-4,
          1.23014994e-2,
          1.68971385e-2,
          1.02003136e-2,
          5.4003231e-2,
          -2.02062538e-3,
          2.14909212e-2,
          7.15267057e-4,
          -3.51872303e-2,
          -2.59847621e-2,
          2.88420497e-2,
          7.89597361e-3,
          -4.33350451e-2,
          -4.89388127e-2,
          -4.50812837e-2,
          -1.86084106e-2,
          1.26323057e-2,
          -1.3753796e-2,
          -7.00942331e-3,
          3.86564043e-3,
          1.95245144e-2,
          2.56250929e-2,
          -1.92809886e-2,
          -1.72176149e-3,
          3.66632418e-2,
          8.29748284e-3,
          -1.22146079e-2,
          2.86200027e-3,
          1.61510849e-3,
          8.79082741e-3,
          3.4910697e-2,
          2.0060181e-2,
          3.41444082e-2,
          2.51028004e-4,
          3.23515406e-2,
          -2.83736964e-2,
          -3.05893559e-2,
          5.18488213e-3,
          5.74513831e-2,
          2.32060896e-2,
          -3.80979858e-2,
          -3.04080459e-2,
          -5.11487629e-2,
          -3.0139281e-2,
          8.61183055e-3,
          -1.25620113e-2,
          -1.03042354e-2,
          2.43771407e-2,
          3.00008474e-2,
          -1.12171938e-2,
          -3.05247021e-2,
          -6.23878137e-3,
          2.21359704e-2,
          8.27049736e-3,
          -3.23435403e-2,
          -3.1859321e-2,
          2.40941434e-4,
          1.45580595e-2,
          1.78912614e-2,
          3.67821155e-2,
          6.7084497e-2,
          2.06039286e-2,
          -2.32501872e-2,
          -3.43521473e-2,
          -2.9684415e-2,
          2.67789947e-4,
          3.23008577e-2,
          3.04181454e-2,
          -1.53166904e-2,
          -1.41507281e-3,
          -3.13618333e-2,
          -2.9111011e-2,
          6.27533754e-3,
          1.52220674e-2,
          1.37945105e-2,
          5.25452419e-2,
          5.22179233e-2,
          -1.59456212e-2,
          -1.92668774e-2,
          -2.38848511e-2,
          3.93658114e-2,
          -5.99161998e-4,
          -3.48461374e-2,
          -3.44280371e-2,
          -3.08685725e-2,
          1.02209981e-2,
          2.64268879e-2,
          5.85657625e-2,
          3.95657755e-2,
          1.50009609e-2,
          5.06401957e-3,
          -4.50745026e-2,
          -2.2466709e-3,
          -3.63610361e-2,
          3.33727017e-2,
          4.60372294e-2,
          -2.44952243e-3,
          -2.43778475e-2,
          -2.89356477e-2,
          -9.03117327e-3,
          -2.02844708e-3,
          -5.22459975e-3,
          2.80655534e-2,
          4.78213354e-2,
          1.8163731e-2,
          7.03374983e-3,
          -2.45103194e-2,
          -3.6927488e-2,
          1.90917426e-2,
          7.70992158e-3,
          -8.19978905e-3,
          -5.11998491e-3,
          -2.06902706e-2,
          1.56574581e-2,
          4.24192215e-2,
          3.8207181e-2,
          3.71234725e-2,
          -2.19522756e-2,
          -1.38670957e-2,
          -1.87723798e-2,
          -2.05335325e-2,
          -5.40306689e-3,
          3.10528904e-2,
          7.46259661e-2,
          -1.07439929e-2,
          -1.58869443e-2,
          -3.73354249e-2,
          -3.76404742e-2,
          1.161704e-2,
          3.43505946e-2,
          2.09575733e-2,
          2.47746255e-2,
          3.1099916e-2,
          4.18693137e-3,
          -2.74684413e-2,
          -2.0128726e-2,
          3.09859293e-2,
          1.30080131e-2,
          -8.43883792e-3,
          9.67507127e-3,
          4.0975576e-3,
          3.52392597e-2,
          5.21199928e-2,
          -1.18775705e-3,
          2.37503558e-2,
          -2.25316642e-2,
          1.34449852e-2,
          4.29505938e-3,
          -3.55115907e-3,
          9.63367226e-4,
          2.23693998e-2,
          6.44925634e-2,
          -2.26430757e-2,
          -4.12444709e-3,
          1.0789264e-2,
          -8.25233281e-3,
          1.55389403e-2,
          6.29673858e-2,
          1.74401018e-2,
          5.86624619e-2,
          5.56293127e-2,
          9.25620322e-3,
          9.89315379e-3,
          -1.25647814e-2,
          6.55291471e-3,
          2.39457883e-2,
          -2.73176449e-2,
          -5.26230215e-3,
          -7.65448509e-4,
          2.95037024e-2,
          1.38436657e-2,
          -4.51516791e-2,
          7.48957972e-3,
          -1.05418696e-2,
          3.33373849e-3,
          1.47047281e-2,
          8.72408886e-3,
          1.25943204e-2,
          6.24174892e-3,
          4.00195915e-2,
          5.71266833e-3,
          9.71845314e-3,
          1.99524826e-3,
          -1.6032407e-2,
          2.29758552e-2,
          4.35525252e-2,
          4.89063582e-3,
          2.99916775e-2,
          3.55299075e-2,
          3.31154572e-2,
          -8.1023159e-3,
          -3.10354771e-2,
          1.81154904e-2,
          1.48244622e-3,
          -2.04997309e-2,
          1.22789123e-3,
          -6.83995115e-3,
          3.37112804e-2,
          7.43514507e-3,
          -6.48112989e-2,
          1.16079903e-3,
          -3.43336686e-2,
          -2.08340852e-2,
          2.00981555e-2,
          2.84997512e-3,
          -9.84989381e-3,
          3.52117964e-2,
          2.87383956e-2,
          -1.58911639e-2,
          1.38862654e-2,
          4.05929832e-2,
          3.83338805e-2,
          -8.20416102e-4,
          1.23975203e-2,
          -2.43225887e-2,
          -9.89672182e-3,
          1.07836809e-2,
          9.55227628e-3,
          1.44845193e-2,
          -3.32878489e-2,
          3.3766378e-3,
          1.32360878e-3,
          -1.12150433e-2,
          -2.21144923e-2,
          1.68171727e-2,
          4.79072924e-2,
          4.56627796e-3,
          -2.03841889e-2,
          -3.32894736e-2,
          -3.13593465e-2,
          -1.67901145e-2,
          1.23560515e-2,
          -5.00795374e-3,
          -3.61522741e-3,
          2.52889262e-2,
          4.25924534e-2,
          8.93921606e-3,
          4.93927592e-3,
          4.44968446e-2,
          1.90924188e-2,
          -1.4434578e-3,
          1.13782497e-2,
          -9.00590352e-3,
          -1.55985069e-2,
          4.4911152e-2,
          4.38219394e-2,
          2.65118331e-2,
          -3.1172528e-2,
          -1.36725781e-2,
          -2.49897154e-4,
          6.47219088e-3,
          9.08855343e-3,
          5.35165848e-2,
          6.50540212e-2,
          -3.01608173e-2,
          -3.11850215e-2,
          -6.66264705e-2,
          -6.90510464e-2,
          -3.55493362e-2,
          3.75186483e-2,
          5.56076347e-2,
          1.24184656e-2,
          3.51976144e-2,
          -2.15124601e-2,
          3.66220396e-3,
          2.51337738e-2,
          1.32396465e-2,
          4.38373429e-3,
          1.40860358e-2,
          -1.40105902e-2,
          -1.77032886e-2,
          -2.32353756e-2,
          5.92696516e-2,
          5.27374497e-2,
          2.77946185e-2,
          -1.06569745e-2,
          1.40391645e-2,
          2.25168954e-2,
          1.34260181e-2,
          2.51620053e-2,
          2.18333691e-2,
          4.62019116e-2,
          5.01371626e-2,
          -5.03129024e-3,
          -7.00434848e-2,
          -1.27297166e-1,
          -8.24570193e-2,
          -2.21667868e-2,
          4.12528079e-4,
          3.29295162e-2,
          9.01027801e-2,
          7.31448764e-2,
          4.14176086e-2,
          2.83239512e-2,
          -1.4760227e-2,
          -2.77250181e-2,
          -7.42030921e-2,
          -1.3094419e-1,
          -6.6721238e-2,
          1.12527951e-2,
          3.80076926e-2,
          2.70039202e-2,
          5.98064827e-3,
          3.75743968e-4,
          2.56689028e-2
        ],
        [
          2.48450425e-2,
          1.94990681e-2,
          7.50055982e-3,
          1.75358096e-2,
          1.00828055e-2,
          6.38834552e-3,
          -9.24460944e-3,
          2.90794831e-2,
          1.11287959e-1,
          1.14280053e-1,
          5.92205129e-2,
          3.03967837e-3,
          1.02063696e-1,
          1.03137611e-1,
          4.79901961e-2,
          5.92981132e-2,
          8.80133741e-3,
          -6.83227573e-2,
          5.64860477e-2,
          1.59398464e-1,
          1.03487862e-1,
          9.96356047e-4,
          -8.92309168e-3,
          5.2398694e-3,
          6.08068581e-3,
          2.39094412e-2,
          2.3969119e-2,
          1.73261573e-2,
          7.02257359e-3,
          4.7230561e-3,
          3.66064011e-3,
          -1.37003699e-3,
          -1.83949814e-3,
          -3.69376251e-2,
          -4.61536446e-2,
          6.70038668e-2,
          -2.58548745e-2,
          -1.64757476e-1,
          -9.33222434e-2,
          5.06752744e-2,
          1.01014635e-1,
          1.0319587e-1,
          9.87617235e-2,
          1.48822257e-1,
          1.10243775e-1,
          4.14886722e-3,
          -8.80602407e-2,
          -4.14013506e-2,
          8.63968172e-2,
          -5.56685439e-2,
          -1.44372354e-1,
          -1.11357899e-1,
          -3.10430565e-2,
          -1.51592673e-2,
          -1.11124586e-2,
          1.48450547e-2,
          2.58058774e-3,
          2.88140094e-2,
          1.83743996e-2,
          1.22686526e-2,
          -3.17326262e-2,
          -1.39573361e-2,
          3.61945699e-2,
          3.13029413e-2,
          -4.65080353e-2,
          -9.17065218e-2,
          4.72703959e-2,
          3.36824177e-2,
          9.01872803e-2,
          1.01436015e-1,
          1.86099843e-1,
          1.25054066e-1,
          4.99958738e-2,
          2.68912212e-2,
          1.77589353e-2,
          -3.74157162e-3,
          3.64352965e-2,
          5.5391831e-3,
          -3.85545029e-2,
          -1.49365629e-1,
          -6.09578544e-2,
          -2.43344944e-2,
          1.65575946e-3,
          3.66300279e-4,
          1.57876059e-2,
          6.15899246e-3,
          1.34063013e-2,
          3.19470433e-3,
          -1.44505886e-2,
          2.59574972e-2,
          -2.53181538e-2,
          3.21413818e-2,
          -8.62832136e-4,
          1.52072118e-2,
          -2.74610307e-2,
          -6.63637892e-2,
          -3.02475019e-2,
          4.74251311e-2,
          7.60228146e-2,
          4.44587306e-2,
          -1.21675893e-2,
          1.71077682e-2,
          -8.18576506e-3,
          4.85359937e-2,
          5.68455801e-2,
          -3.80249843e-3,
          -2.10599765e-2,
          -8.65370604e-2,
          -9.30971736e-2,
          -8.89828432e-2,
          -1.30316879e-2,
          1.8285745e-2,
          -2.56052226e-3,
          2.22849959e-3,
          -5.92653547e-3,
          -9.20613842e-3,
          1.00156582e-2,
          -7.40730744e-3,
          -2.63594128e-2,
          7.56125196e-5,
          -5.327173e-2,
          -8.61538572e-3,
          -4.64662684e-2,
          -7.46681586e-2,
          -2.09823335e-2,
          7.2840062e-2,
          1.03411574e-1,
          -1.90558034e-2,
          -2.69973978e-2,
          -3.9335706e-2,
          -4.16987204e-2,
          3.92864042e-2,
          -3.4884192e-2,
          -3.50190038e-2,
          -8.30843889e-3,
          -7.14938709e-2,
          -9.01630949e-2,
          -1.11845293e-1,
          -4.87759415e-2,
          -5.92666149e-3,
          2.61487792e-3,
          -1.83272302e-2,
          -6.49072091e-3,
          3.71963176e-4,
          1.00099267e-2,
          -3.27885588e-2,
          -8.44140202e-2,
          -3.7435697e-2,
          -3.67164104e-2,
          -5.53024599e-2,
          -6.02990948e-2,
          -3.10090422e-2,
          -1.13293831e-1,
          1.09694372e-2,
          7.61864677e-2,
          -8.8719906e-2,
          -2.63106256e-2,
          -5.92230106e-2,
          -4.38420041e-2,
          3.87720972e-2,
          -1.99335791e-2,
          -4.1714539e-2,
          4.97883289e-3,
          -7.15345325e-2,
          -8.95351304e-2,
          -8.13758714e-2,
          -4.26957359e-2,
          2.88540332e-3,
          -5.22921133e-3,
          -5.55042259e-3,
          1.63124183e-3,
          3.2047989e-3,
          -7.48384863e-3,
          -1.18820103e-2,
          -9.83876785e-2,
          6.64181294e-3,
          6.01158315e-3,
          -5.68504928e-2,
          -7.81091889e-2,
          2.01826407e-3,
          -1.00122027e-1,
          -5.68054071e-3,
          1.20430684e-1,
          -1.04300828e-2,
          -7.09321896e-2,
          -1.49372264e-2,
          -5.92921208e-2,
          2.73321203e-3,
          3.33156455e-2,
          -1.9046276e-2,
          -2.03895891e-2,
          -1.88593169e-2,
          -8.2231672e-2,
          -5.76164273e-2,
          -6.11205525e-2,
          -3.94085351e-3,
          -1.4151979e-2,
          -2.6393389e-2,
          -2.80249931e-5,
          -9.74116706e-4,
          9.96190513e-3,
          -4.38248944e-2,
          -4.12969384e-2,
          1.16389388e-1,
          5.7272862e-2,
          -5.61548125e-2,
          -5.80921656e-2,
          -5.35204135e-2,
          -8.68088217e-2,
          7.54386638e-3,
          1.66016143e-1,
          1.86074923e-2,
          -7.30154272e-2,
          -2.61124418e-2,
          -3.48804149e-2,
          -2.5514508e-2,
          4.00678158e-2,
          4.97270736e-2,
          2.65226743e-3,
          3.53394175e-2,
          1.12814187e-3,
          -2.62882182e-2,
          -2.87667585e-2,
          -2.67402727e-2,
          -5.34818429e-3,
          -2.67261378e-2,
          -3.52294752e-2,
          3.43369153e-2,
          4.96669874e-2,
          -3.84205332e-2,
          -5.86741475e-2,
          1.61638135e-1,
          5.44479169e-2,
          1.70967528e-2,
          4.19155171e-2,
          -3.4195225e-2,
          -7.22092906e-2,
          4.5298124e-2,
          3.58325898e-2,
          -4.73721429e-3,
          -9.49472722e-2,
          -6.8562519e-2,
          -1.8862735e-2,
          -2.01496097e-2,
          -1.05195589e-3,
          -3.4870305e-2,
          -5.34694675e-2,
          1.7743934e-2,
          -5.5765029e-3,
          -1.98100954e-2,
          -4.60527655e-2,
          -2.00624996e-2,
          -5.1140054e-2,
          -1.17115187e-2,
          -2.6360961e-3,
          3.43620438e-3,
          1.60439322e-2,
          -7.1828719e-2,
          -5.42843166e-2,
          8.83012641e-2,
          5.41900989e-2,
          1.15500312e-1,
          6.53237427e-2,
          -5.40707824e-2,
          -4.02299767e-2,
          5.74138836e-2,
          2.65360546e-2,
          3.21799476e-2,
          -9.63092374e-2,
          -4.43735006e-2,
          1.71164744e-2,
          3.28246644e-2,
          7.06312452e-3,
          -1.04391596e-1,
          -8.39168958e-2,
          -1.36789025e-3,
          -3.50858198e-2,
          -3.41278122e-2,
          -5.95222309e-2,
          -5.40974411e-2,
          -3.71331189e-2,
          -8.93625734e-3,
          4.24088742e-2,
          4.15542801e-2,
          1.688458e-2,
          -2.92374388e-2,
          -6.09194092e-2,
          5.46118639e-2,
          8.4568368e-2,
          6.16602962e-2,
          -7.69214374e-2,
          -9.79111196e-2,
          -3.26250126e-2,
          1.05319468e-1,
          5.08482842e-2,
          3.48399598e-2,
          3.82200368e-2,
          3.1371018e-2,
          3.89743677e-2,
          8.46445373e-2,
          1.13810984e-1,
          -7.4354953e-2,
          -2.58231708e-2,
          5.27803134e-2,
          5.58046357e-2,
          1.26519649e-2,
          -4.76643911e-2,
          -1.94214764e-2,
          -3.226488e-2,
          -3.30852862e-2,
          5.5214309e-2,
          2.72396166e-2,
          -1.27704924e-2,
          1.64173313e-2,
          7.80652356e-3,
          4.3250869e-2,
          7.63408988e-2,
          4.26360629e-2,
          -1.42719745e-1,
          -1.31241997e-1,
          -5.33289009e-2,
          6.05901081e-2,
          3.55700489e-2,
          1.12489329e-1,
          9.35311397e-2,
          9.39480013e-2,
          1.06399391e-1,
          7.10894889e-2,
          5.18521444e-2,
          3.64782497e-4,
          2.81364918e-2,
          3.04148699e-2,
          1.25666007e-2,
          -2.63108898e-2,
          -4.67761296e-2,
          -2.71584974e-2,
          -2.35015041e-2,
          -1.50641933e-2,
          -8.73797002e-3,
          -4.70746813e-3,
          3.492542e-3,
          -8.48444709e-3,
          -7.21618714e-4,
          1.66643479e-2,
          9.43692971e-2,
          4.88283929e-2,
          -9.64789288e-2,
          -1.35735854e-1,
          -1.01303463e-1,
          -3.34202568e-3,
          5.76105776e-3,
          1.18019214e-1,
          1.06595266e-1,
          8.97001776e-2,
          7.54154974e-2,
          1.31653201e-1,
          5.62204483e-2,
          -2.62270095e-2,
          -9.31362514e-3,
          -4.18932625e-2,
          -2.52369255e-2,
          -6.98335857e-3,
          -5.24721056e-2,
          -4.906474e-2,
          -5.25670408e-2,
          -4.08523261e-2,
          1.65339019e-2,
          -1.23554076e-2,
          -4.00047135e-2,
          3.42170773e-2,
          -1.32529359e-2,
          -7.82790308e-2,
          9.98897129e-2,
          4.77505975e-2,
          -4.81984123e-2,
          -8.9035177e-2,
          -6.24125793e-2,
          -3.52484251e-2,
          6.25166275e-3,
          8.68597261e-2,
          1.1747005e-1,
          1.03146554e-1,
          6.61539031e-2,
          1.09331353e-1,
          6.75333782e-2,
          -4.5508498e-2,
          -6.30332218e-2,
          -2.98044254e-2,
          -4.82988336e-2,
          -5.06824429e-2,
          -6.79920671e-2,
          -7.84967883e-2,
          -4.9106075e-2,
          -3.94305229e-2,
          -4.06829727e-3,
          -2.81761247e-2,
          -2.52138527e-2,
          -4.16941828e-3,
          -4.33705137e-2,
          1.45771097e-2,
          3.12300749e-2,
          2.35152835e-2,
          -5.20550217e-2,
          -1.05581559e-1,
          -8.41898411e-2,
          -6.40059598e-2,
          -3.53722466e-3,
          8.46919648e-2,
          5.36478275e-2,
          4.78431827e-2,
          3.98195043e-2,
          5.17463592e-2,
          3.57996042e-2,
          -6.67701956e-2,
          -7.6009255e-2,
          -2.22967741e-2,
          -7.38052547e-2,
          -1.12629409e-1,
          -5.51887131e-2,
          -9.18466597e-2,
          -2.82854069e-2,
          -1.22578585e-3,
          2.20949472e-2,
          -1.02708893e-2,
          1.82786815e-2,
          4.01108287e-4,
          -5.42921922e-2,
          1.6293686e-2,
          2.06209436e-2,
          9.74385044e-3,
          -4.85867407e-2,
          -8.85469771e-2,
          -9.11697906e-2,
          -9.54994705e-2,
          -4.96985451e-2,
          2.91695721e-2,
          4.94559253e-2,
          4.93074018e-2,
          7.10923224e-2,
          9.18733521e-2,
          6.18859412e-2,
          -6.47489294e-3,
          -6.45642946e-2,
          -5.87243978e-2,
          -8.7381028e-2,
          -1.21074888e-1,
          -4.22634024e-2,
          -5.02047109e-2,
          -7.49787437e-2,
          -2.74585713e-2,
          -4.02365762e-2,
          -1.63610482e-2,
          -3.12033264e-2,
          -3.67691354e-2,
          -2.37004262e-3,
          4.36891182e-2,
          2.70912399e-2,
          -2.63131543e-2,
          -5.96509415e-2,
          -1.93875909e-2,
          -3.60336291e-2,
          -8.73980174e-2,
          -7.02499845e-2,
          2.03094332e-2,
          2.55040193e-2,
          4.09255547e-2,
          7.55454877e-2,
          4.77736523e-2,
          8.52785232e-2,
          -1.97578261e-2,
          -2.21292946e-2,
          -6.53355615e-2,
          -5.59629726e-2,
          -2.99162425e-2,
          1.54762133e-3,
          -3.84643252e-2,
          -5.67917173e-2,
          4.71394124e-3,
          9.97732514e-5,
          1.46708521e-2,
          -1.8852383e-2,
          -5.42126815e-2,
          7.39305677e-3,
          2.45762791e-2,
          1.40328675e-2,
          3.30949596e-2,
          -7.84446203e-3,
          2.25227549e-2,
          -3.24142179e-2,
          -3.69090056e-2,
          -6.94444997e-2,
          2.48053859e-2,
          5.47049327e-2,
          3.56786138e-2,
          5.79717387e-2,
          5.03658865e-2,
          4.27383095e-2,
          -2.83453965e-2,
          -9.98440483e-3,
          -1.66015741e-2,
          3.88440881e-2,
          4.19607432e-3,
          6.05465087e-2,
          3.48178934e-2,
          -2.48359986e-2,
          -2.47307015e-2,
          -3.65230347e-2,
          1.94971639e-2,
          1.80423038e-2,
          -9.24738996e-3,
          6.07504398e-3,
          1.06964304e-2,
          1.42750701e-2,
          3.85766668e-2,
          6.79130607e-3,
          -6.06161492e-3,
          -3.35152801e-2,
          -8.57980448e-2,
          -1.68274523e-1,
          -2.79595021e-2,
          2.46146379e-2,
          7.0315849e-2,
          1.76756455e-2,
          1.55364899e-2,
          -1.28773301e-2,
          -5.39974153e-2,
          1.63476674e-3,
          -2.75118816e-2,
          6.17232944e-2,
          -1.35340487e-2,
          9.63048018e-3,
          1.82242801e-3,
          -2.24600308e-2,
          -2.44175163e-2,
          -7.73805545e-3,
          -1.28034579e-2,
          -3.10841002e-2,
          -1.43104762e-2,
          -2.15956398e-3,
          -1.32056676e-2,
          1.64608046e-2,
          4.67591726e-2,
          4.78573773e-2,
          1.16239654e-2,
          3.25049227e-2,
          -4.78326325e-2,
          -1.37796573e-1,
          -3.28046253e-2,
          2.27419088e-2,
          2.00862966e-2,
          7.30692218e-3,
          -5.31732107e-2,
          -4.47436991e-2,
          3.17185412e-3,
          -2.9615666e-2,
          -5.34079432e-2,
          1.1535698e-3,
          1.17977632e-2,
          -6.73949884e-4,
          -7.41989526e-2,
          -2.30776131e-2,
          -3.22881644e-2,
          -5.45834197e-2,
          -2.77207198e-2,
          -5.48925819e-2,
          -9.71015889e-2,
          2.04141704e-2,
          3.20380275e-2,
          8.49876465e-3,
          -1.32232407e-2,
          2.43799701e-2,
          3.23279619e-2,
          5.17963376e-2,
          4.2089887e-2,
          -5.44131996e-2,
          4.70443939e-2,
          6.08892039e-3,
          1.18648003e-2,
          -2.72191432e-2,
          -2.39643443e-2,
          -5.71449513e-3,
          5.62320965e-3,
          -4.77220423e-2,
          -4.42084748e-2,
          -4.21589993e-2,
          -1.3128966e-2,
          -3.42222762e-2,
          -7.9328521e-2,
          8.58136241e-3,
          -2.96593002e-2,
          -9.40482662e-2,
          -3.52144367e-2,
          -1.67798835e-2,
          -6.46361838e-2,
          1.23711871e-2,
          2.15580231e-3,
          -1.26048512e-2,
          1.63787804e-2,
          4.58813713e-2,
          5.55659941e-2,
          9.15544967e-2,
          1.45069037e-2,
          -6.44165944e-2,
          2.96381356e-2,
          1.46647517e-2,
          6.02818728e-2,
          -3.24068528e-2,
          -1.96199865e-2,
          2.80302819e-2,
          -1.70992357e-2,
          -2.41151409e-2,
          -7.86992581e-3,
          -3.78912213e-2,
          -5.85551728e-2,
          -5.41145219e-2,
          -2.65487894e-2,
          1.01682556e-2,
          -1.92886769e-2,
          -4.38773315e-2,
          6.81443011e-3,
          8.19781902e-3,
          -3.33562149e-2,
          3.29498691e-2,
          2.33886237e-2,
          -1.02920665e-2,
          -6.53645782e-3,
          1.40962207e-3,
          1.81247257e-5,
          6.75336844e-2,
          7.50444144e-2,
          -6.48886984e-2,
          4.31440162e-2,
          2.40544982e-2,
          7.79160039e-3,
          -5.27720101e-3,
          -7.21255045e-3,
          3.41714638e-2,
          -6.02521845e-3,
          3.80439535e-2,
          2.01111921e-2,
          -3.35590735e-2,
          -1.23182259e-2,
          -2.12443163e-2,
          -2.3904829e-3,
          1.53974451e-2,
          -1.80306523e-2,
          -3.6516211e-2,
          -2.93616596e-2,
          2.20808445e-2,
          -1.57137667e-3,
          2.53534531e-2,
          8.62748111e-2,
          4.06417077e-2,
          -1.84637671e-2,
          -8.55618211e-4,
          -1.24345972e-2,
          2.58887516e-2,
          5.49496749e-2,
          -1.36102478e-2,
          -2.05399112e-2,
          -1.6699639e-2,
          -9.53251015e-3,
          -1.56248589e-2,
          1.16230634e-2,
          3.99110541e-2,
          -4.00948075e-2,
          3.52450006e-2,
          3.524255e-2,
          -4.05068595e-2,
          -1.49569353e-2,
          1.67302561e-2,
          4.47479614e-3,
          1.911445e-2,
          -3.25957303e-3,
          4.38601925e-3,
          -1.46573919e-2,
          2.32732212e-2,
          4.12211929e-2,
          8.38885542e-3,
          1.27689677e-2,
          -8.5393596e-4,
          -2.21934203e-2,
          -1.26813127e-2,
          1.60763784e-2,
          5.79336587e-2,
          4.68296672e-2,
          -7.67273425e-2,
          -6.33023316e-3,
          -3.68119908e-2,
          -5.99203301e-2,
          -3.07219235e-2,
          -6.78239882e-2,
          -2.07982355e-2,
          -3.33488555e-2,
          -2.42997592e-3,
          3.63936358e-2,
          2.01800532e-2,
          1.2612425e-2,
          2.78704617e-2,
          3.1049662e-2,
          1.9982784e-3,
          -3.78901487e-3,
          1.03810233e-2,
          -7.75260912e-3,
          -9.84209736e-3,
          4.53891056e-2,
          -1.19899251e-2,
          -6.99756578e-2,
          -3.63384365e-3,
          1.05894168e-1,
          2.57393092e-3,
          -8.50864921e-3,
          1.90262132e-2,
          2.42594615e-2,
          -2.40959069e-2,
          2.06342663e-2,
          -4.19332668e-2,
          -5.98963396e-2,
          -2.93037717e-2,
          -3.09467168e-2,
          -3.0329959e-2,
          -8.1964049e-2,
          -3.48818029e-2,
          3.6029411e-2,
          -8.41404422e-3,
          1.94074493e-2,
          1.3716739e-2,
          5.73018028e-3,
          6.57850807e-3,
          2.52953986e-2,
          1.80458737e-2,
          3.05662236e-3,
          -1.20906807e-2,
          3.82188516e-2,
          -3.09073867e-2,
          -1.72319159e-1,
          -1.49447404e-1,
          6.49887373e-3,
          4.13114324e-2,
          -2.33865401e-2,
          -1.31833402e-2,
          3.8995876e-2,
          -3.00404823e-2,
          -9.06383028e-3,
          -2.5514438e-2,
          -2.28306603e-2,
          4.02545121e-3,
          -2.72909864e-3,
          -1.72301813e-1,
          -3.94795909e-2,
          1.54930488e-2,
          6.43372603e-2,
          4.94324176e-2,
          4.33703242e-2,
          5.47722493e-2,
          7.44840131e-3,
          2.22696635e-2,
          9.26278387e-3,
          2.86177928e-2,
          2.91065152e-2,
          3.066332e-2,
          3.23380412e-2,
          9.19930446e-3,
          -1.14691108e-1,
          -1.80218244e-1,
          -1.82134666e-1,
          -1.18160103e-1,
          4.97421907e-2,
          6.5240254e-2,
          3.44604456e-2,
          -1.58367168e-3,
          1.12671517e-1,
          2.48382771e-2,
          -7.42592464e-3,
          -6.46533133e-2,
          -1.02264122e-1,
          -9.84088662e-2,
          -2.92701905e-3,
          3.02270388e-2,
          4.42203389e-2,
          5.70464899e-2,
          2.30535114e-2,
          4.16525428e-2,
          1.56462478e-2
        ],
        [
          2.38347292e-3,
          2.11360684e-2,
          2.2273415e-2,
          1.06457599e-2,
          3.43196488e-3,
          2.32408908e-2,
          3.04307678e-2,
          1.13305216e-2,
          8.60588371e-3,
          7.93792247e-2,
          2.74851167e-1,
          1.73196942e-1,
          -8.09248841e-2,
          -1.82844779e-1,
          -1.26115114e-1,
          -1.15736053e-1,
          1.95228304e-2,
          1.89053653e-1,
          1.00545414e-1,
          -3.40373797e-2,
          -5.38664679e-2,
          -8.97471217e-3,
          -7.13188964e-3,
          -1.59718195e-3,
          2.02147403e-2,
          2.76981336e-2,
          1.47615539e-2,
          2.34947357e-2,
          1.54926456e-2,
          5.76496285e-3,
          1.92838402e-2,
          1.18891957e-2,
          1.66705337e-2,
          2.86362719e-2,
          1.03904215e-2,
          -5.45035611e-3,
          5.16037989e-2,
          1.95797333e-1,
          1.22830479e-1,
          -3.25802085e-2,
          5.11749293e-2,
          2.66182969e-2,
          3.18235454e-2,
          -4.78776409e-2,
          -1.18712061e-3,
          -1.93272088e-2,
          -4.63375751e-3,
          4.54570458e-2,
          -5.37456919e-2,
          -2.88597145e-2,
          -2.95936241e-2,
          -3.3857244e-2,
          -4.23878614e-2,
          9.36925306e-3,
          8.54670018e-3,
          1.00389231e-2,
          3.48456041e-3,
          1.27637366e-2,
          3.83964489e-3,
          9.03911646e-3,
          -1.03277555e-2,
          3.82293127e-2,
          1.78604671e-1,
          1.7811988e-1,
          1.53485093e-1,
          1.33268875e-1,
          8.44575584e-2,
          1.98304256e-2,
          -1.24803821e-2,
          -3.9459937e-2,
          -8.64505812e-2,
          -1.82729194e-1,
          -4.04973127e-2,
          3.9813781e-2,
          9.0395512e-2,
          6.90989685e-2,
          1.52242878e-1,
          1.32956296e-1,
          6.95725458e-2,
          -2.04457221e-2,
          -2.63973426e-2,
          -2.27929395e-2,
          2.32055199e-3,
          1.13902746e-2,
          5.47497708e-3,
          4.11718517e-3,
          -3.80202031e-3,
          1.21057682e-2,
          2.08811087e-2,
          1.25881979e-1,
          1.75707392e-1,
          7.7024917e-2,
          7.81802264e-2,
          3.67406528e-2,
          9.32431744e-2,
          5.12207593e-2,
          -7.873021e-3,
          -2.03888468e-2,
          -2.7854708e-2,
          -1.10799099e-1,
          -1.7537456e-2,
          7.22993546e-2,
          5.89048627e-2,
          1.29564587e-2,
          3.65692366e-2,
          1.14691847e-1,
          1.47401652e-1,
          3.61771563e-2,
          -1.35478604e-2,
          -3.38431146e-2,
          -3.42591067e-3,
          1.83029269e-2,
          1.77844917e-2,
          1.78621718e-2,
          1.26302345e-2,
          -6.74388713e-3,
          3.53316192e-2,
          5.12326137e-2,
          8.17398413e-2,
          7.21411289e-2,
          7.4902775e-2,
          4.64355047e-2,
          7.42362568e-3,
          -9.11831343e-2,
          -1.45619486e-1,
          -7.67034636e-2,
          -6.73506376e-2,
          -1.19189295e-1,
          -9.9909289e-2,
          1.11854099e-2,
          3.66155566e-2,
          4.47272547e-2,
          5.12635479e-2,
          6.76347994e-2,
          5.13585588e-3,
          3.31188378e-2,
          -2.56087991e-2,
          -2.12348338e-2,
          1.78194822e-2,
          -2.64922458e-3,
          1.58513139e-2,
          2.32638049e-3,
          2.23515565e-2,
          2.36992199e-2,
          1.97833809e-2,
          2.80138318e-2,
          6.48872576e-2,
          8.87675626e-2,
          1.30466077e-1,
          8.95760733e-2,
          1.7578161e-2,
          -4.01906507e-2,
          -9.81149441e-2,
          -1.35876406e-1,
          -9.41730913e-2,
          -7.84770366e-2,
          -7.4669602e-2,
          -3.4503149e-2,
          5.24041661e-3,
          7.8522513e-2,
          6.74200613e-2,
          1.57856239e-2,
          -6.29559993e-2,
          -4.6813944e-2,
          -3.53216677e-2,
          1.13251463e-2,
          -4.3509845e-3,
          -2.51724355e-3,
          -1.59163856e-3,
          7.07232289e-3,
          2.55139372e-3,
          1.69170563e-2,
          -2.06565376e-2,
          -2.02894453e-2,
          4.73218948e-3,
          3.4785215e-2,
          1.0170823e-1,
          1.00352234e-1,
          -9.52059085e-5,
          -2.1367055e-2,
          -2.83080015e-2,
          -9.64531694e-2,
          -4.9470088e-2,
          -5.79197756e-2,
          -5.72047739e-2,
          -2.15770165e-2,
          1.65779419e-2,
          1.36625961e-2,
          5.16374092e-2,
          -4.20066242e-2,
          -7.74152503e-2,
          -1.13360186e-1,
          -2.59455608e-2,
          -2.27380147e-2,
          -4.41820897e-2,
          -1.12156223e-2,
          2.44020392e-2,
          2.24287967e-2,
          9.54960106e-3,
          -7.76300366e-4,
          -4.30853945e-2,
          -3.81904467e-2,
          -4.65245552e-2,
          -8.43488516e-3,
          1.05998689e-1,
          9.49019878e-2,
          -7.00870669e-3,
          2.25670765e-2,
          -5.29730416e-3,
          -5.86725917e-2,
          1.62971555e-2,
          -1.50930422e-2,
          -9.85136786e-3,
          -1.80696428e-2,
          9.19538042e-3,
          6.62521115e-2,
          7.5585207e-2,
          -1.69860075e-2,
          -4.50617862e-2,
          -1.29920544e-1,
          -5.25903138e-2,
          -4.80253472e-2,
          1.61769079e-2,
          1.68555666e-2,
          2.73449224e-2,
          1.67378485e-2,
          5.74103738e-4,
          4.55019136e-3,
          -6.32775901e-2,
          -5.68006742e-2,
          -5.00421709e-2,
          -1.81262445e-2,
          1.455128e-1,
          8.48253212e-2,
          3.20837944e-2,
          8.82079582e-3,
          -9.9243155e-3,
          -2.03063149e-2,
          -4.3208541e-2,
          -1.94889235e-2,
          -6.29352801e-2,
          -3.7777662e-2,
          -5.00091811e-2,
          1.51517144e-1,
          1.19454503e-1,
          -7.21914122e-3,
          -5.91172712e-2,
          -9.38858357e-2,
          -4.65313401e-2,
          1.00872291e-2,
          5.45146756e-2,
          3.20694987e-2,
          1.57036642e-2,
          7.60231327e-3,
          3.81536971e-3,
          -1.85732617e-2,
          -6.4641466e-2,
          -5.92655851e-2,
          -3.65575593e-2,
          -1.64003798e-2,
          1.66816642e-1,
          1.00024886e-1,
          5.16020743e-2,
          6.87594455e-2,
          5.77362706e-2,
          -1.42372563e-2,
          -3.86562289e-2,
          -3.33851299e-2,
          -2.47018531e-2,
          -5.75557271e-2,
          -1.34553288e-1,
          1.13985995e-1,
          5.20887446e-2,
          -5.2403093e-3,
          -5.58887409e-2,
          -1.25543353e-1,
          -7.95360325e-2,
          -3.8844889e-2,
          1.55699486e-2,
          5.50749183e-2,
          1.03321215e-2,
          -3.91883652e-3,
          -9.54538905e-3,
          2.27723759e-2,
          -7.52993695e-2,
          -7.84867181e-2,
          -4.6477768e-2,
          -1.48494322e-2,
          1.07410627e-1,
          5.23453388e-2,
          9.19820653e-2,
          8.81686745e-3,
          5.85576898e-2,
          1.96024853e-2,
          -7.06088276e-2,
          -5.4349269e-2,
          -4.35944033e-2,
          -6.92162731e-2,
          -1.63042709e-1,
          -2.92250029e-2,
          -2.05281915e-2,
          1.96048554e-2,
          -6.48035977e-2,
          -1.70395836e-1,
          -4.53754646e-2,
          -6.07691491e-2,
          -3.21676582e-2,
          5.98755524e-2,
          1.8633432e-2,
          -1.7099303e-2,
          3.51025162e-3,
          5.08538121e-2,
          -4.89332278e-2,
          -6.31102018e-2,
          5.43255442e-2,
          1.47445598e-2,
          5.40962635e-2,
          5.24201518e-2,
          7.36496327e-2,
          8.75366839e-3,
          -2.74046154e-3,
          -1.86887811e-2,
          -4.81268097e-2,
          -1.2987489e-1,
          -9.45488201e-2,
          -2.5303601e-2,
          -1.08728031e-1,
          -1.87736478e-2,
          -2.46467551e-2,
          5.29979532e-2,
          8.51315008e-3,
          -3.21361995e-2,
          4.73310834e-2,
          1.51199963e-2,
          2.39835128e-2,
          4.32680113e-2,
          2.28249895e-3,
          7.532606e-3,
          3.01064031e-2,
          3.73038276e-2,
          -9.71148928e-2,
          -8.90949866e-2,
          8.64252696e-2,
          2.4084797e-2,
          8.52219838e-2,
          4.44345796e-2,
          2.47385601e-3,
          3.99717659e-3,
          -2.83937369e-2,
          -3.0417711e-2,
          -8.59853755e-2,
          -1.29504577e-1,
          -7.74404616e-2,
          -1.07435587e-1,
          -1.5261151e-1,
          -3.69030122e-3,
          1.33897368e-2,
          9.25351794e-2,
          4.52460225e-2,
          8.23479351e-3,
          7.55909654e-2,
          6.01689649e-2,
          6.16615038e-2,
          1.20517074e-2,
          1.94072795e-2,
          6.60468178e-3,
          4.55929319e-2,
          3.2216723e-2,
          -5.24003082e-2,
          2.06857134e-2,
          7.80687169e-2,
          7.48605356e-2,
          1.16828485e-1,
          1.10397549e-1,
          -1.90611469e-2,
          -7.98275753e-2,
          -7.34295174e-2,
          -5.73721838e-2,
          -4.89172244e-2,
          -1.29688353e-1,
          -4.22846326e-2,
          -2.38498318e-2,
          -5.78980093e-2,
          7.3127829e-2,
          6.48969838e-2,
          1.15687215e-1,
          8.44334539e-2,
          6.96465354e-2,
          5.18074347e-2,
          1.09886394e-1,
          2.31446821e-2,
          5.28463096e-3,
          2.03248322e-2,
          1.44882167e-2,
          3.62434246e-2,
          -2.55433681e-2,
          -2.16565826e-2,
          5.77544624e-2,
          9.33691338e-2,
          8.93372431e-2,
          9.63362297e-2,
          2.28608116e-2,
          -3.55717974e-2,
          -6.58593121e-2,
          -5.14737958e-2,
          -7.25346797e-2,
          -9.4481374e-2,
          -6.98035038e-2,
          -5.32195063e-2,
          -4.3042766e-2,
          -1.12488516e-2,
          5.64415433e-2,
          5.06550821e-2,
          4.44392582e-2,
          1.16408239e-1,
          6.08197693e-2,
          2.30662484e-2,
          9.2711831e-2,
          2.36576968e-2,
          -2.77730871e-2,
          2.21573454e-2,
          1.18751871e-2,
          -1.52835257e-2,
          -4.46031014e-2,
          -1.692068e-3,
          4.8086812e-2,
          5.32260706e-2,
          -3.59779177e-3,
          1.37577874e-1,
          -9.61893293e-3,
          -8.18799942e-3,
          -6.93130954e-2,
          -1.49639006e-2,
          -2.13098141e-2,
          -1.03639512e-1,
          -6.39425069e-2,
          -3.69860832e-2,
          -1.75618587e-2,
          2.66214546e-2,
          4.87535106e-2,
          3.95103312e-2,
          -4.00618016e-3,
          8.27081205e-2,
          8.49796826e-2,
          8.28380721e-2,
          5.04077221e-2,
          5.94537575e-2,
          -2.31825099e-2,
          -9.70432599e-3,
          4.76850951e-2,
          9.76791134e-3,
          -2.96911846e-2,
          7.07488087e-3,
          9.70311439e-2,
          3.61032218e-2,
          2.36578211e-2,
          6.92805352e-2,
          -5.21493604e-2,
          3.66256155e-3,
          -6.55519749e-2,
          -2.06682294e-2,
          -2.78955349e-2,
          -4.60456364e-2,
          -6.04001139e-2,
          1.4201021e-2,
          -3.09353379e-2,
          -1.26558943e-2,
          4.98510023e-2,
          3.27422804e-2,
          -2.51749548e-2,
          1.32023612e-1,
          1.04795828e-1,
          4.07865486e-2,
          5.77924366e-2,
          4.31900179e-2,
          -3.31479769e-2,
          2.77735433e-2,
          1.19522033e-1,
          4.38660198e-2,
          2.7799213e-2,
          8.59062385e-2,
          1.03401547e-1,
          1.19024655e-3,
          3.39724076e-2,
          2.07220081e-2,
          -5.22887334e-2,
          -3.2253929e-2,
          -4.28598799e-2,
          2.86020403e-2,
          -1.78909896e-2,
          3.55105878e-2,
          -3.9756805e-2,
          -6.38537614e-2,
          -4.00129991e-2,
          1.62010207e-2,
          2.57018544e-2,
          4.74121305e-2,
          4.32462549e-3,
          8.70387288e-2,
          1.10077605e-1,
          8.32275312e-2,
          7.48929087e-2,
          3.77067688e-2,
          4.41980452e-2,
          6.57977285e-2,
          1.02340609e-1,
          2.18396514e-2,
          4.32271605e-2,
          9.5144596e-2,
          9.76002074e-2,
          7.50145192e-3,
          6.13187152e-2,
          1.85615994e-2,
          -2.98798105e-2,
          -6.16301894e-3,
          -2.11135458e-2,
          4.90022624e-3,
          1.88132786e-2,
          2.39977041e-2,
          1.43130074e-2,
          -2.60656265e-2,
          2.59262117e-2,
          3.83208264e-2,
          8.28359029e-3,
          -2.25853642e-3,
          -1.28711222e-2,
          3.25346868e-2,
          5.76924786e-2,
          1.06251699e-1,
          9.21846679e-2,
          1.16817255e-2,
          4.16186954e-2,
          4.27256334e-2,
          9.80536047e-2,
          5.5610628e-2,
          8.5860769e-2,
          1.0806876e-1,
          9.60926162e-2,
          -4.54430003e-2,
          -7.82975513e-2,
          -1.11166195e-1,
          -7.26257659e-2,
          -5.47862063e-2,
          -8.02488729e-2,
          -6.72535207e-2,
          -5.07224414e-2,
          -2.26628872e-2,
          -2.48323835e-2,
          -3.79124719e-2,
          1.20281566e-2,
          2.22962705e-2,
          -6.9835511e-2,
          -6.19294266e-2,
          -1.48683792e-2,
          1.02028537e-2,
          2.40731848e-2,
          8.64466471e-2,
          2.44740717e-2,
          -1.86357222e-2,
          -4.60683684e-2,
          5.93772882e-3,
          5.69164745e-2,
          5.6176577e-2,
          7.69413916e-2,
          7.02017457e-2,
          3.9095312e-2,
          3.0387386e-2,
          2.2990274e-2,
          -7.50217987e-2,
          1.13216031e-2,
          -4.48226699e-2,
          -6.65071638e-2,
          -4.97027184e-2,
          -2.5546438e-2,
          -2.08590355e-3,
          3.95755341e-2,
          6.55362609e-2,
          1.1714542e-2,
          1.29147692e-2,
          -7.24079445e-2,
          -5.47354833e-2,
          -1.20570675e-2,
          -2.86713494e-2,
          -5.22903555e-2,
          2.9371657e-2,
          -3.29500833e-3,
          -6.37967067e-2,
          -4.85459685e-2,
          -1.65062828e-3,
          3.53684028e-2,
          -3.18202973e-2,
          1.53513431e-2,
          6.3247437e-2,
          6.18676493e-3,
          -1.7210367e-2,
          -7.69642282e-2,
          -1.54456505e-2,
          3.93132207e-2,
          -3.67546777e-2,
          -1.96590737e-2,
          -1.81264307e-2,
          -3.94290426e-2,
          3.38190375e-2,
          8.02677436e-2,
          1.02267556e-1,
          4.79247793e-2,
          2.93648627e-2,
          -5.84753778e-2,
          -8.3669582e-2,
          -8.11385171e-2,
          -5.42559175e-2,
          -3.06781912e-2,
          1.65886017e-2,
          -1.89196137e-2,
          -6.93197896e-2,
          -1.2674048e-2,
          1.26221776e-2,
          2.79055706e-3,
          -4.18442588e-2,
          -3.48357284e-3,
          6.98104447e-2,
          4.0802429e-2,
          -1.19210145e-2,
          -7.19450144e-2,
          -3.62372892e-2,
          7.08421767e-2,
          1.77150424e-2,
          -6.50084385e-2,
          7.48900415e-4,
          7.04198045e-2,
          2.82387642e-2,
          6.4534603e-2,
          8.60442578e-2,
          7.06730658e-3,
          -2.99775387e-2,
          3.8471917e-4,
          -3.31887617e-2,
          -7.25291463e-2,
          -1.31083914e-2,
          3.05926589e-3,
          6.08914817e-2,
          1.4540507e-2,
          -2.44012221e-2,
          -1.03528502e-2,
          1.60120081e-3,
          1.34549836e-2,
          -3.56116855e-2,
          7.77493967e-3,
          1.84111597e-2,
          3.78246386e-2,
          -4.26441013e-2,
          -9.72274649e-2,
          -3.34639511e-2,
          5.8799073e-2,
          4.98707594e-2,
          -3.87066959e-3,
          -2.88362894e-2,
          7.84451908e-2,
          6.03316251e-2,
          5.09283408e-2,
          1.53063157e-2,
          4.10544983e-3,
          3.62799846e-2,
          5.12184879e-3,
          -3.63464346e-2,
          -8.64297144e-2,
          1.0798775e-2,
          9.83901635e-3,
          4.7789851e-2,
          4.39517437e-2,
          1.5902672e-2,
          1.46773537e-2,
          2.05507758e-3,
          3.45285963e-2,
          5.36356089e-2,
          5.30503838e-2,
          1.28573294e-2,
          1.87619236e-2,
          -6.47326584e-2,
          -1.2167465e-1,
          -3.56905689e-2,
          4.33315801e-2,
          -3.34925614e-2,
          -3.01015574e-2,
          -2.40214334e-2,
          2.88421275e-2,
          5.1380143e-2,
          4.79296847e-3,
          1.16726759e-2,
          2.93507082e-2,
          2.83397764e-2,
          -4.39419249e-2,
          -6.51345557e-2,
          -6.96116723e-2,
          -1.03443096e-3,
          7.98215476e-3,
          2.87309954e-2,
          4.84681081e-2,
          1.62176635e-2,
          2.83622182e-2,
          1.58784611e-2,
          3.66480713e-2,
          5.78686637e-2,
          6.97027038e-2,
          5.56240334e-3,
          4.38256117e-2,
          -4.18990843e-2,
          -9.32051005e-2,
          1.5395521e-2,
          3.9670537e-2,
          -2.49512013e-2,
          2.38351016e-2,
          9.04900968e-3,
          5.74724754e-2,
          5.93188543e-2,
          -2.4346565e-2,
          2.8391425e-2,
          8.06634212e-3,
          2.96455791e-2,
          -2.8708824e-2,
          -6.5543737e-2,
          -8.57811191e-2,
          1.72183458e-2,
          4.50020417e-2,
          1.23321959e-2,
          5.13393709e-2,
          2.03721189e-2,
          1.10679398e-2,
          3.42431582e-2,
          5.78110825e-2,
          7.61306831e-2,
          2.0789657e-2,
          -5.44843215e-2,
          2.33484964e-2,
          -4.8578208e-2,
          -1.53122827e-1,
          1.08466777e-2,
          7.68892197e-3,
          -4.42297358e-2,
          -2.29741817e-2,
          3.94433028e-3,
          2.9672348e-2,
          1.63025885e-2,
          -1.09062067e-3,
          -1.4346428e-2,
          -5.6100174e-3,
          3.49645516e-2,
          -2.81094603e-2,
          -1.15546946e-1,
          -6.96496903e-2,
          3.88614213e-2,
          -4.2918103e-3,
          2.92584956e-3,
          4.89940028e-2,
          2.08176933e-2,
          2.87834415e-2,
          1.81460637e-2,
          2.09424589e-2,
          2.07668525e-2,
          8.53407149e-3,
          -3.28050864e-2,
          -4.23568501e-2,
          -3.757281e-2,
          -4.06004202e-2,
          -2.00344651e-2,
          2.3340001e-2,
          4.25491356e-2,
          5.62003047e-3,
          -3.01960268e-2,
          -3.99384307e-2,
          1.39827903e-3,
          1.46267624e-2,
          5.55714585e-2,
          7.22539111e-2,
          6.20533716e-2,
          3.80438285e-2,
          4.59786915e-2,
          3.15808511e-2,
          2.09502464e-2,
          -2.02646134e-2,
          -2.68287178e-2,
          1.28967643e-2,
          7.95969832e-3,
          3.00642647e-2
        ],
        [
          2.41671048e-2,
          1.3808339e-2,
          3.14029689e-2,
          1.88117588e-2,
          2.2209402e-2,
          -8.53338246e-3,
          -6.2973664e-2,
          -6.5318913e-2,
          6.12663344e-2,
          3.66734064e-2,
          -1.23339612e-1,
          -1.08308711e-1,
          5.34786194e-2,
          2.31515521e-2,
          -1.1629457e-2,
          -1.12906262e-2,
          -1.0601255e-1,
          -2.10255559e-1,
          -9.85188773e-2,
          -2.35494017e-2,
          -6.23866054e-2,
          -8.59161336e-2,
          -3.90242229e-2,
          7.78047578e-3,
          8.40829508e-3,
          2.87823687e-2,
          2.69218726e-2,
          1.94535992e-2,
          8.65303407e-3,
          1.52601831e-3,
          3.0646436e-2,
          3.94902165e-2,
          4.70756126e-2,
          -2.56769957e-2,
          -5.84240826e-2,
          1.15232996e-1,
          8.66053632e-2,
          -1.17365808e-1,
          -5.3389818e-2,
          -1.08532232e-2,
          2.57191671e-2,
          3.77317149e-3,
          -9.55530554e-3,
          1.32039422e-1,
          -2.86815852e-2,
          -5.48627906e-2,
          -1.21941664e-1,
          -1.29028432e-1,
          6.04297829e-3,
          -9.36997332e-2,
          -1.24938562e-1,
          -4.95088895e-2,
          6.25650677e-3,
          -8.37041855e-3,
          -6.98311084e-3,
          3.34715149e-3,
          4.61716467e-3,
          1.73441399e-2,
          1.51474697e-2,
          2.88573192e-2,
          2.69727886e-2,
          8.10141816e-4,
          2.05301394e-2,
          6.50700138e-2,
          2.38903769e-2,
          -1.61827847e-2,
          7.53403065e-2,
          2.29620639e-3,
          1.14810699e-1,
          1.05564263e-1,
          1.17033525e-1,
          1.52984839e-1,
          -1.08042611e-2,
          -3.35602905e-2,
          -5.31233086e-2,
          -6.14815637e-2,
          -4.48869984e-2,
          -1.1178543e-2,
          7.97204129e-3,
          -3.48087153e-2,
          -1.17587207e-2,
          -6.02488806e-4,
          1.39083219e-2,
          2.83452081e-3,
          5.46999615e-3,
          2.61302814e-2,
          2.29478811e-2,
          3.87721903e-2,
          1.26446171e-2,
          -2.43725781e-3,
          -2.44468403e-2,
          -1.2781971e-2,
          6.58013345e-2,
          6.98789506e-2,
          -6.74271065e-2,
          -8.54444458e-2,
          6.89142342e-2,
          5.16625586e-2,
          5.92415063e-4,
          1.76455407e-2,
          -4.01374239e-2,
          -6.04340245e-2,
          -5.17044654e-2,
          3.23839e-2,
          -1.67650332e-2,
          -6.13062577e-2,
          -3.41165814e-2,
          -2.57884607e-2,
          -3.30816456e-2,
          -2.85244513e-3,
          1.76486268e-2,
          3.0822223e-2,
          1.10192209e-2,
          2.20391203e-2,
          3.13298489e-2,
          4.35121687e-2,
          3.55059989e-2,
          1.93798211e-2,
          -8.68942983e-3,
          -2.37762449e-2,
          6.24551785e-5,
          1.05970021e-1,
          -5.69552198e-2,
          6.92917698e-3,
          1.09495508e-1,
          9.67186478e-2,
          9.1969963e-2,
          1.97136327e-2,
          -2.74566325e-2,
          -4.99537543e-2,
          -3.81673633e-2,
          3.39736612e-2,
          -9.53001573e-2,
          -9.52800208e-2,
          -2.8054742e-2,
          -5.66672397e-2,
          -3.11140136e-2,
          -1.49785883e-2,
          2.84802257e-2,
          1.5323793e-2,
          8.32564362e-3,
          3.20858297e-2,
          3.45928164e-2,
          3.95049958e-2,
          3.74527884e-2,
          -6.25056246e-3,
          -3.86459703e-2,
          -6.42538949e-2,
          -8.0604221e-2,
          -3.83980879e-2,
          -3.72039449e-2,
          -1.75990062e-2,
          -1.81120844e-2,
          4.4932641e-2,
          6.32874922e-2,
          -4.33664276e-2,
          -2.88456455e-2,
          -1.30296387e-2,
          -5.27552484e-2,
          4.64806284e-2,
          -4.60174738e-2,
          -7.34822336e-2,
          -3.01036939e-2,
          -4.06668735e-2,
          -1.1527466e-2,
          -5.20147147e-3,
          2.23012271e-2,
          2.10345676e-2,
          2.08664676e-2,
          3.38360534e-2,
          7.00633863e-2,
          4.63241279e-2,
          4.28994571e-2,
          3.50715321e-2,
          -2.72743936e-2,
          3.48779127e-3,
          2.70110155e-2,
          4.14506177e-2,
          4.54922436e-2,
          4.01390705e-2,
          -1.42245115e-2,
          2.48772459e-2,
          3.44079833e-2,
          -2.54753633e-2,
          -3.94814513e-2,
          -3.17097065e-2,
          -2.93953604e-2,
          1.02185097e-2,
          -3.48513146e-2,
          -2.33963063e-2,
          -4.82644925e-3,
          -1.37854856e-3,
          -3.68663469e-2,
          9.82380786e-4,
          3.20888016e-2,
          2.80717124e-2,
          8.47331302e-3,
          1.83555337e-2,
          6.07587212e-2,
          5.20390768e-2,
          5.66059064e-2,
          1.39048892e-2,
          1.77325516e-2,
          9.21795261e-2,
          1.44290928e-1,
          7.18895894e-2,
          4.91386518e-2,
          1.45812921e-2,
          -7.79516599e-3,
          -3.94212863e-2,
          -4.94368281e-2,
          -7.79274217e-2,
          -9.58553006e-2,
          -4.84302165e-2,
          -3.2070158e-2,
          -3.15494143e-2,
          -1.08070663e-1,
          -8.11864558e-2,
          -1.76012931e-2,
          1.25988927e-2,
          -1.89183226e-2,
          1.56197621e-2,
          8.02280616e-2,
          1.49141299e-2,
          -6.78206251e-3,
          6.64389473e-2,
          6.085912e-2,
          7.90319963e-2,
          9.60586214e-2,
          8.00828988e-2,
          2.52648088e-2,
          1.24254398e-1,
          1.2474004e-1,
          1.1533761e-1,
          1.29645637e-2,
          -4.25717445e-2,
          -9.94473916e-2,
          -1.35098739e-1,
          -7.29501616e-2,
          -1.16051447e-1,
          -3.42948489e-2,
          -5.86414979e-2,
          1.14067488e-3,
          4.84864389e-2,
          -4.49478021e-2,
          -9.48637157e-2,
          -2.81986295e-2,
          6.09565904e-2,
          4.59067549e-3,
          -9.68890933e-3,
          -2.23454073e-3,
          -9.17249338e-3,
          1.51397467e-2,
          8.22759316e-2,
          6.34570613e-2,
          5.69175571e-2,
          1.13005502e-1,
          5.88391855e-2,
          3.84941373e-2,
          1.0984973e-1,
          1.39673008e-1,
          1.83816929e-1,
          9.51385919e-3,
          -7.53715772e-2,
          -9.01672998e-2,
          -1.0805864e-1,
          2.01797399e-2,
          -2.10191701e-2,
          -8.1435696e-2,
          -3.88544842e-2,
          4.95491907e-2,
          3.67209923e-2,
          3.39111667e-2,
          -7.65084634e-2,
          -5.80544662e-2,
          2.45344022e-2,
          -2.77984294e-2,
          -3.38420519e-2,
          1.22226037e-3,
          -3.79417985e-3,
          2.65240857e-2,
          7.44374481e-2,
          1.01847974e-1,
          8.65864593e-2,
          1.20141592e-1,
          8.08218272e-2,
          2.71298953e-2,
          1.07346095e-1,
          9.44495364e-2,
          2.14705594e-1,
          -4.2533647e-2,
          -4.89039732e-2,
          -5.0585045e-2,
          -7.7820625e-2,
          -2.83870883e-3,
          -5.65184952e-3,
          -5.70456158e-2,
          -4.00675516e-2,
          7.98087056e-2,
          6.14801112e-2,
          2.84653509e-2,
          -6.91571722e-2,
          -1.63096442e-2,
          6.08135176e-2,
          -2.05091733e-2,
          5.1732247e-3,
          4.97002652e-2,
          -1.63207097e-2,
          6.20538784e-2,
          7.73773727e-2,
          9.38646278e-2,
          3.28148687e-2,
          9.95155638e-2,
          1.03940721e-1,
          5.23097073e-2,
          4.16799033e-2,
          1.21429058e-1,
          1.74579709e-1,
          -6.53249705e-2,
          -3.98043664e-2,
          -4.02271298e-2,
          2.11826598e-2,
          1.98904621e-2,
          2.48166493e-2,
          -2.41399464e-2,
          -3.91751249e-2,
          8.68812562e-2,
          1.17039588e-1,
          -3.52984686e-3,
          -3.42017102e-2,
          4.40627095e-2,
          3.99909416e-2,
          -1.80110191e-2,
          -6.32083137e-2,
          -3.65887532e-2,
          -2.22227386e-3,
          5.39992412e-2,
          9.3836479e-2,
          4.67672411e-2,
          3.24588342e-2,
          9.22603517e-2,
          6.94128645e-2,
          5.72052509e-2,
          4.28174582e-2,
          1.19986908e-1,
          1.13627187e-1,
          -7.75899092e-3,
          -8.22852424e-2,
          -8.6852533e-2,
          3.09332841e-2,
          1.40376215e-2,
          -2.55805401e-2,
          -4.09677549e-2,
          -7.64446693e-2,
          6.92835039e-2,
          8.85684853e-2,
          5.02362146e-2,
          -3.02279256e-2,
          2.20480091e-2,
          1.86981076e-2,
          3.28133165e-2,
          -3.88567796e-2,
          5.48633256e-4,
          1.24251263e-3,
          2.98991021e-2,
          7.22884289e-2,
          -2.21135844e-2,
          -2.17930097e-2,
          5.90750245e-2,
          8.59391967e-2,
          8.0862219e-2,
          5.12649363e-2,
          1.48827979e-1,
          7.24076032e-2,
          1.32178655e-2,
          -2.67098082e-2,
          -2.6643779e-2,
          4.1320346e-3,
          3.11064114e-2,
          -5.44795502e-2,
          -9.82996454e-3,
          -1.9416308e-2,
          -2.44362406e-2,
          4.73268359e-2,
          5.14781707e-3,
          -3.13749455e-2,
          2.90005919e-2,
          2.35304611e-2,
          5.86097786e-3,
          -3.13045752e-2,
          4.65114924e-2,
          2.61107916e-2,
          -2.88515866e-3,
          -1.12834976e-2,
          -5.88648402e-2,
          -1.75526811e-2,
          4.20157542e-2,
          7.06057378e-2,
          2.76036681e-2,
          4.22088573e-2,
          1.48350702e-1,
          1.04090235e-1,
          4.90201566e-2,
          -1.20651885e-2,
          -5.92770221e-2,
          2.71258258e-2,
          5.33940545e-2,
          -3.18064241e-2,
          -4.52915282e-2,
          -5.58228647e-2,
          -3.5760041e-2,
          5.14738178e-2,
          3.98136738e-2,
          -1.02569932e-2,
          -7.16348105e-3,
          1.41288163e-2,
          -9.06906118e-3,
          -5.36920154e-2,
          -1.64509854e-2,
          1.18769995e-2,
          -4.47158654e-4,
          -8.49051196e-2,
          -9.52075235e-2,
          -5.27440456e-3,
          1.31621894e-2,
          5.29171032e-2,
          4.52785533e-2,
          1.09755095e-1,
          3.91633456e-2,
          1.40024849e-3,
          -3.18817692e-2,
          -7.30325062e-2,
          -6.37505073e-2,
          -2.82485562e-2,
          7.10469345e-2,
          -2.73985787e-2,
          -7.29011515e-2,
          -4.52210729e-2,
          -1.16741321e-2,
          3.39205687e-2,
          3.31825014e-2,
          -3.04033397e-4,
          -3.80265404e-2,
          2.67545209e-2,
          -9.31668274e-3,
          -5.09004416e-2,
          -4.48032181e-2,
          1.4839335e-2,
          -2.02425558e-2,
          -6.09121154e-2,
          -7.1178151e-2,
          -1.15936495e-2,
          -2.16198076e-2,
          -2.67398689e-2,
          6.80625408e-2,
          1.09049079e-1,
          2.01105797e-3,
          -2.58649028e-2,
          -2.41178682e-2,
          4.41543061e-2,
          -1.58037847e-2,
          -3.10641075e-2,
          3.80853983e-2,
          -3.56468475e-2,
          -6.1350883e-2,
          -1.88068472e-2,
          -1.48839873e-2,
          -1.53545999e-2,
          1.04404652e-3,
          4.42645953e-3,
          -3.04130092e-4,
          -5.96172412e-3,
          -4.53618923e-2,
          -6.04095091e-2,
          -6.36554334e-2,
          1.13475815e-2,
          -5.28557139e-2,
          -8.93314625e-2,
          -1.30975717e-1,
          -3.25537832e-2,
          -1.76574358e-2,
          -8.28408286e-2,
          3.21020915e-2,
          -2.36856973e-3,
          -4.10447542e-2,
          2.28318022e-2,
          8.40100634e-3,
          3.94598093e-2,
          -7.40287075e-2,
          1.77821075e-2,
          4.33119129e-2,
          -2.7710263e-2,
          -1.87854338e-2,
          -5.24108839e-2,
          -2.07558838e-2,
          -4.79921612e-4,
          -8.20480192e-2,
          -4.06409893e-2,
          -3.34002951e-2,
          -5.03038888e-2,
          -1.54106636e-4,
          -5.43351641e-3,
          -5.28711005e-2,
          1.75628631e-2,
          -2.56019155e-2,
          -1.00212389e-1,
          -1.07432057e-1,
          -1.49867601e-2,
          -4.8490789e-2,
          -2.92796562e-2,
          4.18978463e-2,
          -2.83043221e-2,
          2.02564539e-2,
          9.10420325e-2,
          -1.69079427e-2,
          4.24536839e-3,
          -3.96785437e-2,
          9.5854494e-3,
          4.06536519e-2,
          -6.35621262e-2,
          -1.88710167e-2,
          7.42544537e-3,
          -1.87270112e-2,
          -1.292203e-3,
          -4.05826077e-2,
          -3.82648218e-2,
          -1.69745932e-2,
          -3.93661646e-2,
          9.71296352e-3,
          2.70835048e-3,
          -7.89411029e-2,
          1.98111575e-2,
          -3.44201119e-2,
          -4.90399008e-2,
          -4.139228e-2,
          1.29150613e-3,
          -6.07188043e-2,
          -2.03413007e-2,
          4.98514585e-2,
          -5.67272959e-3,
          7.73583183e-2,
          4.96445092e-2,
          2.04794643e-2,
          2.06781183e-3,
          -3.27542605e-2,
          -3.55851007e-2,
          2.76141074e-2,
          2.78028911e-2,
          1.73518705e-2,
          -1.5356892e-2,
          4.74373304e-2,
          3.41997424e-2,
          -5.58179278e-2,
          -1.29101137e-2,
          -4.74342146e-2,
          -5.20974776e-2,
          -7.35136239e-3,
          -1.58932158e-2,
          -4.47296779e-2,
          -5.18270994e-2,
          -2.49046966e-2,
          -3.05635099e-2,
          -3.60172827e-2,
          -3.90589326e-2,
          -6.52704707e-2,
          -8.2446707e-2,
          6.2095609e-3,
          1.3401277e-2,
          6.8660369e-2,
          3.17804534e-2,
          3.52625115e-2,
          1.25124861e-2,
          -2.51577222e-2,
          -5.15180242e-3,
          1.06854265e-1,
          6.63409319e-2,
          -8.93052256e-3,
          5.2268753e-3,
          5.94660356e-2,
          1.10528176e-1,
          4.50805222e-2,
          2.3539303e-2,
          -4.50994148e-2,
          -6.10063831e-2,
          -2.96549073e-2,
          1.09487229e-2,
          -4.02372516e-2,
          -1.61253182e-2,
          -1.53114441e-2,
          -5.07966192e-2,
          -6.20853991e-2,
          -6.27954183e-2,
          -1.29559057e-2,
          -2.18938401e-3,
          8.15213701e-2,
          8.22080986e-2,
          3.52611418e-2,
          1.72940134e-2,
          1.05565087e-2,
          9.98945868e-3,
          1.36712064e-2,
          4.2004593e-2,
          1.48520596e-1,
          7.96438628e-2,
          3.68347954e-2,
          5.21510911e-2,
          3.86291845e-2,
          7.81808664e-2,
          9.23430176e-2,
          6.1967975e-2,
          3.07650043e-2,
          4.46127056e-3,
          -1.64380909e-2,
          8.26894709e-3,
          -3.02998894e-2,
          -8.09469821e-3,
          1.14826362e-2,
          1.10575457e-2,
          -5.60643789e-2,
          -8.38468043e-2,
          -3.08438666e-2,
          1.06446001e-2,
          6.08834152e-2,
          1.11263293e-1,
          5.6651667e-2,
          4.16546594e-2,
          1.8534409e-2,
          4.32487616e-2,
          7.9245771e-2,
          4.03464656e-2,
          1.42830612e-1,
          1.91669859e-2,
          -1.83978158e-2,
          -6.92912663e-3,
          1.46070399e-2,
          4.51719591e-2,
          1.29565424e-1,
          7.32804965e-2,
          3.64079489e-2,
          2.88605296e-2,
          -6.07486474e-2,
          -4.38098096e-2,
          -1.35687977e-2,
          2.74492462e-2,
          1.13408986e-2,
          -1.90260861e-2,
          -4.39005783e-2,
          -7.9629136e-2,
          -3.40327904e-2,
          1.17514375e-2,
          4.56778314e-2,
          1.48590442e-1,
          5.36259492e-2,
          -5.92962711e-3,
          -4.45568442e-2,
          -2.70925792e-3,
          -2.95695534e-2,
          -3.1691093e-2,
          6.20733362e-2,
          -6.69802109e-2,
          -5.2064289e-2,
          8.0529878e-2,
          4.1088867e-2,
          4.83806944e-2,
          1.03433827e-1,
          6.23028326e-2,
          -1.43895963e-2,
          1.69878483e-2,
          -6.92118955e-2,
          -6.62267711e-2,
          -3.1769751e-3,
          2.71132162e-2,
          1.05967717e-2,
          -2.08934682e-2,
          -4.11115962e-2,
          -7.77131204e-2,
          -4.9717982e-2,
          1.19709775e-2,
          6.37634549e-2,
          1.03324852e-1,
          7.91798881e-4,
          -1.42347915e-2,
          -4.97401102e-2,
          -7.99522223e-3,
          -3.59411643e-3,
          -2.07745529e-2,
          1.29733632e-2,
          -5.68014427e-2,
          5.8391089e-3,
          6.12440835e-2,
          2.38261651e-2,
          6.53727849e-2,
          9.76612239e-2,
          8.20763272e-3,
          -5.56691987e-2,
          -3.8256403e-3,
          -7.36836406e-2,
          -4.78950271e-2,
          -2.34461849e-2,
          1.11951891e-2,
          1.10449703e-2,
          -2.35817176e-2,
          -5.75101214e-2,
          -9.81521955e-2,
          -6.96413255e-2,
          2.40101908e-2,
          9.89555854e-3,
          4.12817277e-2,
          -1.58052937e-2,
          1.63854517e-2,
          -7.42329521e-2,
          -2.26385373e-2,
          -3.08990274e-2,
          -4.41069794e-2,
          5.02548296e-4,
          -8.33642136e-3,
          -1.11310991e-2,
          8.62719953e-3,
          2.32662137e-2,
          8.5258604e-2,
          6.25132314e-2,
          -4.51872711e-2,
          -7.82509022e-2,
          -5.95934638e-2,
          -1.0281612e-1,
          -5.19989945e-2,
          -4.0385996e-2,
          1.51834819e-2,
          2.08715561e-2,
          -2.15298849e-3,
          -3.82237267e-2,
          -5.65251171e-2,
          -2.45424986e-2,
          -1.68297218e-2,
          -2.23362269e-2,
          -2.5226021e-2,
          -1.17914784e-1,
          9.80702697e-3,
          -2.70290996e-2,
          -4.12139537e-2,
          6.8177365e-3,
          4.45525464e-3,
          1.36571373e-2,
          -1.2639498e-2,
          -7.32494574e-3,
          4.24927788e-2,
          8.26518397e-2,
          5.65692029e-2,
          -7.6285162e-2,
          -6.61627769e-2,
          -7.7778698e-2,
          -1.91028533e-2,
          -2.30912695e-2,
          -4.56099232e-2,
          -1.23626066e-2,
          1.32942979e-2,
          2.74338552e-2,
          2.44937706e-2,
          -2.89185464e-3,
          7.2813907e-3,
          1.51860995e-2,
          3.89602891e-2,
          9.95140472e-2,
          -1.1023561e-2,
          -1.08521758e-1,
          -2.23218284e-1,
          -1.90887288e-1,
          -3.61472429e-2,
          4.70636992e-2,
          2.07608096e-1,
          2.42807003e-1,
          8.57605021e-2,
          -2.49333559e-2,
          -6.992029e-2,
          -1.36628355e-1,
          -6.7809695e-2,
          -5.5866264e-2,
          -1.18976329e-2,
          3.57167936e-2,
          -4.6114448e-3,
          8.74365769e-3,
          -7.42018563e-3,
          9.13841564e-3,
          2.93070101e-2
        ],
        [
          6.24526672e-3,
          1.23474234e-2,
          2.37676296e-2,
          2.47582975e-2,
          -2.13308694e-2,
          -4.97995827e-2,
          -8.46011939e-2,
          -1.26590753e-1,
          -8.86981842e-2,
          -5.64351379e-2,
          4.61307403e-3,
          2.33677772e-1,
          8.45422051e-2,
          -1.61607389e-1,
          -7.57533802e-2,
          -5.48975254e-2,
          3.71869875e-1,
          2.61443641e-1,
          1.29880524e-2,
          -4.29952474e-2,
          -8.45601871e-2,
          -1.09281986e-1,
          -6.27596505e-2,
          -4.66275424e-2,
          -4.68649296e-3,
          2.65266493e-2,
          2.500158e-2,
          2.79708743e-2,
          1.44838506e-2,
          5.66618942e-3,
          -4.04900013e-3,
          -3.99560705e-3,
          -4.65784321e-2,
          -1.1905612e-1,
          -2.04335006e-1,
          -8.46256595e-2,
          1.07866731e-2,
          1.17562482e-1,
          1.4795891e-1,
          1.38087305e-1,
          1.36430115e-1,
          2.68929593e-1,
          3.1805667e-1,
          2.76481228e-1,
          3.25815903e-1,
          1.83926451e-1,
          2.05570779e-1,
          1.28640044e-1,
          2.14722073e-2,
          1.87092053e-2,
          -5.61073466e-2,
          -7.94093278e-2,
          -9.73331748e-3,
          -5.06726958e-3,
          1.68188957e-2,
          1.56234657e-2,
          1.50055537e-2,
          2.92067154e-2,
          -1.59595676e-2,
          -4.35889085e-3,
          -2.91649322e-2,
          -5.79406092e-2,
          5.2026043e-2,
          6.45622311e-2,
          -3.95089961e-2,
          2.82042393e-2,
          3.91713067e-2,
          5.90997371e-2,
          9.76425769e-2,
          1.72253791e-1,
          7.79300577e-2,
          5.72556542e-2,
          5.2906766e-3,
          3.3390879e-2,
          2.58122831e-3,
          1.17073876e-2,
          7.55253806e-2,
          1.6817047e-1,
          1.291568e-1,
          8.78172471e-2,
          8.29049736e-3,
          -1.53480351e-2,
          2.59063655e-2,
          2.63379356e-2,
          1.68294755e-2,
          4.98582401e-3,
          1.62542633e-2,
          3.08457808e-3,
          -1.02742885e-2,
          5.78453528e-2,
          4.56416486e-2,
          -1.55507107e-1,
          -1.2369913e-1,
          1.11360067e-2,
          3.83346208e-2,
          -1.18688571e-2,
          1.65775126e-1,
          -4.5572252e-2,
          -1.06968143e-1,
          -3.07519845e-3,
          7.36169964e-2,
          6.45410875e-4,
          -3.48077435e-2,
          -1.16931131e-1,
          -1.00388228e-1,
          7.13239848e-2,
          1.55864288e-1,
          1.58823633e-1,
          9.36965054e-2,
          1.15793088e-2,
          2.34653296e-2,
          2.91878919e-2,
          2.78604921e-2,
          2.77648321e-2,
          1.01708519e-2,
          3.00063322e-2,
          9.5366691e-3,
          9.62291021e-3,
          9.73544759e-4,
          -1.59083181e-1,
          -1.79045149e-1,
          -3.65541772e-3,
          -4.92070638e-2,
          -5.0238274e-2,
          1.0936768e-1,
          -5.42420427e-2,
          -1.60875702e-1,
          2.84899099e-2,
          -1.19099676e-1,
          -2.51528066e-2,
          2.07333599e-2,
          -1.2341168e-1,
          -1.0606942e-1,
          3.77882463e-2,
          1.14327514e-1,
          1.48306436e-1,
          1.41247064e-1,
          3.87391317e-2,
          1.27089079e-2,
          1.81545377e-2,
          2.587539e-2,
          1.16220292e-2,
          1.15951864e-2,
          3.53204443e-2,
          1.29537696e-1,
          6.3916265e-2,
          4.53757312e-2,
          -1.48047679e-1,
          -1.5466934e-1,
          -8.17838147e-2,
          -4.91800257e-2,
          -4.22841427e-2,
          1.94731655e-2,
          3.22791743e-3,
          -5.31956454e-2,
          3.85686516e-2,
          -3.55480318e-2,
          4.59771502e-2,
          -2.05370134e-2,
          -6.35480817e-2,
          -8.40517857e-2,
          3.41238916e-3,
          6.80383165e-2,
          1.87437612e-1,
          1.05404542e-1,
          8.85074995e-2,
          8.81445818e-3,
          4.05138043e-2,
          2.50487079e-2,
          4.8276015e-2,
          6.65864522e-2,
          6.76942796e-2,
          9.90727781e-2,
          1.01887465e-1,
          9.64411167e-2,
          -1.04172081e-1,
          -4.1529004e-2,
          -1.3694899e-2,
          9.59105128e-3,
          -3.19432765e-2,
          4.14237135e-2,
          4.62630115e-2,
          -8.11999516e-2,
          3.02766578e-2,
          1.69388671e-2,
          -4.92292163e-2,
          -1.84918963e-2,
          -3.85339508e-2,
          -8.09093372e-2,
          -8.64287649e-3,
          7.40059505e-2,
          1.47328551e-1,
          1.17456733e-1,
          1.20604864e-1,
          6.77605339e-2,
          2.35464826e-2,
          3.71297877e-2,
          6.99073585e-2,
          8.44577952e-2,
          7.36563089e-2,
          4.52386811e-2,
          1.00830913e-1,
          1.20935644e-1,
          -1.89134974e-2,
          8.31593902e-3,
          1.36535362e-2,
          -1.58008882e-2,
          -2.23408783e-3,
          9.54853986e-2,
          -1.56822281e-2,
          -1.43815039e-1,
          -5.84493239e-2,
          6.30602607e-4,
          -6.2302788e-2,
          -6.93530603e-2,
          2.12989646e-2,
          -2.32542497e-2,
          -5.5406659e-3,
          1.13110663e-1,
          5.9761155e-2,
          9.32422781e-2,
          1.40094495e-1,
          7.02265971e-2,
          2.94921873e-2,
          4.48049345e-2,
          8.78811474e-2,
          1.25104038e-1,
          8.13653125e-2,
          6.71216841e-2,
          1.22409518e-1,
          1.5110856e-1,
          2.23135705e-2,
          4.75437459e-2,
          -7.27128447e-3,
          1.05394827e-2,
          1.53688561e-2,
          9.87328101e-2,
          -3.50757204e-2,
          -7.23064549e-2,
          5.53622566e-2,
          1.06016487e-1,
          3.89177694e-2,
          -2.00111562e-2,
          6.20673462e-2,
          -7.88241245e-2,
          4.37157939e-3,
          9.67710165e-2,
          3.66010826e-2,
          7.49081951e-2,
          6.33179302e-2,
          6.44483879e-2,
          2.026954e-2,
          3.19149634e-2,
          5.82668685e-2,
          7.39963269e-2,
          4.3048468e-2,
          6.78227972e-2,
          1.34529974e-1,
          7.02802284e-2,
          5.11474619e-2,
          1.09589757e-1,
          5.07409005e-2,
          2.75548345e-2,
          3.94605062e-2,
          6.92536893e-2,
          -8.54827969e-4,
          -2.00580624e-2,
          4.5250652e-2,
          5.50100873e-2,
          4.82349227e-2,
          -1.88434484e-2,
          -1.21905552e-2,
          -4.89786626e-2,
          5.83943736e-2,
          2.51612421e-2,
          2.05998675e-2,
          6.68850926e-2,
          2.23083325e-2,
          3.93193938e-2,
          2.7028252e-2,
          3.92296496e-2,
          4.95550298e-2,
          7.63353157e-3,
          -7.68281085e-2,
          9.04593156e-3,
          1.36455025e-1,
          -5.02531342e-4,
          2.64745836e-2,
          7.7355577e-2,
          8.24459424e-2,
          5.53216636e-2,
          3.91272706e-2,
          -3.15275336e-2,
          -9.6591259e-2,
          -1.4799371e-2,
          1.53188374e-2,
          6.43349559e-2,
          4.94466715e-2,
          -3.8667357e-3,
          1.05454735e-3,
          -3.42306232e-2,
          2.74130496e-2,
          6.67274912e-3,
          3.06419775e-2,
          -8.40340891e-4,
          -7.74327295e-2,
          -1.39093572e-2,
          2.52061696e-2,
          5.76353078e-2,
          3.895424e-2,
          2.88233208e-2,
          -4.13691085e-2,
          2.06147788e-3,
          9.59493686e-3,
          -6.267265e-2,
          -1.02105052e-2,
          -2.35084277e-2,
          -1.20414592e-2,
          -7.54388364e-2,
          1.23835798e-2,
          -6.5754177e-2,
          -4.22447541e-2,
          -1.67394607e-2,
          -6.25731992e-2,
          -3.88874815e-2,
          -4.30676072e-2,
          2.00643818e-2,
          -1.64223194e-2,
          -6.9239514e-2,
          -7.46130004e-2,
          -6.40463522e-2,
          6.83088649e-4,
          -3.3191701e-2,
          -8.24547674e-2,
          -7.91931582e-2,
          3.37561746e-2,
          6.50946224e-2,
          6.98626972e-2,
          4.17813612e-2,
          -5.40934012e-2,
          7.32538303e-3,
          -1.87094615e-2,
          -1.00688007e-1,
          -5.510617e-2,
          -8.05202928e-2,
          -2.4068593e-2,
          -5.28900883e-2,
          2.25622504e-2,
          -9.01768783e-3,
          -7.74015907e-2,
          -3.99255485e-2,
          -8.67217131e-2,
          -3.96003646e-2,
          -2.75450979e-2,
          7.55308278e-3,
          -1.2396375e-2,
          -5.57030135e-2,
          -5.55854057e-2,
          -5.08136714e-2,
          -8.63244925e-3,
          2.99586545e-3,
          -7.98710446e-2,
          -2.94753144e-2,
          2.90154916e-2,
          5.9758129e-2,
          5.41471521e-2,
          -3.12583553e-2,
          -7.1679032e-2,
          -4.42337148e-2,
          -4.91729992e-2,
          -1.9504275e-2,
          -4.796673e-2,
          -1.0845933e-1,
          5.97021915e-3,
          -6.29917413e-2,
          -3.2808699e-3,
          -1.75516333e-2,
          -4.26331507e-2,
          -4.65903675e-2,
          -9.45267664e-2,
          -6.42656232e-2,
          -3.36901045e-3,
          -2.63575866e-2,
          -5.56295389e-2,
          -9.60580445e-2,
          -4.1309727e-2,
          -6.33312785e-2,
          -5.82223513e-2,
          -6.49231847e-2,
          -8.79444453e-2,
          -1.8784181e-2,
          1.3111051e-2,
          3.95278011e-2,
          1.55676865e-2,
          -7.78614568e-2,
          -7.89778445e-2,
          -3.92811546e-2,
          -4.2563907e-2,
          -8.9074116e-3,
          -9.835096e-2,
          -1.34027854e-1,
          1.0748662e-2,
          -1.1531794e-3,
          2.92710199e-2,
          -3.86068821e-2,
          -4.04006513e-2,
          -7.51453985e-2,
          -5.16332882e-2,
          -9.84059726e-2,
          -4.87547696e-2,
          -7.63846507e-2,
          -1.0142527e-1,
          -1.30545807e-1,
          -9.89332436e-2,
          -5.4715766e-2,
          -7.38544063e-2,
          -9.39712148e-2,
          -1.16976401e-1,
          -6.11741458e-2,
          3.98590875e-2,
          1.99623022e-2,
          1.61486982e-2,
          -5.20515816e-2,
          -8.67155808e-2,
          -3.65433971e-2,
          3.74724132e-2,
          2.20957039e-3,
          -6.47023801e-2,
          -1.31879582e-1,
          -2.72233441e-2,
          6.56751824e-2,
          4.5750283e-2,
          -1.91037295e-2,
          1.03530034e-2,
          -1.33815111e-2,
          2.01894398e-5,
          -1.28078327e-2,
          4.32230851e-3,
          -6.038029e-2,
          -7.43306443e-2,
          -8.54858227e-2,
          -1.23085125e-1,
          -9.03812646e-2,
          -7.79860673e-2,
          -6.71623391e-2,
          -8.74853426e-2,
          -1.75226847e-2,
          5.341811e-2,
          -7.17265414e-4,
          -3.00498743e-2,
          -1.06106419e-2,
          -5.50282668e-2,
          -7.01196237e-4,
          6.09574627e-2,
          2.89159088e-2,
          -4.66946987e-2,
          -1.02935449e-1,
          2.94134171e-2,
          4.25234341e-2,
          4.5558565e-2,
          1.15431615e-2,
          4.67914596e-2,
          3.79937515e-3,
          -3.06765243e-2,
          -7.07547629e-2,
          8.84261062e-3,
          -8.08429777e-3,
          -9.54978432e-2,
          -1.21232979e-1,
          -3.85507197e-2,
          -3.60982887e-2,
          -2.31760947e-2,
          -1.9964718e-2,
          -7.10402502e-2,
          -3.33340273e-2,
          5.05012149e-2,
          -1.25736379e-2,
          -3.13162553e-2,
          -4.83455496e-2,
          -5.48363216e-2,
          1.0954804e-2,
          3.15355678e-2,
          6.7539981e-2,
          -5.33348819e-2,
          -6.55918994e-2,
          3.8549377e-2,
          1.92779285e-2,
          -4.02332915e-2,
          -6.41844153e-3,
          -2.13637695e-2,
          8.54520606e-3,
          -1.87820329e-2,
          -3.44349351e-2,
          1.46678986e-2,
          -1.9535653e-2,
          -1.04527327e-1,
          -1.01689451e-1,
          4.09416004e-3,
          -4.51239082e-2,
          -2.06076329e-2,
          -1.00246068e-3,
          -4.16821867e-2,
          -3.71730253e-2,
          1.25850339e-2,
          -2.41167102e-2,
          -2.36159544e-2,
          -6.18009965e-2,
          -6.05295798e-3,
          -1.03727647e-2,
          7.25076484e-3,
          2.89663067e-2,
          -5.96255508e-2,
          3.43367453e-2,
          8.37311271e-2,
          2.90757746e-2,
          3.1583954e-2,
          -3.20868561e-2,
          3.08267698e-2,
          -1.14474894e-2,
          -7.80711479e-2,
          -3.52757545e-2,
          1.04840729e-2,
          -4.06551828e-2,
          -6.26763306e-2,
          -4.45283627e-2,
          -2.1975939e-2,
          -1.09030101e-1,
          -2.87425954e-2,
          1.08555084e-2,
          4.80508437e-3,
          -5.68535704e-2,
          -3.82744619e-2,
          -2.09681546e-2,
          -2.93329922e-2,
          -3.92662864e-2,
          1.16020215e-2,
          1.1147305e-3,
          9.51194243e-2,
          6.62978723e-3,
          -9.39319864e-2,
          1.0396062e-1,
          1.09506771e-1,
          3.28723867e-2,
          2.13345484e-3,
          -3.23681888e-2,
          -3.09379117e-2,
          -2.77841545e-2,
          -1.31656647e-2,
          -6.64540567e-2,
          -5.0691027e-2,
          -6.50190164e-3,
          -4.76430442e-2,
          -3.74812584e-2,
          -6.82058153e-2,
          -8.1343706e-2,
          -1.74653593e-2,
          2.03219872e-3,
          9.00153312e-3,
          -6.41091969e-2,
          -4.90138197e-2,
          -1.43096766e-3,
          -2.19329606e-2,
          -1.23130041e-2,
          -1.16051885e-2,
          9.67515998e-3,
          4.92736164e-2,
          -6.34198406e-2,
          -4.55084386e-2,
          9.13204312e-2,
          1.00881069e-1,
          6.20798905e-2,
          4.54041816e-2,
          3.65126327e-2,
          1.23326385e-2,
          9.66370313e-3,
          1.73064958e-3,
          -2.03939216e-2,
          -3.31195797e-2,
          -3.3628813e-2,
          -2.23548891e-3,
          -9.88231809e-3,
          -6.88284568e-2,
          -3.83122174e-2,
          -4.20332101e-3,
          1.71709481e-2,
          2.70122739e-3,
          6.22416561e-3,
          -2.38759641e-2,
          -1.23186509e-2,
          1.12692421e-2,
          -3.98213275e-2,
          -6.37683355e-2,
          -2.30008762e-2,
          3.03805656e-2,
          -5.13385993e-2,
          -5.09150804e-2,
          1.31344464e-1,
          9.65117318e-2,
          6.91579444e-2,
          3.5408877e-2,
          5.10121983e-2,
          6.5301376e-2,
          -1.06873313e-2,
          -3.2344674e-2,
          -5.7616881e-2,
          -3.06599637e-2,
          -1.28521134e-2,
          7.07732245e-3,
          1.36353526e-2,
          -5.66086655e-2,
          -6.08956583e-2,
          -6.81690259e-3,
          -1.02927629e-2,
          2.1210669e-2,
          1.25169476e-2,
          5.08912837e-3,
          2.37708673e-3,
          -4.01530135e-3,
          -5.37796417e-2,
          -1.18048599e-1,
          -9.06702251e-2,
          -9.59275099e-3,
          -7.86361394e-2,
          -1.03658065e-1,
          7.10437647e-2,
          4.08282113e-2,
          8.97111016e-3,
          7.61985217e-2,
          4.08209791e-2,
          -1.42209337e-2,
          3.04564002e-2,
          -3.07028508e-2,
          -3.73072221e-2,
          -2.99721826e-2,
          2.36999049e-2,
          3.38935764e-2,
          1.75236124e-2,
          -6.86908757e-2,
          -9.08097626e-2,
          -7.52022518e-2,
          -9.0070784e-2,
          -7.39361446e-2,
          -9.19364034e-3,
          1.56928943e-2,
          1.82558746e-2,
          -9.62746372e-3,
          -4.73687947e-2,
          -9.07960052e-2,
          -7.74566373e-2,
          3.19474583e-2,
          -4.55443619e-2,
          -5.39048167e-2,
          2.43063638e-2,
          3.38306806e-2,
          3.86268501e-2,
          7.5931732e-2,
          3.07266932e-2,
          -1.77079349e-2,
          2.03497261e-2,
          -2.48599051e-2,
          -8.60380308e-3,
          6.97879183e-2,
          4.17659793e-2,
          -1.37445907e-2,
          6.11030018e-3,
          -3.22768343e-2,
          -5.67381127e-2,
          -5.96679773e-2,
          -9.14810028e-2,
          -8.51840305e-2,
          -3.23925715e-2,
          4.95311192e-4,
          1.07895206e-2,
          -6.75073474e-3,
          -5.82508294e-2,
          -1.03906732e-1,
          -8.96662072e-2,
          1.23803651e-2,
          -5.14591345e-3,
          -9.27917727e-2,
          2.36189952e-2,
          2.84205375e-2,
          -1.90151072e-2,
          -2.0882258e-2,
          -6.82592626e-2,
          -8.49480541e-2,
          -4.7630129e-2,
          -5.10938947e-2,
          -3.44670274e-2,
          -4.19601816e-3,
          -4.76650562e-2,
          5.41870679e-3,
          5.93880719e-2,
          -8.55863376e-3,
          -2.28299638e-2,
          -9.17660135e-2,
          -1.15246657e-1,
          -7.35088581e-2,
          -2.05058637e-2,
          1.03644797e-2,
          1.18508523e-2,
          -4.1563779e-3,
          -5.51306922e-2,
          -1.09305775e-1,
          -6.62744942e-2,
          8.18516528e-3,
          -4.44452577e-2,
          -1.03673239e-1,
          -2.06300791e-2,
          -3.41836434e-2,
          -5.96916814e-2,
          7.729097e-3,
          -3.15136983e-2,
          -7.69824703e-2,
          -1.78862724e-2,
          -6.31547576e-3,
          1.58035345e-2,
          -2.67771228e-2,
          -8.43068212e-3,
          4.41089953e-2,
          5.34130037e-2,
          -6.68524906e-2,
          -5.18870819e-2,
          -7.58766606e-2,
          -9.26109138e-2,
          -5.58869505e-2,
          -1.21934528e-2,
          1.00523039e-2,
          3.30650682e-2,
          1.01045269e-2,
          -3.94402491e-2,
          -8.82288845e-2,
          -5.34161744e-2,
          5.13452186e-2,
          -5.88794585e-2,
          -2.94885379e-2,
          1.1496242e-1,
          6.7787018e-3,
          -7.20376115e-2,
          -2.25244623e-2,
          -5.66940108e-2,
          -3.16902092e-2,
          3.07581903e-2,
          -5.18310788e-2,
          -9.97552075e-3,
          -2.05564354e-2,
          -3.32426462e-2,
          2.1974413e-2,
          6.89548205e-2,
          -6.03210211e-2,
          -3.24461175e-2,
          -7.26600556e-2,
          -1.1953628e-1,
          -5.79962522e-2,
          -1.7956576e-2,
          2.52421209e-2,
          1.34113762e-2,
          -9.7856672e-4,
          -1.39339171e-2,
          -3.08835956e-2,
          -9.46160379e-3,
          1.73407822e-2,
          6.52875973e-2,
          1.15101591e-1,
          1.39281705e-1,
          5.59566958e-2,
          -5.54133552e-2,
          -3.11972787e-2,
          -5.40244685e-2,
          8.366262e-2,
          1.28858475e-1,
          -7.46763205e-2,
          1.34819881e-2,
          -3.9961354e-2,
          -1.64993081e-2,
          1.32790986e-1,
          2.32271273e-1,
          1.05355932e-1,
          4.43980686e-2,
          -3.22166281e-2,
          -5.35855129e-2,
          -2.03136507e-2,
          -1.00967327e-2,
          1.11642206e-2
        ],
        [
          2.12059299e-3,
          1.46336172e-2,
          2.83370341e-2,
          1.30528644e-2,
          -7.82786906e-3,
          -3.99774838e-3,
          -3.57777063e-2,
          -4.23256455e-2,
          -3.01249226e-2,
          -7.33829933e-2,
          6.73123315e-2,
          1.23985345e-1,
          3.48104895e-2,
          7.39666072e-2,
          1.32574422e-2,
