{"layers":[{"size":32,"weights":[[ 6.74064789e-03, 1.89885352e-02, 1.09818763e-03, 6.78071319e-03,
   2.55312099e-02, 1.66430246e-02, 6.26731716e-03, 1.49387564e-02,
  -2.62059368e-02,-2.58617533e-02,-5.84427781e-02,-1.88444695e-02,
   7.75863557e-02, 1.01458524e-01, 6.94400500e-02, 1.07051650e-01,
   2.77803979e-02,-2.00351034e-02,-5.99474977e-02,-1.00664699e-01,
  -5.83815406e-02, 5.17193188e-03, 2.87535596e-02, 3.38898960e-02,
   6.64424305e-03,-2.04577878e-03, 2.40460550e-02, 1.95271308e-02,
   2.74312450e-02, 8.06423035e-03, 1.85811578e-02, 1.30635220e-02,
   9.72212509e-03, 3.28703915e-02, 3.54677171e-02, 3.34322859e-03,
   9.17215519e-03,-7.64350793e-03,-1.20121487e-03, 6.27742018e-02,
   9.58147944e-02, 8.19408969e-02, 1.10997423e-01, 1.04423156e-01,
   5.93851751e-03,-1.35849612e-02,-6.00234761e-02,-9.03920753e-02,
  -6.23435131e-02,-8.31445420e-03, 4.59641047e-03, 9.41462898e-03,
   1.75793852e-03, 1.31592948e-02, 8.35762179e-03, 1.94536129e-02,
   1.56590997e-02, 1.73901305e-02, 2.86947096e-02, 2.04962541e-02,
   1.35457933e-02, 2.36665880e-02, 3.20637888e-04,-3.55339582e-02,
   3.44811282e-02, 4.54114828e-02, 1.44794001e-02, 1.19031502e-02,
   1.56899567e-02, 6.80790228e-02, 5.97385939e-02, 3.06370965e-02,
  -1.69022541e-02,-3.77633872e-02, 2.61259500e-03, 2.03020354e-02,
  -7.58241031e-02,-6.82046436e-02,-3.16725448e-02,-2.12853633e-02,
  -2.54153469e-02,-1.44388745e-03, 1.39187327e-02, 3.59865177e-03,
   5.80359080e-03, 2.38727134e-02, 6.39241745e-03, 1.58925002e-02,
  -7.33718120e-03, 1.67487541e-02,-1.48370321e-02, 5.09169136e-02,
   4.21751466e-02, 1.89976777e-02,-4.52269292e-02, 1.52535783e-02,
   7.95605701e-03, 7.64445005e-02, 9.84410911e-02, 3.23278445e-02,
  -2.05050617e-02,-6.09131840e-02,-2.71613406e-02,-4.30685189e-03,
   2.97362235e-02,-4.29095940e-02,-3.57894025e-02,-4.34317520e-02,
  -3.43542880e-02, 1.13569543e-02, 2.64827476e-02, 1.35023679e-02,
   1.67988891e-02, 1.66416320e-02, 4.50937266e-03, 1.47644318e-02,
  -1.35358134e-02, 8.90605535e-03, 1.02323028e-03, 4.33720960e-02,
   3.00256898e-02,-1.31085452e-02, 2.31794907e-02, 3.80524923e-02,
   2.83583249e-02, 2.71544128e-02, 9.06130923e-02, 2.45941054e-02,
   1.79971090e-02,-7.27515165e-02,-7.34979834e-02,-9.66432751e-03,
  -2.54471685e-03,-3.87748248e-02,-2.18585541e-02,-5.93563799e-02,
  -3.90569865e-02, 1.57775563e-02, 3.63890434e-02, 2.02936335e-03,
   2.53918565e-02, 2.12740919e-02, 2.03830185e-02,-3.21490332e-03,
  -4.21166785e-02,-2.37058270e-02,-4.23207035e-02, 3.52043211e-02,
   3.24263985e-02, 1.99644226e-02, 5.69540701e-02,-4.89766054e-03,
  -1.86532337e-02, 2.03011872e-02, 1.46198672e-02,-3.17260343e-02,
  -1.40089707e-02,-5.91142457e-02,-4.94599449e-02,-2.30493854e-02,
  -2.94202096e-02,-3.02940778e-02,-2.11296786e-02,-7.43364343e-02,
  -5.74777534e-02,-1.65530488e-02, 3.51646226e-02, 4.54554625e-04,
  -6.56325213e-04, 1.97023441e-02, 5.92147878e-03,-1.94974172e-04,
   1.51388675e-02,-2.53324648e-02,-2.74489429e-02, 5.47895331e-02,
  -3.31420804e-03, 6.73531424e-02, 4.20804946e-02, 2.83071224e-02,
   1.73148967e-02, 2.50085472e-02, 7.92882428e-02,-5.77405261e-02,
  -4.04210959e-02,-1.86799310e-02,-4.05568518e-02, 4.76741060e-03,
   2.42497152e-02, 1.94856513e-02,-5.82896462e-02,-7.18181188e-02,
  -3.94433953e-02,-2.85044851e-02, 1.55574227e-04, 1.46127661e-02,
  -1.91898165e-03, 7.27740277e-03, 3.07091081e-03,-2.10031303e-02,
  -1.86026268e-02,-2.03408294e-02,-1.26728552e-02, 1.57939081e-02,
  -1.34781859e-02, 5.72758437e-02, 4.51053294e-02, 5.24102850e-02,
  -3.42531975e-04,-2.29493739e-03, 5.10997592e-02,-1.61710688e-02,
  -3.98360388e-02,-6.79143913e-02,-3.09415914e-02,-1.54028753e-02,
  -1.60593927e-02, 9.71329582e-03,-5.21547110e-02,-3.64136714e-02,
  -1.75242103e-02,-3.73123726e-02,-1.38558341e-02, 2.00452111e-03,
   1.60303710e-02,-3.76151784e-03,-1.01522502e-02,-7.41966100e-03,
  -2.80057140e-02, 5.32892397e-05, 4.61247542e-03, 2.30007895e-02,
  -1.53327496e-02, 7.57568397e-02, 1.48668894e-02, 1.65921748e-02,
  -2.72910288e-02, 2.17825471e-02, 3.79156636e-02,-2.55759760e-02,
  -3.57197188e-02,-9.41269638e-02,-2.97213241e-02,-2.70829890e-02,
  -1.15753576e-03,-1.35450894e-03,-6.13950180e-02,-2.87766156e-02,
  -5.35989298e-02,-2.65418991e-02,-1.65301463e-04, 7.79666016e-03,
   1.80524509e-02, 1.57319659e-02,-1.14639704e-02,-2.05588760e-02,
  -1.36302383e-02,-1.86861687e-02, 4.57514092e-03, 3.13557159e-02,
   9.13094523e-03, 5.51183902e-02,-1.52065467e-02,-1.88261249e-02,
  -5.64196619e-02,-1.17194752e-02, 5.32332897e-02,-2.56958739e-02,
  -2.78149500e-02,-7.99850041e-02,-3.06649345e-02, 2.29316399e-02,
   1.86088629e-02,-4.48372064e-02,-6.99723380e-02,-2.49644340e-02,
  -1.82098342e-02,-3.32864196e-05, 2.55528810e-03, 1.51713135e-02,
   9.92314852e-03, 1.74664379e-02, 1.10056881e-02, 2.57589139e-02,
   1.49208549e-03,-3.11625577e-02, 4.42979091e-02, 2.64544700e-02,
   5.49555134e-02, 2.46884365e-02,-2.70734524e-02,-1.49687870e-02,
  -1.27842235e-02, 1.47800932e-02, 6.07952534e-02,-1.66313636e-02,
  -3.45548266e-02,-4.51769130e-02,-3.34391633e-02, 3.16852750e-02,
   2.12041177e-02,-4.36867133e-02,-6.00758502e-02,-3.67354278e-02,
  -1.04380991e-02, 3.71135094e-02, 2.44685280e-02, 2.58344698e-02,
   3.17793228e-02, 2.10785305e-02,-2.59694434e-02,-7.02373338e-03,
  -9.01910198e-03,-1.43256892e-03, 7.04308554e-02, 1.75635425e-02,
   3.79482689e-02, 3.97793981e-02, 1.90932595e-03, 3.82665319e-03,
  -8.24943216e-03, 1.06117550e-02, 4.04821655e-04,-9.34556149e-03,
  -3.67832875e-02,-3.91527041e-02,-3.77263407e-02, 4.14964571e-02,
   2.99380369e-02, 4.35945365e-03,-2.38197638e-02,-2.72096646e-02,
  -3.91697976e-03,-8.44108493e-04, 5.01354838e-02, 2.02728341e-02,
   7.01629429e-03, 2.58114432e-02,-5.62248837e-03, 1.05791970e-05,
  -4.09574385e-03, 4.36665253e-02, 4.26442436e-02, 1.80271059e-02,
   4.12291596e-02, 2.65256364e-02, 4.70008879e-03,-2.74353016e-02,
  -4.75014320e-02,-3.66001634e-03,-1.50737483e-02,-1.76734712e-02,
  -8.05529901e-02,-3.09313939e-02,-3.80470556e-02, 3.23788691e-02,
   6.02672883e-02, 8.28405944e-03, 3.15856240e-02,-3.39042325e-02,
  -2.42363634e-02, 1.03366218e-02, 4.26265003e-02, 3.12940961e-02,
   1.38677147e-02, 1.32787740e-02,-8.85544690e-03, 3.56785661e-03,
  -2.03406884e-03, 2.70645641e-02, 2.36187361e-02, 2.58891096e-02,
   7.15977531e-02, 4.02447280e-02,-1.50619531e-03,-3.92077281e-02,
  -3.77893167e-02, 6.66571600e-03, 1.34768513e-02,-1.83065970e-02,
  -6.30020828e-02,-3.91158545e-02,-2.09627464e-02,-1.65808948e-03,
   5.07974755e-02, 6.03854995e-03, 3.56248287e-02,-2.86050174e-02,
  -3.29322929e-02, 1.24307694e-03, 3.49731183e-02, 4.45575150e-02,
   3.56321121e-03, 8.32490082e-03, 6.29109490e-03, 1.75717208e-02,
   1.40459235e-03, 2.44318411e-02, 2.01438413e-02, 3.16060510e-02,
   1.50807302e-02,-3.39527560e-03,-1.14716952e-02,-1.43456044e-02,
  -2.19426027e-02, 2.25754528e-02, 6.67240891e-03,-5.38901651e-02,
  -7.35015105e-02,-3.23217667e-02,-2.97567821e-02,-1.81318319e-03,
   1.89247337e-02,-4.08491290e-02,-1.24951265e-02,-1.46658850e-02,
  -3.66467113e-03, 1.62046563e-02, 3.46701717e-02, 4.45571978e-02,
   4.56788138e-02, 1.96632846e-02,-2.51854944e-03, 4.00989726e-02,
   3.31665958e-02, 3.90102161e-02, 2.60352279e-02, 4.96796880e-02,
  -4.15651894e-03, 8.34177453e-03,-6.51261219e-02,-3.90253926e-02,
  -5.99574436e-02,-1.78641546e-02, 1.90002499e-02,-5.59144593e-02,
  -8.38676671e-02,-4.51054952e-02,-1.78166864e-02,-1.12701231e-02,
   1.60119175e-02,-4.85713770e-03, 2.37691543e-02, 3.51900406e-02,
   8.22290491e-04, 2.00724240e-02, 1.15154940e-02, 3.65227800e-02,
   2.52122903e-02, 2.45740235e-03,-6.67178407e-03, 1.09230463e-02,
  -2.10190949e-03, 1.25646601e-02,-2.88948774e-03, 2.49972055e-02,
   4.76365622e-03, 3.81549294e-02,-3.37643925e-02,-5.37300335e-02,
  -6.49167729e-02,-6.14145866e-04, 1.47860216e-02,-2.74985184e-02,
  -4.65799405e-02,-1.51385726e-02,-1.90759480e-02, 1.09143647e-02,
   1.66317106e-02, 8.18508724e-03, 2.83352483e-02, 5.25033111e-02,
   3.35487097e-03,-1.03575091e-02, 7.09070250e-04, 3.21930563e-02,
   3.22629580e-02,-2.56026060e-03,-1.09881624e-02, 7.53466429e-04,
   1.23014994e-02, 1.68971385e-02, 1.02003136e-02, 5.40032310e-02,
  -2.02062538e-03, 2.14909212e-02, 7.15267057e-04,-3.51872303e-02,
  -2.59847621e-02, 2.88420497e-02, 7.89597361e-03,-4.33350451e-02,
  -4.89388127e-02,-4.50812837e-02,-1.86084106e-02, 1.26323057e-02,
  -1.37537960e-02,-7.00942331e-03, 3.86564043e-03, 1.95245144e-02,
   2.56250929e-02,-1.92809886e-02,-1.72176149e-03, 3.66632418e-02,
   8.29748284e-03,-1.22146079e-02, 2.86200027e-03, 1.61510849e-03,
   8.79082741e-03, 3.49106970e-02, 2.00601810e-02, 3.41444082e-02,
   2.51028004e-04, 3.23515406e-02,-2.83736964e-02,-3.05893559e-02,
   5.18488213e-03, 5.74513831e-02, 2.32060896e-02,-3.80979858e-02,
  -3.04080459e-02,-5.11487629e-02,-3.01392810e-02, 8.61183055e-03,
  -1.25620113e-02,-1.03042354e-02, 2.43771407e-02, 3.00008474e-02,
  -1.12171938e-02,-3.05247021e-02,-6.23878137e-03, 2.21359704e-02,
   8.27049736e-03,-3.23435403e-02,-3.18593210e-02, 2.40941434e-04,
   1.45580595e-02, 1.78912614e-02, 3.67821155e-02, 6.70844970e-02,
   2.06039286e-02,-2.32501872e-02,-3.43521473e-02,-2.96844150e-02,
   2.67789947e-04, 3.23008577e-02, 3.04181454e-02,-1.53166904e-02,
  -1.41507281e-03,-3.13618333e-02,-2.91110110e-02, 6.27533754e-03,
   1.52220674e-02, 1.37945105e-02, 5.25452419e-02, 5.22179233e-02,
  -1.59456212e-02,-1.92668774e-02,-2.38848511e-02, 3.93658114e-02,
  -5.99161998e-04,-3.48461374e-02,-3.44280371e-02,-3.08685725e-02,
   1.02209981e-02, 2.64268879e-02, 5.85657625e-02, 3.95657755e-02,
   1.50009609e-02, 5.06401957e-03,-4.50745026e-02,-2.24667090e-03,
  -3.63610361e-02, 3.33727017e-02, 4.60372294e-02,-2.44952243e-03,
  -2.43778475e-02,-2.89356477e-02,-9.03117327e-03,-2.02844708e-03,
  -5.22459975e-03, 2.80655534e-02, 4.78213354e-02, 1.81637310e-02,
   7.03374983e-03,-2.45103194e-02,-3.69274880e-02, 1.90917426e-02,
   7.70992158e-03,-8.19978905e-03,-5.11998491e-03,-2.06902706e-02,
   1.56574581e-02, 4.24192215e-02, 3.82071810e-02, 3.71234725e-02,
  -2.19522756e-02,-1.38670957e-02,-1.87723798e-02,-2.05335325e-02,
  -5.40306689e-03, 3.10528904e-02, 7.46259661e-02,-1.07439929e-02,
  -1.58869443e-02,-3.73354249e-02,-3.76404742e-02, 1.16170400e-02,
   3.43505946e-02, 2.09575733e-02, 2.47746255e-02, 3.10999160e-02,
   4.18693137e-03,-2.74684413e-02,-2.01287260e-02, 3.09859293e-02,
   1.30080131e-02,-8.43883792e-03, 9.67507127e-03, 4.09755760e-03,
   3.52392597e-02, 5.21199928e-02,-1.18775705e-03, 2.37503558e-02,
  -2.25316642e-02, 1.34449852e-02, 4.29505938e-03,-3.55115907e-03,
   9.63367226e-04, 2.23693998e-02, 6.44925634e-02,-2.26430757e-02,
  -4.12444709e-03, 1.07892640e-02,-8.25233281e-03, 1.55389403e-02,
   6.29673858e-02, 1.74401018e-02, 5.86624619e-02, 5.56293127e-02,
   9.25620322e-03, 9.89315379e-03,-1.25647814e-02, 6.55291471e-03,
   2.39457883e-02,-2.73176449e-02,-5.26230215e-03,-7.65448509e-04,
   2.95037024e-02, 1.38436657e-02,-4.51516791e-02, 7.48957972e-03,
  -1.05418696e-02, 3.33373849e-03, 1.47047281e-02, 8.72408886e-03,
   1.25943204e-02, 6.24174892e-03, 4.00195915e-02, 5.71266833e-03,
   9.71845314e-03, 1.99524826e-03,-1.60324070e-02, 2.29758552e-02,
   4.35525252e-02, 4.89063582e-03, 2.99916775e-02, 3.55299075e-02,
   3.31154572e-02,-8.10231590e-03,-3.10354771e-02, 1.81154904e-02,
   1.48244622e-03,-2.04997309e-02, 1.22789123e-03,-6.83995115e-03,
   3.37112804e-02, 7.43514507e-03,-6.48112989e-02, 1.16079903e-03,
  -3.43336686e-02,-2.08340852e-02, 2.00981555e-02, 2.84997512e-03,
  -9.84989381e-03, 3.52117964e-02, 2.87383956e-02,-1.58911639e-02,
   1.38862654e-02, 4.05929832e-02, 3.83338805e-02,-8.20416102e-04,
   1.23975203e-02,-2.43225887e-02,-9.89672182e-03, 1.07836809e-02,
   9.55227628e-03, 1.44845193e-02,-3.32878489e-02, 3.37663780e-03,
   1.32360878e-03,-1.12150433e-02,-2.21144923e-02, 1.68171727e-02,
   4.79072924e-02, 4.56627796e-03,-2.03841889e-02,-3.32894736e-02,
  -3.13593465e-02,-1.67901145e-02, 1.23560515e-02,-5.00795374e-03,
  -3.61522741e-03, 2.52889262e-02, 4.25924534e-02, 8.93921606e-03,
   4.93927592e-03, 4.44968446e-02, 1.90924188e-02,-1.44345780e-03,
   1.13782497e-02,-9.00590352e-03,-1.55985069e-02, 4.49111520e-02,
   4.38219394e-02, 2.65118331e-02,-3.11725280e-02,-1.36725781e-02,
  -2.49897154e-04, 6.47219088e-03, 9.08855343e-03, 5.35165848e-02,
   6.50540212e-02,-3.01608173e-02,-3.11850215e-02,-6.66264705e-02,
  -6.90510464e-02,-3.55493362e-02, 3.75186483e-02, 5.56076347e-02,
   1.24184656e-02, 3.51976144e-02,-2.15124601e-02, 3.66220396e-03,
   2.51337738e-02, 1.32396465e-02, 4.38373429e-03, 1.40860358e-02,
  -1.40105902e-02,-1.77032886e-02,-2.32353756e-02, 5.92696516e-02,
   5.27374497e-02, 2.77946185e-02,-1.06569745e-02, 1.40391645e-02,
   2.25168954e-02, 1.34260181e-02, 2.51620053e-02, 2.18333691e-02,
   4.62019116e-02, 5.01371626e-02,-5.03129024e-03,-7.00434848e-02,
  -1.27297166e-01,-8.24570193e-02,-2.21667868e-02, 4.12528079e-04,
   3.29295162e-02, 9.01027801e-02, 7.31448764e-02, 4.14176086e-02,
   2.83239512e-02,-1.47602270e-02,-2.77250181e-02,-7.42030921e-02,
  -1.30944190e-01,-6.67212380e-02, 1.12527951e-02, 3.80076926e-02,
   2.70039202e-02, 5.98064827e-03, 3.75743968e-04, 2.56689028e-02],
 [ 2.48450425e-02, 1.94990681e-02, 7.50055982e-03, 1.75358096e-02,
   1.00828055e-02, 6.38834552e-03,-9.24460944e-03, 2.90794831e-02,
   1.11287959e-01, 1.14280053e-01, 5.92205129e-02, 3.03967837e-03,
   1.02063696e-01, 1.03137611e-01, 4.79901961e-02, 5.92981132e-02,
   8.80133741e-03,-6.83227573e-02, 5.64860477e-02, 1.59398464e-01,
   1.03487862e-01, 9.96356047e-04,-8.92309168e-03, 5.23986940e-03,
   6.08068581e-03, 2.39094412e-02, 2.39691190e-02, 1.73261573e-02,
   7.02257359e-03, 4.72305610e-03, 3.66064011e-03,-1.37003699e-03,
  -1.83949814e-03,-3.69376251e-02,-4.61536446e-02, 6.70038668e-02,
  -2.58548745e-02,-1.64757476e-01,-9.33222434e-02, 5.06752744e-02,
   1.01014635e-01, 1.03195870e-01, 9.87617235e-02, 1.48822257e-01,
   1.10243775e-01, 4.14886722e-03,-8.80602407e-02,-4.14013506e-02,
   8.63968172e-02,-5.56685439e-02,-1.44372354e-01,-1.11357899e-01,
  -3.10430565e-02,-1.51592673e-02,-1.11124586e-02, 1.48450547e-02,
   2.58058774e-03, 2.88140094e-02, 1.83743996e-02, 1.22686526e-02,
  -3.17326262e-02,-1.39573361e-02, 3.61945699e-02, 3.13029413e-02,
  -4.65080353e-02,-9.17065218e-02, 4.72703959e-02, 3.36824177e-02,
   9.01872803e-02, 1.01436015e-01, 1.86099843e-01, 1.25054066e-01,
   4.99958738e-02, 2.68912212e-02, 1.77589353e-02,-3.74157162e-03,
   3.64352965e-02, 5.53918310e-03,-3.85545029e-02,-1.49365629e-01,
  -6.09578544e-02,-2.43344944e-02, 1.65575946e-03, 3.66300279e-04,
   1.57876059e-02, 6.15899246e-03, 1.34063013e-02, 3.19470433e-03,
  -1.44505886e-02, 2.59574972e-02,-2.53181538e-02, 3.21413818e-02,
  -8.62832136e-04, 1.52072118e-02,-2.74610307e-02,-6.63637892e-02,
  -3.02475019e-02, 4.74251311e-02, 7.60228146e-02, 4.44587306e-02,
  -1.21675893e-02, 1.71077682e-02,-8.18576506e-03, 4.85359937e-02,
   5.68455801e-02,-3.80249843e-03,-2.10599765e-02,-8.65370604e-02,
  -9.30971736e-02,-8.89828432e-02,-1.30316879e-02, 1.82857450e-02,
  -2.56052226e-03, 2.22849959e-03,-5.92653547e-03,-9.20613842e-03,
   1.00156582e-02,-7.40730744e-03,-2.63594128e-02, 7.56125196e-05,
  -5.32717300e-02,-8.61538572e-03,-4.64662684e-02,-7.46681586e-02,
  -2.09823335e-02, 7.28400620e-02, 1.03411574e-01,-1.90558034e-02,
  -2.69973978e-02,-3.93357060e-02,-4.16987204e-02, 3.92864042e-02,
  -3.48841920e-02,-3.50190038e-02,-8.30843889e-03,-7.14938709e-02,
  -9.01630949e-02,-1.11845293e-01,-4.87759415e-02,-5.92666149e-03,
   2.61487792e-03,-1.83272302e-02,-6.49072091e-03, 3.71963176e-04,
   1.00099267e-02,-3.27885588e-02,-8.44140202e-02,-3.74356970e-02,
  -3.67164104e-02,-5.53024599e-02,-6.02990948e-02,-3.10090422e-02,
  -1.13293831e-01, 1.09694372e-02, 7.61864677e-02,-8.87199060e-02,
  -2.63106256e-02,-5.92230106e-02,-4.38420041e-02, 3.87720972e-02,
  -1.99335791e-02,-4.17145390e-02, 4.97883289e-03,-7.15345325e-02,
  -8.95351304e-02,-8.13758714e-02,-4.26957359e-02, 2.88540332e-03,
  -5.22921133e-03,-5.55042259e-03, 1.63124183e-03, 3.20479890e-03,
  -7.48384863e-03,-1.18820103e-02,-9.83876785e-02, 6.64181294e-03,
   6.01158315e-03,-5.68504928e-02,-7.81091889e-02, 2.01826407e-03,
  -1.00122027e-01,-5.68054071e-03, 1.20430684e-01,-1.04300828e-02,
  -7.09321896e-02,-1.49372264e-02,-5.92921208e-02, 2.73321203e-03,
   3.33156455e-02,-1.90462760e-02,-2.03895891e-02,-1.88593169e-02,
  -8.22316720e-02,-5.76164273e-02,-6.11205525e-02,-3.94085351e-03,
  -1.41519790e-02,-2.63933890e-02,-2.80249931e-05,-9.74116706e-04,
   9.96190513e-03,-4.38248944e-02,-4.12969384e-02, 1.16389388e-01,
   5.72728620e-02,-5.61548125e-02,-5.80921656e-02,-5.35204135e-02,
  -8.68088217e-02, 7.54386638e-03, 1.66016143e-01, 1.86074923e-02,
  -7.30154272e-02,-2.61124418e-02,-3.48804149e-02,-2.55145080e-02,
   4.00678158e-02, 4.97270736e-02, 2.65226743e-03, 3.53394175e-02,
   1.12814187e-03,-2.62882182e-02,-2.87667585e-02,-2.67402727e-02,
  -5.34818429e-03,-2.67261378e-02,-3.52294752e-02, 3.43369153e-02,
   4.96669874e-02,-3.84205332e-02,-5.86741475e-02, 1.61638135e-01,
   5.44479169e-02, 1.70967528e-02, 4.19155171e-02,-3.41952250e-02,
  -7.22092906e-02, 4.52981240e-02, 3.58325898e-02,-4.73721429e-03,
  -9.49472722e-02,-6.85625190e-02,-1.88627350e-02,-2.01496097e-02,
  -1.05195589e-03,-3.48703050e-02,-5.34694675e-02, 1.77439340e-02,
  -5.57650290e-03,-1.98100954e-02,-4.60527655e-02,-2.00624996e-02,
  -5.11400540e-02,-1.17115187e-02,-2.63609610e-03, 3.43620438e-03,
   1.60439322e-02,-7.18287190e-02,-5.42843166e-02, 8.83012641e-02,
   5.41900989e-02, 1.15500312e-01, 6.53237427e-02,-5.40707824e-02,
  -4.02299767e-02, 5.74138836e-02, 2.65360546e-02, 3.21799476e-02,
  -9.63092374e-02,-4.43735006e-02, 1.71164744e-02, 3.28246644e-02,
   7.06312452e-03,-1.04391596e-01,-8.39168958e-02,-1.36789025e-03,
  -3.50858198e-02,-3.41278122e-02,-5.95222309e-02,-5.40974411e-02,
  -3.71331189e-02,-8.93625734e-03, 4.24088742e-02, 4.15542801e-02,
   1.68845800e-02,-2.92374388e-02,-6.09194092e-02, 5.46118639e-02,
   8.45683680e-02, 6.16602962e-02,-7.69214374e-02,-9.79111196e-02,
  -3.26250126e-02, 1.05319468e-01, 5.08482842e-02, 3.48399598e-02,
   3.82200368e-02, 3.13710180e-02, 3.89743677e-02, 8.46445373e-02,
   1.13810984e-01,-7.43549530e-02,-2.58231708e-02, 5.27803134e-02,
   5.58046357e-02, 1.26519649e-02,-4.76643911e-02,-1.94214764e-02,
  -3.22648800e-02,-3.30852862e-02, 5.52143090e-02, 2.72396166e-02,
  -1.27704924e-02, 1.64173313e-02, 7.80652356e-03, 4.32508690e-02,
   7.63408988e-02, 4.26360629e-02,-1.42719745e-01,-1.31241997e-01,
  -5.33289009e-02, 6.05901081e-02, 3.55700489e-02, 1.12489329e-01,
   9.35311397e-02, 9.39480013e-02, 1.06399391e-01, 7.10894889e-02,
   5.18521444e-02, 3.64782497e-04, 2.81364918e-02, 3.04148699e-02,
   1.25666007e-02,-2.63108898e-02,-4.67761296e-02,-2.71584974e-02,
  -2.35015041e-02,-1.50641933e-02,-8.73797002e-03,-4.70746813e-03,
   3.49254200e-03,-8.48444709e-03,-7.21618714e-04, 1.66643479e-02,
   9.43692971e-02, 4.88283929e-02,-9.64789288e-02,-1.35735854e-01,
  -1.01303463e-01,-3.34202568e-03, 5.76105776e-03, 1.18019214e-01,
   1.06595266e-01, 8.97001776e-02, 7.54154974e-02, 1.31653201e-01,
   5.62204483e-02,-2.62270095e-02,-9.31362514e-03,-4.18932625e-02,
  -2.52369255e-02,-6.98335857e-03,-5.24721056e-02,-4.90647400e-02,
  -5.25670408e-02,-4.08523261e-02, 1.65339019e-02,-1.23554076e-02,
  -4.00047135e-02, 3.42170773e-02,-1.32529359e-02,-7.82790308e-02,
   9.98897129e-02, 4.77505975e-02,-4.81984123e-02,-8.90351770e-02,
  -6.24125793e-02,-3.52484251e-02, 6.25166275e-03, 8.68597261e-02,
   1.17470050e-01, 1.03146554e-01, 6.61539031e-02, 1.09331353e-01,
   6.75333782e-02,-4.55084980e-02,-6.30332218e-02,-2.98044254e-02,
  -4.82988336e-02,-5.06824429e-02,-6.79920671e-02,-7.84967883e-02,
  -4.91060750e-02,-3.94305229e-02,-4.06829727e-03,-2.81761247e-02,
  -2.52138527e-02,-4.16941828e-03,-4.33705137e-02, 1.45771097e-02,
   3.12300749e-02, 2.35152835e-02,-5.20550217e-02,-1.05581559e-01,
  -8.41898411e-02,-6.40059598e-02,-3.53722466e-03, 8.46919648e-02,
   5.36478275e-02, 4.78431827e-02, 3.98195043e-02, 5.17463592e-02,
   3.57996042e-02,-6.67701956e-02,-7.60092550e-02,-2.22967741e-02,
  -7.38052547e-02,-1.12629409e-01,-5.51887131e-02,-9.18466597e-02,
  -2.82854069e-02,-1.22578585e-03, 2.20949472e-02,-1.02708893e-02,
   1.82786815e-02, 4.01108287e-04,-5.42921922e-02, 1.62936860e-02,
   2.06209436e-02, 9.74385044e-03,-4.85867407e-02,-8.85469771e-02,
  -9.11697906e-02,-9.54994705e-02,-4.96985451e-02, 2.91695721e-02,
   4.94559253e-02, 4.93074018e-02, 7.10923224e-02, 9.18733521e-02,
   6.18859412e-02,-6.47489294e-03,-6.45642946e-02,-5.87243978e-02,
  -8.73810280e-02,-1.21074888e-01,-4.22634024e-02,-5.02047109e-02,
  -7.49787437e-02,-2.74585713e-02,-4.02365762e-02,-1.63610482e-02,
  -3.12033264e-02,-3.67691354e-02,-2.37004262e-03, 4.36891182e-02,
   2.70912399e-02,-2.63131543e-02,-5.96509415e-02,-1.93875909e-02,
  -3.60336291e-02,-8.73980174e-02,-7.02499845e-02, 2.03094332e-02,
   2.55040193e-02, 4.09255547e-02, 7.55454877e-02, 4.77736523e-02,
   8.52785232e-02,-1.97578261e-02,-2.21292946e-02,-6.53355615e-02,
  -5.59629726e-02,-2.99162425e-02, 1.54762133e-03,-3.84643252e-02,
  -5.67917173e-02, 4.71394124e-03, 9.97732514e-05, 1.46708521e-02,
  -1.88523830e-02,-5.42126815e-02, 7.39305677e-03, 2.45762791e-02,
   1.40328675e-02, 3.30949596e-02,-7.84446203e-03, 2.25227549e-02,
  -3.24142179e-02,-3.69090056e-02,-6.94444997e-02, 2.48053859e-02,
   5.47049327e-02, 3.56786138e-02, 5.79717387e-02, 5.03658865e-02,
   4.27383095e-02,-2.83453965e-02,-9.98440483e-03,-1.66015741e-02,
   3.88440881e-02, 4.19607432e-03, 6.05465087e-02, 3.48178934e-02,
  -2.48359986e-02,-2.47307015e-02,-3.65230347e-02, 1.94971639e-02,
   1.80423038e-02,-9.24738996e-03, 6.07504398e-03, 1.06964304e-02,
   1.42750701e-02, 3.85766668e-02, 6.79130607e-03,-6.06161492e-03,
  -3.35152801e-02,-8.57980448e-02,-1.68274523e-01,-2.79595021e-02,
   2.46146379e-02, 7.03158490e-02, 1.76756455e-02, 1.55364899e-02,
  -1.28773301e-02,-5.39974153e-02, 1.63476674e-03,-2.75118816e-02,
   6.17232944e-02,-1.35340487e-02, 9.63048018e-03, 1.82242801e-03,
  -2.24600308e-02,-2.44175163e-02,-7.73805545e-03,-1.28034579e-02,
  -3.10841002e-02,-1.43104762e-02,-2.15956398e-03,-1.32056676e-02,
   1.64608046e-02, 4.67591726e-02, 4.78573773e-02, 1.16239654e-02,
   3.25049227e-02,-4.78326325e-02,-1.37796573e-01,-3.28046253e-02,
   2.27419088e-02, 2.00862966e-02, 7.30692218e-03,-5.31732107e-02,
  -4.47436991e-02, 3.17185412e-03,-2.96156660e-02,-5.34079432e-02,
   1.15356980e-03, 1.17977632e-02,-6.73949884e-04,-7.41989526e-02,
  -2.30776131e-02,-3.22881644e-02,-5.45834197e-02,-2.77207198e-02,
  -5.48925819e-02,-9.71015889e-02, 2.04141704e-02, 3.20380275e-02,
   8.49876465e-03,-1.32232407e-02, 2.43799701e-02, 3.23279619e-02,
   5.17963376e-02, 4.20898870e-02,-5.44131996e-02, 4.70443939e-02,
   6.08892039e-03, 1.18648003e-02,-2.72191432e-02,-2.39643443e-02,
  -5.71449513e-03, 5.62320965e-03,-4.77220423e-02,-4.42084748e-02,
  -4.21589993e-02,-1.31289660e-02,-3.42222762e-02,-7.93285210e-02,
   8.58136241e-03,-2.96593002e-02,-9.40482662e-02,-3.52144367e-02,
  -1.67798835e-02,-6.46361838e-02, 1.23711871e-02, 2.15580231e-03,
  -1.26048512e-02, 1.63787804e-02, 4.58813713e-02, 5.55659941e-02,
   9.15544967e-02, 1.45069037e-02,-6.44165944e-02, 2.96381356e-02,
   1.46647517e-02, 6.02818728e-02,-3.24068528e-02,-1.96199865e-02,
   2.80302819e-02,-1.70992357e-02,-2.41151409e-02,-7.86992581e-03,
  -3.78912213e-02,-5.85551728e-02,-5.41145219e-02,-2.65487894e-02,
   1.01682556e-02,-1.92886769e-02,-4.38773315e-02, 6.81443011e-03,
   8.19781902e-03,-3.33562149e-02, 3.29498691e-02, 2.33886237e-02,
  -1.02920665e-02,-6.53645782e-03, 1.40962207e-03, 1.81247257e-05,
   6.75336844e-02, 7.50444144e-02,-6.48886984e-02, 4.31440162e-02,
   2.40544982e-02, 7.79160039e-03,-5.27720101e-03,-7.21255045e-03,
   3.41714638e-02,-6.02521845e-03, 3.80439535e-02, 2.01111921e-02,
  -3.35590735e-02,-1.23182259e-02,-2.12443163e-02,-2.39048290e-03,
   1.53974451e-02,-1.80306523e-02,-3.65162110e-02,-2.93616596e-02,
   2.20808445e-02,-1.57137667e-03, 2.53534531e-02, 8.62748111e-02,
   4.06417077e-02,-1.84637671e-02,-8.55618211e-04,-1.24345972e-02,
   2.58887516e-02, 5.49496749e-02,-1.36102478e-02,-2.05399112e-02,
  -1.66996390e-02,-9.53251015e-03,-1.56248589e-02, 1.16230634e-02,
   3.99110541e-02,-4.00948075e-02, 3.52450006e-02, 3.52425500e-02,
  -4.05068595e-02,-1.49569353e-02, 1.67302561e-02, 4.47479614e-03,
   1.91144500e-02,-3.25957303e-03, 4.38601925e-03,-1.46573919e-02,
   2.32732212e-02, 4.12211929e-02, 8.38885542e-03, 1.27689677e-02,
  -8.53935960e-04,-2.21934203e-02,-1.26813127e-02, 1.60763784e-02,
   5.79336587e-02, 4.68296672e-02,-7.67273425e-02,-6.33023316e-03,
  -3.68119908e-02,-5.99203301e-02,-3.07219235e-02,-6.78239882e-02,
  -2.07982355e-02,-3.33488555e-02,-2.42997592e-03, 3.63936358e-02,
   2.01800532e-02, 1.26124250e-02, 2.78704617e-02, 3.10496620e-02,
   1.99827840e-03,-3.78901487e-03, 1.03810233e-02,-7.75260912e-03,
  -9.84209736e-03, 4.53891056e-02,-1.19899251e-02,-6.99756578e-02,
  -3.63384365e-03, 1.05894168e-01, 2.57393092e-03,-8.50864921e-03,
   1.90262132e-02, 2.42594615e-02,-2.40959069e-02, 2.06342663e-02,
  -4.19332668e-02,-5.98963396e-02,-2.93037717e-02,-3.09467168e-02,
  -3.03299590e-02,-8.19640490e-02,-3.48818029e-02, 3.60294110e-02,
  -8.41404422e-03, 1.94074493e-02, 1.37167390e-02, 5.73018028e-03,
   6.57850807e-03, 2.52953986e-02, 1.80458737e-02, 3.05662236e-03,
  -1.20906807e-02, 3.82188516e-02,-3.09073867e-02,-1.72319159e-01,
  -1.49447404e-01, 6.49887373e-03, 4.13114324e-02,-2.33865401e-02,
  -1.31833402e-02, 3.89958760e-02,-3.00404823e-02,-9.06383028e-03,
  -2.55144380e-02,-2.28306603e-02, 4.02545121e-03,-2.72909864e-03,
  -1.72301813e-01,-3.94795909e-02, 1.54930488e-02, 6.43372603e-02,
   4.94324176e-02, 4.33703242e-02, 5.47722493e-02, 7.44840131e-03,
   2.22696635e-02, 9.26278387e-03, 2.86177928e-02, 2.91065152e-02,
   3.06633200e-02, 3.23380412e-02, 9.19930446e-03,-1.14691108e-01,
  -1.80218244e-01,-1.82134666e-01,-1.18160103e-01, 4.97421907e-02,
   6.52402540e-02, 3.44604456e-02,-1.58367168e-03, 1.12671517e-01,
   2.48382771e-02,-7.42592464e-03,-6.46533133e-02,-1.02264122e-01,
  -9.84088662e-02,-2.92701905e-03, 3.02270388e-02, 4.42203389e-02,
   5.70464899e-02, 2.30535114e-02, 4.16525428e-02, 1.56462478e-02],
 [ 2.38347292e-03, 2.11360684e-02, 2.22734150e-02, 1.06457599e-02,
   3.43196488e-03, 2.32408908e-02, 3.04307678e-02, 1.13305216e-02,
   8.60588371e-03, 7.93792247e-02, 2.74851167e-01, 1.73196942e-01,
  -8.09248841e-02,-1.82844779e-01,-1.26115114e-01,-1.15736053e-01,
   1.95228304e-02, 1.89053653e-01, 1.00545414e-01,-3.40373797e-02,
  -5.38664679e-02,-8.97471217e-03,-7.13188964e-03,-1.59718195e-03,
   2.02147403e-02, 2.76981336e-02, 1.47615539e-02, 2.34947357e-02,
   1.54926456e-02, 5.76496285e-03, 1.92838402e-02, 1.18891957e-02,
   1.66705337e-02, 2.86362719e-02, 1.03904215e-02,-5.45035611e-03,
   5.16037989e-02, 1.95797333e-01, 1.22830479e-01,-3.25802085e-02,
   5.11749293e-02, 2.66182969e-02, 3.18235454e-02,-4.78776409e-02,
  -1.18712061e-03,-1.93272088e-02,-4.63375751e-03, 4.54570458e-02,
  -5.37456919e-02,-2.88597145e-02,-2.95936241e-02,-3.38572440e-02,
  -4.23878614e-02, 9.36925306e-03, 8.54670018e-03, 1.00389231e-02,
   3.48456041e-03, 1.27637366e-02, 3.83964489e-03, 9.03911646e-03,
  -1.03277555e-02, 3.82293127e-02, 1.78604671e-01, 1.78119880e-01,
   1.53485093e-01, 1.33268875e-01, 8.44575584e-02, 1.98304256e-02,
  -1.24803821e-02,-3.94599370e-02,-8.64505812e-02,-1.82729194e-01,
  -4.04973127e-02, 3.98137810e-02, 9.03955120e-02, 6.90989685e-02,
   1.52242878e-01, 1.32956296e-01, 6.95725458e-02,-2.04457221e-02,
  -2.63973426e-02,-2.27929395e-02, 2.32055199e-03, 1.13902746e-02,
   5.47497708e-03, 4.11718517e-03,-3.80202031e-03, 1.21057682e-02,
   2.08811087e-02, 1.25881979e-01, 1.75707392e-01, 7.70249170e-02,
   7.81802264e-02, 3.67406528e-02, 9.32431744e-02, 5.12207593e-02,
  -7.87302100e-03,-2.03888468e-02,-2.78547080e-02,-1.10799099e-01,
  -1.75374560e-02, 7.22993546e-02, 5.89048627e-02, 1.29564587e-02,
   3.65692366e-02, 1.14691847e-01, 1.47401652e-01, 3.61771563e-02,
  -1.35478604e-02,-3.38431146e-02,-3.42591067e-03, 1.83029269e-02,
   1.77844917e-02, 1.78621718e-02, 1.26302345e-02,-6.74388713e-03,
   3.53316192e-02, 5.12326137e-02, 8.17398413e-02, 7.21411289e-02,
   7.49027750e-02, 4.64355047e-02, 7.42362568e-03,-9.11831343e-02,
  -1.45619486e-01,-7.67034636e-02,-6.73506376e-02,-1.19189295e-01,
  -9.99092890e-02, 1.11854099e-02, 3.66155566e-02, 4.47272547e-02,
   5.12635479e-02, 6.76347994e-02, 5.13585588e-03, 3.31188378e-02,
  -2.56087991e-02,-2.12348338e-02, 1.78194822e-02,-2.64922458e-03,
   1.58513139e-02, 2.32638049e-03, 2.23515565e-02, 2.36992199e-02,
   1.97833809e-02, 2.80138318e-02, 6.48872576e-02, 8.87675626e-02,
   1.30466077e-01, 8.95760733e-02, 1.75781610e-02,-4.01906507e-02,
  -9.81149441e-02,-1.35876406e-01,-9.41730913e-02,-7.84770366e-02,
  -7.46696020e-02,-3.45031490e-02, 5.24041661e-03, 7.85225130e-02,
   6.74200613e-02, 1.57856239e-02,-6.29559993e-02,-4.68139440e-02,
  -3.53216677e-02, 1.13251463e-02,-4.35098450e-03,-2.51724355e-03,
  -1.59163856e-03, 7.07232289e-03, 2.55139372e-03, 1.69170563e-02,
  -2.06565376e-02,-2.02894453e-02, 4.73218948e-03, 3.47852150e-02,
   1.01708230e-01, 1.00352234e-01,-9.52059085e-05,-2.13670550e-02,
  -2.83080015e-02,-9.64531694e-02,-4.94700880e-02,-5.79197756e-02,
  -5.72047739e-02,-2.15770165e-02, 1.65779419e-02, 1.36625961e-02,
   5.16374092e-02,-4.20066242e-02,-7.74152503e-02,-1.13360186e-01,
  -2.59455608e-02,-2.27380147e-02,-4.41820897e-02,-1.12156223e-02,
   2.44020392e-02, 2.24287967e-02, 9.54960106e-03,-7.76300366e-04,
  -4.30853945e-02,-3.81904467e-02,-4.65245552e-02,-8.43488516e-03,
   1.05998689e-01, 9.49019878e-02,-7.00870669e-03, 2.25670765e-02,
  -5.29730416e-03,-5.86725917e-02, 1.62971555e-02,-1.50930422e-02,
  -9.85136786e-03,-1.80696428e-02, 9.19538042e-03, 6.62521115e-02,
   7.55852070e-02,-1.69860075e-02,-4.50617862e-02,-1.29920544e-01,
  -5.25903138e-02,-4.80253472e-02, 1.61769079e-02, 1.68555666e-02,
   2.73449224e-02, 1.67378485e-02, 5.74103738e-04, 4.55019136e-03,
  -6.32775901e-02,-5.68006742e-02,-5.00421709e-02,-1.81262445e-02,
   1.45512800e-01, 8.48253212e-02, 3.20837944e-02, 8.82079582e-03,
  -9.92431550e-03,-2.03063149e-02,-4.32085410e-02,-1.94889235e-02,
  -6.29352801e-02,-3.77776620e-02,-5.00091811e-02, 1.51517144e-01,
   1.19454503e-01,-7.21914122e-03,-5.91172712e-02,-9.38858357e-02,
  -4.65313401e-02, 1.00872291e-02, 5.45146756e-02, 3.20694987e-02,
   1.57036642e-02, 7.60231327e-03, 3.81536971e-03,-1.85732617e-02,
  -6.46414660e-02,-5.92655851e-02,-3.65575593e-02,-1.64003798e-02,
   1.66816642e-01, 1.00024886e-01, 5.16020743e-02, 6.87594455e-02,
   5.77362706e-02,-1.42372563e-02,-3.86562289e-02,-3.33851299e-02,
  -2.47018531e-02,-5.75557271e-02,-1.34553288e-01, 1.13985995e-01,
   5.20887446e-02,-5.24030930e-03,-5.58887409e-02,-1.25543353e-01,
  -7.95360325e-02,-3.88448890e-02, 1.55699486e-02, 5.50749183e-02,
   1.03321215e-02,-3.91883652e-03,-9.54538905e-03, 2.27723759e-02,
  -7.52993695e-02,-7.84867181e-02,-4.64777680e-02,-1.48494322e-02,
   1.07410627e-01, 5.23453388e-02, 9.19820653e-02, 8.81686745e-03,
   5.85576898e-02, 1.96024853e-02,-7.06088276e-02,-5.43492690e-02,
  -4.35944033e-02,-6.92162731e-02,-1.63042709e-01,-2.92250029e-02,
  -2.05281915e-02, 1.96048554e-02,-6.48035977e-02,-1.70395836e-01,
  -4.53754646e-02,-6.07691491e-02,-3.21676582e-02, 5.98755524e-02,
   1.86334320e-02,-1.70993030e-02, 3.51025162e-03, 5.08538121e-02,
  -4.89332278e-02,-6.31102018e-02, 5.43255442e-02, 1.47445598e-02,
   5.40962635e-02, 5.24201518e-02, 7.36496327e-02, 8.75366839e-03,
  -2.74046154e-03,-1.86887811e-02,-4.81268097e-02,-1.29874890e-01,
  -9.45488201e-02,-2.53036010e-02,-1.08728031e-01,-1.87736478e-02,
  -2.46467551e-02, 5.29979532e-02, 8.51315008e-03,-3.21361995e-02,
   4.73310834e-02, 1.51199963e-02, 2.39835128e-02, 4.32680113e-02,
   2.28249895e-03, 7.53260600e-03, 3.01064031e-02, 3.73038276e-02,
  -9.71148928e-02,-8.90949866e-02, 8.64252696e-02, 2.40847970e-02,
   8.52219838e-02, 4.44345796e-02, 2.47385601e-03, 3.99717659e-03,
  -2.83937369e-02,-3.04177110e-02,-8.59853755e-02,-1.29504577e-01,
  -7.74404616e-02,-1.07435587e-01,-1.52611510e-01,-3.69030122e-03,
   1.33897368e-02, 9.25351794e-02, 4.52460225e-02, 8.23479351e-03,
   7.55909654e-02, 6.01689649e-02, 6.16615038e-02, 1.20517074e-02,
   1.94072795e-02, 6.60468178e-03, 4.55929319e-02, 3.22167230e-02,
  -5.24003082e-02, 2.06857134e-02, 7.80687169e-02, 7.48605356e-02,
   1.16828485e-01, 1.10397549e-01,-1.90611469e-02,-7.98275753e-02,
  -7.34295174e-02,-5.73721838e-02,-4.89172244e-02,-1.29688353e-01,
  -4.22846326e-02,-2.38498318e-02,-5.78980093e-02, 7.31278290e-02,
   6.48969838e-02, 1.15687215e-01, 8.44334539e-02, 6.96465354e-02,
   5.18074347e-02, 1.09886394e-01, 2.31446821e-02, 5.28463096e-03,
   2.03248322e-02, 1.44882167e-02, 3.62434246e-02,-2.55433681e-02,
  -2.16565826e-02, 5.77544624e-02, 9.33691338e-02, 8.93372431e-02,
   9.63362297e-02, 2.28608116e-02,-3.55717974e-02,-6.58593121e-02,
  -5.14737958e-02,-7.25346797e-02,-9.44813740e-02,-6.98035038e-02,
  -5.32195063e-02,-4.30427660e-02,-1.12488516e-02, 5.64415433e-02,
   5.06550821e-02, 4.44392582e-02, 1.16408239e-01, 6.08197693e-02,
   2.30662484e-02, 9.27118310e-02, 2.36576968e-02,-2.77730871e-02,
   2.21573454e-02, 1.18751871e-02,-1.52835257e-02,-4.46031014e-02,
  -1.69206800e-03, 4.80868120e-02, 5.32260706e-02,-3.59779177e-03,
   1.37577874e-01,-9.61893293e-03,-8.18799942e-03,-6.93130954e-02,
  -1.49639006e-02,-2.13098141e-02,-1.03639512e-01,-6.39425069e-02,
  -3.69860832e-02,-1.75618587e-02, 2.66214546e-02, 4.87535106e-02,
   3.95103312e-02,-4.00618016e-03, 8.27081205e-02, 8.49796826e-02,
   8.28380721e-02, 5.04077221e-02, 5.94537575e-02,-2.31825099e-02,
  -9.70432599e-03, 4.76850951e-02, 9.76791134e-03,-2.96911846e-02,
   7.07488087e-03, 9.70311439e-02, 3.61032218e-02, 2.36578211e-02,
   6.92805352e-02,-5.21493604e-02, 3.66256155e-03,-6.55519749e-02,
  -2.06682294e-02,-2.78955349e-02,-4.60456364e-02,-6.04001139e-02,
   1.42010210e-02,-3.09353379e-02,-1.26558943e-02, 4.98510023e-02,
   3.27422804e-02,-2.51749548e-02, 1.32023612e-01, 1.04795828e-01,
   4.07865486e-02, 5.77924366e-02, 4.31900179e-02,-3.31479769e-02,
   2.77735433e-02, 1.19522033e-01, 4.38660198e-02, 2.77992130e-02,
   8.59062385e-02, 1.03401547e-01, 1.19024655e-03, 3.39724076e-02,
   2.07220081e-02,-5.22887334e-02,-3.22539290e-02,-4.28598799e-02,
   2.86020403e-02,-1.78909896e-02, 3.55105878e-02,-3.97568050e-02,
  -6.38537614e-02,-4.00129991e-02, 1.62010207e-02, 2.57018544e-02,
   4.74121305e-02, 4.32462549e-03, 8.70387288e-02, 1.10077605e-01,
   8.32275312e-02, 7.48929087e-02, 3.77067688e-02, 4.41980452e-02,
   6.57977285e-02, 1.02340609e-01, 2.18396514e-02, 4.32271605e-02,
   9.51445960e-02, 9.76002074e-02, 7.50145192e-03, 6.13187152e-02,
   1.85615994e-02,-2.98798105e-02,-6.16301894e-03,-2.11135458e-02,
   4.90022624e-03, 1.88132786e-02, 2.39977041e-02, 1.43130074e-02,
  -2.60656265e-02, 2.59262117e-02, 3.83208264e-02, 8.28359029e-03,
  -2.25853642e-03,-1.28711222e-02, 3.25346868e-02, 5.76924786e-02,
   1.06251699e-01, 9.21846679e-02, 1.16817255e-02, 4.16186954e-02,
   4.27256334e-02, 9.80536047e-02, 5.56106280e-02, 8.58607690e-02,
   1.08068760e-01, 9.60926162e-02,-4.54430003e-02,-7.82975513e-02,
  -1.11166195e-01,-7.26257659e-02,-5.47862063e-02,-8.02488729e-02,
  -6.72535207e-02,-5.07224414e-02,-2.26628872e-02,-2.48323835e-02,
  -3.79124719e-02, 1.20281566e-02, 2.22962705e-02,-6.98355110e-02,
  -6.19294266e-02,-1.48683792e-02, 1.02028537e-02, 2.40731848e-02,
   8.64466471e-02, 2.44740717e-02,-1.86357222e-02,-4.60683684e-02,
   5.93772882e-03, 5.69164745e-02, 5.61765770e-02, 7.69413916e-02,
   7.02017457e-02, 3.90953120e-02, 3.03873860e-02, 2.29902740e-02,
  -7.50217987e-02, 1.13216031e-02,-4.48226699e-02,-6.65071638e-02,
  -4.97027184e-02,-2.55464380e-02,-2.08590355e-03, 3.95755341e-02,
   6.55362609e-02, 1.17145420e-02, 1.29147692e-02,-7.24079445e-02,
  -5.47354833e-02,-1.20570675e-02,-2.86713494e-02,-5.22903555e-02,
   2.93716570e-02,-3.29500833e-03,-6.37967067e-02,-4.85459685e-02,
  -1.65062828e-03, 3.53684028e-02,-3.18202973e-02, 1.53513431e-02,
   6.32474370e-02, 6.18676493e-03,-1.72103670e-02,-7.69642282e-02,
  -1.54456505e-02, 3.93132207e-02,-3.67546777e-02,-1.96590737e-02,
  -1.81264307e-02,-3.94290426e-02, 3.38190375e-02, 8.02677436e-02,
   1.02267556e-01, 4.79247793e-02, 2.93648627e-02,-5.84753778e-02,
  -8.36695820e-02,-8.11385171e-02,-5.42559175e-02,-3.06781912e-02,
   1.65886017e-02,-1.89196137e-02,-6.93197896e-02,-1.26740480e-02,
   1.26221776e-02, 2.79055706e-03,-4.18442588e-02,-3.48357284e-03,
   6.98104447e-02, 4.08024290e-02,-1.19210145e-02,-7.19450144e-02,
  -3.62372892e-02, 7.08421767e-02, 1.77150424e-02,-6.50084385e-02,
   7.48900415e-04, 7.04198045e-02, 2.82387642e-02, 6.45346030e-02,
   8.60442578e-02, 7.06730658e-03,-2.99775387e-02, 3.84719170e-04,
  -3.31887617e-02,-7.25291463e-02,-1.31083914e-02, 3.05926589e-03,
   6.08914817e-02, 1.45405070e-02,-2.44012221e-02,-1.03528502e-02,
   1.60120081e-03, 1.34549836e-02,-3.56116855e-02, 7.77493967e-03,
   1.84111597e-02, 3.78246386e-02,-4.26441013e-02,-9.72274649e-02,
  -3.34639511e-02, 5.87990730e-02, 4.98707594e-02,-3.87066959e-03,
  -2.88362894e-02, 7.84451908e-02, 6.03316251e-02, 5.09283408e-02,
   1.53063157e-02, 4.10544983e-03, 3.62799846e-02, 5.12184879e-03,
  -3.63464346e-02,-8.64297144e-02, 1.07987750e-02, 9.83901635e-03,
   4.77898510e-02, 4.39517437e-02, 1.59026720e-02, 1.46773537e-02,
   2.05507758e-03, 3.45285963e-02, 5.36356089e-02, 5.30503838e-02,
   1.28573294e-02, 1.87619236e-02,-6.47326584e-02,-1.21674650e-01,
  -3.56905689e-02, 4.33315801e-02,-3.34925614e-02,-3.01015574e-02,
  -2.40214334e-02, 2.88421275e-02, 5.13801430e-02, 4.79296847e-03,
   1.16726759e-02, 2.93507082e-02, 2.83397764e-02,-4.39419249e-02,
  -6.51345557e-02,-6.96116723e-02,-1.03443096e-03, 7.98215476e-03,
   2.87309954e-02, 4.84681081e-02, 1.62176635e-02, 2.83622182e-02,
   1.58784611e-02, 3.66480713e-02, 5.78686637e-02, 6.97027038e-02,
   5.56240334e-03, 4.38256117e-02,-4.18990843e-02,-9.32051005e-02,
   1.53955210e-02, 3.96705370e-02,-2.49512013e-02, 2.38351016e-02,
   9.04900968e-03, 5.74724754e-02, 5.93188543e-02,-2.43465650e-02,
   2.83914250e-02, 8.06634212e-03, 2.96455791e-02,-2.87088240e-02,
  -6.55437370e-02,-8.57811191e-02, 1.72183458e-02, 4.50020417e-02,
   1.23321959e-02, 5.13393709e-02, 2.03721189e-02, 1.10679398e-02,
   3.42431582e-02, 5.78110825e-02, 7.61306831e-02, 2.07896570e-02,
  -5.44843215e-02, 2.33484964e-02,-4.85782080e-02,-1.53122827e-01,
   1.08466777e-02, 7.68892197e-03,-4.42297358e-02,-2.29741817e-02,
   3.94433028e-03, 2.96723480e-02, 1.63025885e-02,-1.09062067e-03,
  -1.43464280e-02,-5.61001740e-03, 3.49645516e-02,-2.81094603e-02,
  -1.15546946e-01,-6.96496903e-02, 3.88614213e-02,-4.29181030e-03,
   2.92584956e-03, 4.89940028e-02, 2.08176933e-02, 2.87834415e-02,
   1.81460637e-02, 2.09424589e-02, 2.07668525e-02, 8.53407149e-03,
  -3.28050864e-02,-4.23568501e-02,-3.75728100e-02,-4.06004202e-02,
  -2.00344651e-02, 2.33400010e-02, 4.25491356e-02, 5.62003047e-03,
  -3.01960268e-02,-3.99384307e-02, 1.39827903e-03, 1.46267624e-02,
   5.55714585e-02, 7.22539111e-02, 6.20533716e-02, 3.80438285e-02,
   4.59786915e-02, 3.15808511e-02, 2.09502464e-02,-2.02646134e-02,
  -2.68287178e-02, 1.28967643e-02, 7.95969832e-03, 3.00642647e-02],
 [ 2.41671048e-02, 1.38083390e-02, 3.14029689e-02, 1.88117588e-02,
   2.22094020e-02,-8.53338246e-03,-6.29736640e-02,-6.53189130e-02,
   6.12663344e-02, 3.66734064e-02,-1.23339612e-01,-1.08308711e-01,
   5.34786194e-02, 2.31515521e-02,-1.16294570e-02,-1.12906262e-02,
  -1.06012550e-01,-2.10255559e-01,-9.85188773e-02,-2.35494017e-02,
  -6.23866054e-02,-8.59161336e-02,-3.90242229e-02, 7.78047578e-03,
   8.40829508e-03, 2.87823687e-02, 2.69218726e-02, 1.94535992e-02,
   8.65303407e-03, 1.52601831e-03, 3.06464360e-02, 3.94902165e-02,
   4.70756126e-02,-2.56769957e-02,-5.84240826e-02, 1.15232996e-01,
   8.66053632e-02,-1.17365808e-01,-5.33898180e-02,-1.08532232e-02,
   2.57191671e-02, 3.77317149e-03,-9.55530554e-03, 1.32039422e-01,
  -2.86815852e-02,-5.48627906e-02,-1.21941664e-01,-1.29028432e-01,
   6.04297829e-03,-9.36997332e-02,-1.24938562e-01,-4.95088895e-02,
   6.25650677e-03,-8.37041855e-03,-6.98311084e-03, 3.34715149e-03,
   4.61716467e-03, 1.73441399e-02, 1.51474697e-02, 2.88573192e-02,
   2.69727886e-02, 8.10141816e-04, 2.05301394e-02, 6.50700138e-02,
   2.38903769e-02,-1.61827847e-02, 7.53403065e-02, 2.29620639e-03,
   1.14810699e-01, 1.05564263e-01, 1.17033525e-01, 1.52984839e-01,
  -1.08042611e-02,-3.35602905e-02,-5.31233086e-02,-6.14815637e-02,
  -4.48869984e-02,-1.11785430e-02, 7.97204129e-03,-3.48087153e-02,
  -1.17587207e-02,-6.02488806e-04, 1.39083219e-02, 2.83452081e-03,
   5.46999615e-03, 2.61302814e-02, 2.29478811e-02, 3.87721903e-02,
   1.26446171e-02,-2.43725781e-03,-2.44468403e-02,-1.27819710e-02,
   6.58013345e-02, 6.98789506e-02,-6.74271065e-02,-8.54444458e-02,
   6.89142342e-02, 5.16625586e-02, 5.92415063e-04, 1.76455407e-02,
  -4.01374239e-02,-6.04340245e-02,-5.17044654e-02, 3.23839000e-02,
  -1.67650332e-02,-6.13062577e-02,-3.41165814e-02,-2.57884607e-02,
  -3.30816456e-02,-2.85244513e-03, 1.76486268e-02, 3.08222230e-02,
   1.10192209e-02, 2.20391203e-02, 3.13298489e-02, 4.35121687e-02,
   3.55059989e-02, 1.93798211e-02,-8.68942983e-03,-2.37762449e-02,
   6.24551785e-05, 1.05970021e-01,-5.69552198e-02, 6.92917698e-03,
   1.09495508e-01, 9.67186478e-02, 9.19699630e-02, 1.97136327e-02,
  -2.74566325e-02,-4.99537543e-02,-3.81673633e-02, 3.39736612e-02,
  -9.53001573e-02,-9.52800208e-02,-2.80547420e-02,-5.66672397e-02,
  -3.11140136e-02,-1.49785883e-02, 2.84802257e-02, 1.53237930e-02,
   8.32564362e-03, 3.20858297e-02, 3.45928164e-02, 3.95049958e-02,
   3.74527884e-02,-6.25056246e-03,-3.86459703e-02,-6.42538949e-02,
  -8.06042210e-02,-3.83980879e-02,-3.72039449e-02,-1.75990062e-02,
  -1.81120844e-02, 4.49326410e-02, 6.32874922e-02,-4.33664276e-02,
  -2.88456455e-02,-1.30296387e-02,-5.27552484e-02, 4.64806284e-02,
  -4.60174738e-02,-7.34822336e-02,-3.01036939e-02,-4.06668735e-02,
  -1.15274660e-02,-5.20147147e-03, 2.23012271e-02, 2.10345676e-02,
   2.08664676e-02, 3.38360534e-02, 7.00633863e-02, 4.63241279e-02,
   4.28994571e-02, 3.50715321e-02,-2.72743936e-02, 3.48779127e-03,
   2.70110155e-02, 4.14506177e-02, 4.54922436e-02, 4.01390705e-02,
  -1.42245115e-02, 2.48772459e-02, 3.44079833e-02,-2.54753633e-02,
  -3.94814513e-02,-3.17097065e-02,-2.93953604e-02, 1.02185097e-02,
  -3.48513146e-02,-2.33963063e-02,-4.82644925e-03,-1.37854856e-03,
  -3.68663469e-02, 9.82380786e-04, 3.20888016e-02, 2.80717124e-02,
   8.47331302e-03, 1.83555337e-02, 6.07587212e-02, 5.20390768e-02,
   5.66059064e-02, 1.39048892e-02, 1.77325516e-02, 9.21795261e-02,
   1.44290928e-01, 7.18895894e-02, 4.91386518e-02, 1.45812921e-02,
  -7.79516599e-03,-3.94212863e-02,-4.94368281e-02,-7.79274217e-02,
  -9.58553006e-02,-4.84302165e-02,-3.20701580e-02,-3.15494143e-02,
  -1.08070663e-01,-8.11864558e-02,-1.76012931e-02, 1.25988927e-02,
  -1.89183226e-02, 1.56197621e-02, 8.02280616e-02, 1.49141299e-02,
  -6.78206251e-03, 6.64389473e-02, 6.08591200e-02, 7.90319963e-02,
   9.60586214e-02, 8.00828988e-02, 2.52648088e-02, 1.24254398e-01,
   1.24740040e-01, 1.15337610e-01, 1.29645637e-02,-4.25717445e-02,
  -9.94473916e-02,-1.35098739e-01,-7.29501616e-02,-1.16051447e-01,
  -3.42948489e-02,-5.86414979e-02, 1.14067488e-03, 4.84864389e-02,
  -4.49478021e-02,-9.48637157e-02,-2.81986295e-02, 6.09565904e-02,
   4.59067549e-03,-9.68890933e-03,-2.23454073e-03,-9.17249338e-03,
   1.51397467e-02, 8.22759316e-02, 6.34570613e-02, 5.69175571e-02,
   1.13005502e-01, 5.88391855e-02, 3.84941373e-02, 1.09849730e-01,
   1.39673008e-01, 1.83816929e-01, 9.51385919e-03,-7.53715772e-02,
  -9.01672998e-02,-1.08058640e-01, 2.01797399e-02,-2.10191701e-02,
  -8.14356960e-02,-3.88544842e-02, 4.95491907e-02, 3.67209923e-02,
   3.39111667e-02,-7.65084634e-02,-5.80544662e-02, 2.45344022e-02,
  -2.77984294e-02,-3.38420519e-02, 1.22226037e-03,-3.79417985e-03,
   2.65240857e-02, 7.44374481e-02, 1.01847974e-01, 8.65864593e-02,
   1.20141592e-01, 8.08218272e-02, 2.71298953e-02, 1.07346095e-01,
   9.44495364e-02, 2.14705594e-01,-4.25336470e-02,-4.89039732e-02,
  -5.05850450e-02,-7.78206250e-02,-2.83870883e-03,-5.65184952e-03,
  -5.70456158e-02,-4.00675516e-02, 7.98087056e-02, 6.14801112e-02,
   2.84653509e-02,-6.91571722e-02,-1.63096442e-02, 6.08135176e-02,
  -2.05091733e-02, 5.17322470e-03, 4.97002652e-02,-1.63207097e-02,
   6.20538784e-02, 7.73773727e-02, 9.38646278e-02, 3.28148687e-02,
   9.95155638e-02, 1.03940721e-01, 5.23097073e-02, 4.16799033e-02,
   1.21429058e-01, 1.74579709e-01,-6.53249705e-02,-3.98043664e-02,
  -4.02271298e-02, 2.11826598e-02, 1.98904621e-02, 2.48166493e-02,
  -2.41399464e-02,-3.91751249e-02, 8.68812562e-02, 1.17039588e-01,
  -3.52984686e-03,-3.42017102e-02, 4.40627095e-02, 3.99909416e-02,
  -1.80110191e-02,-6.32083137e-02,-3.65887532e-02,-2.22227386e-03,
   5.39992412e-02, 9.38364790e-02, 4.67672411e-02, 3.24588342e-02,
   9.22603517e-02, 6.94128645e-02, 5.72052509e-02, 4.28174582e-02,
   1.19986908e-01, 1.13627187e-01,-7.75899092e-03,-8.22852424e-02,
  -8.68525330e-02, 3.09332841e-02, 1.40376215e-02,-2.55805401e-02,
  -4.09677549e-02,-7.64446693e-02, 6.92835039e-02, 8.85684853e-02,
   5.02362146e-02,-3.02279256e-02, 2.20480091e-02, 1.86981076e-02,
   3.28133165e-02,-3.88567796e-02, 5.48633256e-04, 1.24251263e-03,
   2.98991021e-02, 7.22884289e-02,-2.21135844e-02,-2.17930097e-02,
   5.90750245e-02, 8.59391967e-02, 8.08622190e-02, 5.12649363e-02,
   1.48827979e-01, 7.24076032e-02, 1.32178655e-02,-2.67098082e-02,
  -2.66437790e-02, 4.13203460e-03, 3.11064114e-02,-5.44795502e-02,
  -9.82996454e-03,-1.94163080e-02,-2.44362406e-02, 4.73268359e-02,
   5.14781707e-03,-3.13749455e-02, 2.90005919e-02, 2.35304611e-02,
   5.86097786e-03,-3.13045752e-02, 4.65114924e-02, 2.61107916e-02,
  -2.88515866e-03,-1.12834976e-02,-5.88648402e-02,-1.75526811e-02,
   4.20157542e-02, 7.06057378e-02, 2.76036681e-02, 4.22088573e-02,
   1.48350702e-01, 1.04090235e-01, 4.90201566e-02,-1.20651885e-02,
  -5.92770221e-02, 2.71258258e-02, 5.33940545e-02,-3.18064241e-02,
  -4.52915282e-02,-5.58228647e-02,-3.57600410e-02, 5.14738178e-02,
   3.98136738e-02,-1.02569932e-02,-7.16348105e-03, 1.41288163e-02,
  -9.06906118e-03,-5.36920154e-02,-1.64509854e-02, 1.18769995e-02,
  -4.47158654e-04,-8.49051196e-02,-9.52075235e-02,-5.27440456e-03,
   1.31621894e-02, 5.29171032e-02, 4.52785533e-02, 1.09755095e-01,
   3.91633456e-02, 1.40024849e-03,-3.18817692e-02,-7.30325062e-02,
  -6.37505073e-02,-2.82485562e-02, 7.10469345e-02,-2.73985787e-02,
  -7.29011515e-02,-4.52210729e-02,-1.16741321e-02, 3.39205687e-02,
   3.31825014e-02,-3.04033397e-04,-3.80265404e-02, 2.67545209e-02,
  -9.31668274e-03,-5.09004416e-02,-4.48032181e-02, 1.48393350e-02,
  -2.02425558e-02,-6.09121154e-02,-7.11781510e-02,-1.15936495e-02,
  -2.16198076e-02,-2.67398689e-02, 6.80625408e-02, 1.09049079e-01,
   2.01105797e-03,-2.58649028e-02,-2.41178682e-02, 4.41543061e-02,
  -1.58037847e-02,-3.10641075e-02, 3.80853983e-02,-3.56468475e-02,
  -6.13508830e-02,-1.88068472e-02,-1.48839873e-02,-1.53545999e-02,
   1.04404652e-03, 4.42645953e-03,-3.04130092e-04,-5.96172412e-03,
  -4.53618923e-02,-6.04095091e-02,-6.36554334e-02, 1.13475815e-02,
  -5.28557139e-02,-8.93314625e-02,-1.30975717e-01,-3.25537832e-02,
  -1.76574358e-02,-8.28408286e-02, 3.21020915e-02,-2.36856973e-03,
  -4.10447542e-02, 2.28318022e-02, 8.40100634e-03, 3.94598093e-02,
  -7.40287075e-02, 1.77821075e-02, 4.33119129e-02,-2.77102630e-02,
  -1.87854338e-02,-5.24108839e-02,-2.07558838e-02,-4.79921612e-04,
  -8.20480192e-02,-4.06409893e-02,-3.34002951e-02,-5.03038888e-02,
  -1.54106636e-04,-5.43351641e-03,-5.28711005e-02, 1.75628631e-02,
  -2.56019155e-02,-1.00212389e-01,-1.07432057e-01,-1.49867601e-02,
  -4.84907890e-02,-2.92796562e-02, 4.18978463e-02,-2.83043221e-02,
   2.02564539e-02, 9.10420325e-02,-1.69079427e-02, 4.24536839e-03,
  -3.96785437e-02, 9.58544940e-03, 4.06536519e-02,-6.35621262e-02,
  -1.88710167e-02, 7.42544537e-03,-1.87270112e-02,-1.29220300e-03,
  -4.05826077e-02,-3.82648218e-02,-1.69745932e-02,-3.93661646e-02,
   9.71296352e-03, 2.70835048e-03,-7.89411029e-02, 1.98111575e-02,
  -3.44201119e-02,-4.90399008e-02,-4.13922800e-02, 1.29150613e-03,
  -6.07188043e-02,-2.03413007e-02, 4.98514585e-02,-5.67272959e-03,
   7.73583183e-02, 4.96445092e-02, 2.04794643e-02, 2.06781183e-03,
  -3.27542605e-02,-3.55851007e-02, 2.76141074e-02, 2.78028911e-02,
   1.73518705e-02,-1.53568920e-02, 4.74373304e-02, 3.41997424e-02,
  -5.58179278e-02,-1.29101137e-02,-4.74342146e-02,-5.20974776e-02,
  -7.35136239e-03,-1.58932158e-02,-4.47296779e-02,-5.18270994e-02,
  -2.49046966e-02,-3.05635099e-02,-3.60172827e-02,-3.90589326e-02,
  -6.52704707e-02,-8.24467070e-02, 6.20956090e-03, 1.34012770e-02,
   6.86603690e-02, 3.17804534e-02, 3.52625115e-02, 1.25124861e-02,
  -2.51577222e-02,-5.15180242e-03, 1.06854265e-01, 6.63409319e-02,
  -8.93052256e-03, 5.22687530e-03, 5.94660356e-02, 1.10528176e-01,
   4.50805222e-02, 2.35393030e-02,-4.50994148e-02,-6.10063831e-02,
  -2.96549073e-02, 1.09487229e-02,-4.02372516e-02,-1.61253182e-02,
  -1.53114441e-02,-5.07966192e-02,-6.20853991e-02,-6.27954183e-02,
  -1.29559057e-02,-2.18938401e-03, 8.15213701e-02, 8.22080986e-02,
   3.52611418e-02, 1.72940134e-02, 1.05565087e-02, 9.98945868e-03,
   1.36712064e-02, 4.20045930e-02, 1.48520596e-01, 7.96438628e-02,
   3.68347954e-02, 5.21510911e-02, 3.86291845e-02, 7.81808664e-02,
   9.23430176e-02, 6.19679750e-02, 3.07650043e-02, 4.46127056e-03,
  -1.64380909e-02, 8.26894709e-03,-3.02998894e-02,-8.09469821e-03,
   1.14826362e-02, 1.10575457e-02,-5.60643789e-02,-8.38468043e-02,
  -3.08438666e-02, 1.06446001e-02, 6.08834152e-02, 1.11263293e-01,
   5.66516670e-02, 4.16546594e-02, 1.85344090e-02, 4.32487616e-02,
   7.92457710e-02, 4.03464656e-02, 1.42830612e-01, 1.91669859e-02,
  -1.83978158e-02,-6.92912663e-03, 1.46070399e-02, 4.51719591e-02,
   1.29565424e-01, 7.32804965e-02, 3.64079489e-02, 2.88605296e-02,
  -6.07486474e-02,-4.38098096e-02,-1.35687977e-02, 2.74492462e-02,
   1.13408986e-02,-1.90260861e-02,-4.39005783e-02,-7.96291360e-02,
  -3.40327904e-02, 1.17514375e-02, 4.56778314e-02, 1.48590442e-01,
   5.36259492e-02,-5.92962711e-03,-4.45568442e-02,-2.70925792e-03,
  -2.95695534e-02,-3.16910930e-02, 6.20733362e-02,-6.69802109e-02,
  -5.20642890e-02, 8.05298780e-02, 4.10888670e-02, 4.83806944e-02,
   1.03433827e-01, 6.23028326e-02,-1.43895963e-02, 1.69878483e-02,
  -6.92118955e-02,-6.62267711e-02,-3.17697510e-03, 2.71132162e-02,
   1.05967717e-02,-2.08934682e-02,-4.11115962e-02,-7.77131204e-02,
  -4.97179820e-02, 1.19709775e-02, 6.37634549e-02, 1.03324852e-01,
   7.91798881e-04,-1.42347915e-02,-4.97401102e-02,-7.99522223e-03,
  -3.59411643e-03,-2.07745529e-02, 1.29733632e-02,-5.68014427e-02,
   5.83910890e-03, 6.12440835e-02, 2.38261651e-02, 6.53727849e-02,
   9.76612239e-02, 8.20763272e-03,-5.56691987e-02,-3.82564030e-03,
  -7.36836406e-02,-4.78950271e-02,-2.34461849e-02, 1.11951891e-02,
   1.10449703e-02,-2.35817176e-02,-5.75101214e-02,-9.81521955e-02,
  -6.96413255e-02, 2.40101908e-02, 9.89555854e-03, 4.12817277e-02,
  -1.58052937e-02, 1.63854517e-02,-7.42329521e-02,-2.26385373e-02,
  -3.08990274e-02,-4.41069794e-02, 5.02548296e-04,-8.33642136e-03,
  -1.11310991e-02, 8.62719953e-03, 2.32662137e-02, 8.52586040e-02,
   6.25132314e-02,-4.51872711e-02,-7.82509022e-02,-5.95934638e-02,
  -1.02816120e-01,-5.19989945e-02,-4.03859960e-02, 1.51834819e-02,
   2.08715561e-02,-2.15298849e-03,-3.82237267e-02,-5.65251171e-02,
  -2.45424986e-02,-1.68297218e-02,-2.23362269e-02,-2.52260210e-02,
  -1.17914784e-01, 9.80702697e-03,-2.70290996e-02,-4.12139537e-02,
   6.81773650e-03, 4.45525464e-03, 1.36571373e-02,-1.26394980e-02,
  -7.32494574e-03, 4.24927788e-02, 8.26518397e-02, 5.65692029e-02,
  -7.62851620e-02,-6.61627769e-02,-7.77786980e-02,-1.91028533e-02,
  -2.30912695e-02,-4.56099232e-02,-1.23626066e-02, 1.32942979e-02,
   2.74338552e-02, 2.44937706e-02,-2.89185464e-03, 7.28139070e-03,
   1.51860995e-02, 3.89602891e-02, 9.95140472e-02,-1.10235610e-02,
  -1.08521758e-01,-2.23218284e-01,-1.90887288e-01,-3.61472429e-02,
   4.70636992e-02, 2.07608096e-01, 2.42807003e-01, 8.57605021e-02,
  -2.49333559e-02,-6.99202900e-02,-1.36628355e-01,-6.78096950e-02,
  -5.58662640e-02,-1.18976329e-02, 3.57167936e-02,-4.61144480e-03,
   8.74365769e-03,-7.42018563e-03, 9.13841564e-03, 2.93070101e-02],
 [ 6.24526672e-03, 1.23474234e-02, 2.37676296e-02, 2.47582975e-02,
  -2.13308694e-02,-4.97995827e-02,-8.46011939e-02,-1.26590753e-01,
  -8.86981842e-02,-5.64351379e-02, 4.61307403e-03, 2.33677772e-01,
   8.45422051e-02,-1.61607389e-01,-7.57533802e-02,-5.48975254e-02,
   3.71869875e-01, 2.61443641e-01, 1.29880524e-02,-4.29952474e-02,
  -8.45601871e-02,-1.09281986e-01,-6.27596505e-02,-4.66275424e-02,
  -4.68649296e-03, 2.65266493e-02, 2.50015800e-02, 2.79708743e-02,
   1.44838506e-02, 5.66618942e-03,-4.04900013e-03,-3.99560705e-03,
  -4.65784321e-02,-1.19056120e-01,-2.04335006e-01,-8.46256595e-02,
   1.07866731e-02, 1.17562482e-01, 1.47958910e-01, 1.38087305e-01,
   1.36430115e-01, 2.68929593e-01, 3.18056670e-01, 2.76481228e-01,
   3.25815903e-01, 1.83926451e-01, 2.05570779e-01, 1.28640044e-01,
   2.14722073e-02, 1.87092053e-02,-5.61073466e-02,-7.94093278e-02,
  -9.73331748e-03,-5.06726958e-03, 1.68188957e-02, 1.56234657e-02,
   1.50055537e-02, 2.92067154e-02,-1.59595676e-02,-4.35889085e-03,
  -2.91649322e-02,-5.79406092e-02, 5.20260430e-02, 6.45622311e-02,
  -3.95089961e-02, 2.82042393e-02, 3.91713067e-02, 5.90997371e-02,
   9.76425769e-02, 1.72253791e-01, 7.79300577e-02, 5.72556542e-02,
   5.29067660e-03, 3.33908790e-02, 2.58122831e-03, 1.17073876e-02,
   7.55253806e-02, 1.68170470e-01, 1.29156800e-01, 8.78172471e-02,
   8.29049736e-03,-1.53480351e-02, 2.59063655e-02, 2.63379356e-02,
   1.68294755e-02, 4.98582401e-03, 1.62542633e-02, 3.08457808e-03,
  -1.02742885e-02, 5.78453528e-02, 4.56416486e-02,-1.55507107e-01,
  -1.23699130e-01, 1.11360067e-02, 3.83346208e-02,-1.18688571e-02,
   1.65775126e-01,-4.55722520e-02,-1.06968143e-01,-3.07519845e-03,
   7.36169964e-02, 6.45410875e-04,-3.48077435e-02,-1.16931131e-01,
  -1.00388228e-01, 7.13239848e-02, 1.55864288e-01, 1.58823633e-01,
   9.36965054e-02, 1.15793088e-02, 2.34653296e-02, 2.91878919e-02,
   2.78604921e-02, 2.77648321e-02, 1.01708519e-02, 3.00063322e-02,
   9.53666910e-03, 9.62291021e-03, 9.73544759e-04,-1.59083181e-01,
  -1.79045149e-01,-3.65541772e-03,-4.92070638e-02,-5.02382740e-02,
   1.09367680e-01,-5.42420427e-02,-1.60875702e-01, 2.84899099e-02,
  -1.19099676e-01,-2.51528066e-02, 2.07333599e-02,-1.23411680e-01,
  -1.06069420e-01, 3.77882463e-02, 1.14327514e-01, 1.48306436e-01,
   1.41247064e-01, 3.87391317e-02, 1.27089079e-02, 1.81545377e-02,
   2.58753900e-02, 1.16220292e-02, 1.15951864e-02, 3.53204443e-02,
   1.29537696e-01, 6.39162650e-02, 4.53757312e-02,-1.48047679e-01,
  -1.54669340e-01,-8.17838147e-02,-4.91800257e-02,-4.22841427e-02,
   1.94731655e-02, 3.22791743e-03,-5.31956454e-02, 3.85686516e-02,
  -3.55480318e-02, 4.59771502e-02,-2.05370134e-02,-6.35480817e-02,
  -8.40517857e-02, 3.41238916e-03, 6.80383165e-02, 1.87437612e-01,
   1.05404542e-01, 8.85074995e-02, 8.81445818e-03, 4.05138043e-02,
   2.50487079e-02, 4.82760150e-02, 6.65864522e-02, 6.76942796e-02,
   9.90727781e-02, 1.01887465e-01, 9.64411167e-02,-1.04172081e-01,
  -4.15290040e-02,-1.36948990e-02, 9.59105128e-03,-3.19432765e-02,
   4.14237135e-02, 4.62630115e-02,-8.11999516e-02, 3.02766578e-02,
   1.69388671e-02,-4.92292163e-02,-1.84918963e-02,-3.85339508e-02,
  -8.09093372e-02,-8.64287649e-03, 7.40059505e-02, 1.47328551e-01,
   1.17456733e-01, 1.20604864e-01, 6.77605339e-02, 2.35464826e-02,
   3.71297877e-02, 6.99073585e-02, 8.44577952e-02, 7.36563089e-02,
   4.52386811e-02, 1.00830913e-01, 1.20935644e-01,-1.89134974e-02,
   8.31593902e-03, 1.36535362e-02,-1.58008882e-02,-2.23408783e-03,
   9.54853986e-02,-1.56822281e-02,-1.43815039e-01,-5.84493239e-02,
   6.30602607e-04,-6.23027880e-02,-6.93530603e-02, 2.12989646e-02,
  -2.32542497e-02,-5.54066590e-03, 1.13110663e-01, 5.97611550e-02,
   9.32422781e-02, 1.40094495e-01, 7.02265971e-02, 2.94921873e-02,
   4.48049345e-02, 8.78811474e-02, 1.25104038e-01, 8.13653125e-02,
   6.71216841e-02, 1.22409518e-01, 1.51108560e-01, 2.23135705e-02,
   4.75437459e-02,-7.27128447e-03, 1.05394827e-02, 1.53688561e-02,
   9.87328101e-02,-3.50757204e-02,-7.23064549e-02, 5.53622566e-02,
   1.06016487e-01, 3.89177694e-02,-2.00111562e-02, 6.20673462e-02,
  -7.88241245e-02, 4.37157939e-03, 9.67710165e-02, 3.66010826e-02,
   7.49081951e-02, 6.33179302e-02, 6.44483879e-02, 2.02695400e-02,
   3.19149634e-02, 5.82668685e-02, 7.39963269e-02, 4.30484680e-02,
   6.78227972e-02, 1.34529974e-01, 7.02802284e-02, 5.11474619e-02,
   1.09589757e-01, 5.07409005e-02, 2.75548345e-02, 3.94605062e-02,
   6.92536893e-02,-8.54827969e-04,-2.00580624e-02, 4.52506520e-02,
   5.50100873e-02, 4.82349227e-02,-1.88434484e-02,-1.21905552e-02,
  -4.89786626e-02, 5.83943736e-02, 2.51612421e-02, 2.05998675e-02,
   6.68850926e-02, 2.23083325e-02, 3.93193938e-02, 2.70282520e-02,
   3.92296496e-02, 4.95550298e-02, 7.63353157e-03,-7.68281085e-02,
   9.04593156e-03, 1.36455025e-01,-5.02531342e-04, 2.64745836e-02,
   7.73555770e-02, 8.24459424e-02, 5.53216636e-02, 3.91272706e-02,
  -3.15275336e-02,-9.65912590e-02,-1.47993710e-02, 1.53188374e-02,
   6.43349559e-02, 4.94466715e-02,-3.86673570e-03, 1.05454735e-03,
  -3.42306232e-02, 2.74130496e-02, 6.67274912e-03, 3.06419775e-02,
  -8.40340891e-04,-7.74327295e-02,-1.39093572e-02, 2.52061696e-02,
   5.76353078e-02, 3.89542400e-02, 2.88233208e-02,-4.13691085e-02,
   2.06147788e-03, 9.59493686e-03,-6.26726500e-02,-1.02105052e-02,
  -2.35084277e-02,-1.20414592e-02,-7.54388364e-02, 1.23835798e-02,
  -6.57541770e-02,-4.22447541e-02,-1.67394607e-02,-6.25731992e-02,
  -3.88874815e-02,-4.30676072e-02, 2.00643818e-02,-1.64223194e-02,
  -6.92395140e-02,-7.46130004e-02,-6.40463522e-02, 6.83088649e-04,
  -3.31917010e-02,-8.24547674e-02,-7.91931582e-02, 3.37561746e-02,
   6.50946224e-02, 6.98626972e-02, 4.17813612e-02,-5.40934012e-02,
   7.32538303e-03,-1.87094615e-02,-1.00688007e-01,-5.51061700e-02,
  -8.05202928e-02,-2.40685930e-02,-5.28900883e-02, 2.25622504e-02,
  -9.01768783e-03,-7.74015907e-02,-3.99255485e-02,-8.67217131e-02,
  -3.96003646e-02,-2.75450979e-02, 7.55308278e-03,-1.23963750e-02,
  -5.57030135e-02,-5.55854057e-02,-5.08136714e-02,-8.63244925e-03,
   2.99586545e-03,-7.98710446e-02,-2.94753144e-02, 2.90154916e-02,
   5.97581290e-02, 5.41471521e-02,-3.12583553e-02,-7.16790320e-02,
  -4.42337148e-02,-4.91729992e-02,-1.95042750e-02,-4.79667300e-02,
  -1.08459330e-01, 5.97021915e-03,-6.29917413e-02,-3.28086990e-03,
  -1.75516333e-02,-4.26331507e-02,-4.65903675e-02,-9.45267664e-02,
  -6.42656232e-02,-3.36901045e-03,-2.63575866e-02,-5.56295389e-02,
  -9.60580445e-02,-4.13097270e-02,-6.33312785e-02,-5.82223513e-02,
  -6.49231847e-02,-8.79444453e-02,-1.87841810e-02, 1.31110510e-02,
   3.95278011e-02, 1.55676865e-02,-7.78614568e-02,-7.89778445e-02,
  -3.92811546e-02,-4.25639070e-02,-8.90741160e-03,-9.83509600e-02,
  -1.34027854e-01, 1.07486620e-02,-1.15317940e-03, 2.92710199e-02,
  -3.86068821e-02,-4.04006513e-02,-7.51453985e-02,-5.16332882e-02,
  -9.84059726e-02,-4.87547696e-02,-7.63846507e-02,-1.01425270e-01,
  -1.30545807e-01,-9.89332436e-02,-5.47157660e-02,-7.38544063e-02,
  -9.39712148e-02,-1.16976401e-01,-6.11741458e-02, 3.98590875e-02,
   1.99623022e-02, 1.61486982e-02,-5.20515816e-02,-8.67155808e-02,
  -3.65433971e-02, 3.74724132e-02, 2.20957039e-03,-6.47023801e-02,
  -1.31879582e-01,-2.72233441e-02, 6.56751824e-02, 4.57502830e-02,
  -1.91037295e-02, 1.03530034e-02,-1.33815111e-02, 2.01894398e-05,
  -1.28078327e-02, 4.32230851e-03,-6.03802900e-02,-7.43306443e-02,
  -8.54858227e-02,-1.23085125e-01,-9.03812646e-02,-7.79860673e-02,
  -6.71623391e-02,-8.74853426e-02,-1.75226847e-02, 5.34181100e-02,
  -7.17265414e-04,-3.00498743e-02,-1.06106419e-02,-5.50282668e-02,
  -7.01196237e-04, 6.09574627e-02, 2.89159088e-02,-4.66946987e-02,
  -1.02935449e-01, 2.94134171e-02, 4.25234341e-02, 4.55585650e-02,
   1.15431615e-02, 4.67914596e-02, 3.79937515e-03,-3.06765243e-02,
  -7.07547629e-02, 8.84261062e-03,-8.08429777e-03,-9.54978432e-02,
  -1.21232979e-01,-3.85507197e-02,-3.60982887e-02,-2.31760947e-02,
  -1.99647180e-02,-7.10402502e-02,-3.33340273e-02, 5.05012149e-02,
  -1.25736379e-02,-3.13162553e-02,-4.83455496e-02,-5.48363216e-02,
   1.09548040e-02, 3.15355678e-02, 6.75399810e-02,-5.33348819e-02,
  -6.55918994e-02, 3.85493770e-02, 1.92779285e-02,-4.02332915e-02,
  -6.41844153e-03,-2.13637695e-02, 8.54520606e-03,-1.87820329e-02,
  -3.44349351e-02, 1.46678986e-02,-1.95356530e-02,-1.04527327e-01,
  -1.01689451e-01, 4.09416004e-03,-4.51239082e-02,-2.06076329e-02,
  -1.00246068e-03,-4.16821867e-02,-3.71730253e-02, 1.25850339e-02,
  -2.41167102e-02,-2.36159544e-02,-6.18009965e-02,-6.05295798e-03,
  -1.03727647e-02, 7.25076484e-03, 2.89663067e-02,-5.96255508e-02,
   3.43367453e-02, 8.37311271e-02, 2.90757746e-02, 3.15839540e-02,
  -3.20868561e-02, 3.08267698e-02,-1.14474894e-02,-7.80711479e-02,
  -3.52757545e-02, 1.04840729e-02,-4.06551828e-02,-6.26763306e-02,
  -4.45283627e-02,-2.19759390e-02,-1.09030101e-01,-2.87425954e-02,
   1.08555084e-02, 4.80508437e-03,-5.68535704e-02,-3.82744619e-02,
  -2.09681546e-02,-2.93329922e-02,-3.92662864e-02, 1.16020215e-02,
   1.11473050e-03, 9.51194243e-02, 6.62978723e-03,-9.39319864e-02,
   1.03960620e-01, 1.09506771e-01, 3.28723867e-02, 2.13345484e-03,
  -3.23681888e-02,-3.09379117e-02,-2.77841545e-02,-1.31656647e-02,
  -6.64540567e-02,-5.06910270e-02,-6.50190164e-03,-4.76430442e-02,
  -3.74812584e-02,-6.82058153e-02,-8.13437060e-02,-1.74653593e-02,
   2.03219872e-03, 9.00153312e-03,-6.41091969e-02,-4.90138197e-02,
  -1.43096766e-03,-2.19329606e-02,-1.23130041e-02,-1.16051885e-02,
   9.67515998e-03, 4.92736164e-02,-6.34198406e-02,-4.55084386e-02,
   9.13204312e-02, 1.00881069e-01, 6.20798905e-02, 4.54041816e-02,
   3.65126327e-02, 1.23326385e-02, 9.66370313e-03, 1.73064958e-03,
  -2.03939216e-02,-3.31195797e-02,-3.36288130e-02,-2.23548891e-03,
  -9.88231809e-03,-6.88284568e-02,-3.83122174e-02,-4.20332101e-03,
   1.71709481e-02, 2.70122739e-03, 6.22416561e-03,-2.38759641e-02,
  -1.23186509e-02, 1.12692421e-02,-3.98213275e-02,-6.37683355e-02,
  -2.30008762e-02, 3.03805656e-02,-5.13385993e-02,-5.09150804e-02,
   1.31344464e-01, 9.65117318e-02, 6.91579444e-02, 3.54088770e-02,
   5.10121983e-02, 6.53013760e-02,-1.06873313e-02,-3.23446740e-02,
  -5.76168810e-02,-3.06599637e-02,-1.28521134e-02, 7.07732245e-03,
   1.36353526e-02,-5.66086655e-02,-6.08956583e-02,-6.81690259e-03,
  -1.02927629e-02, 2.12106690e-02, 1.25169476e-02, 5.08912837e-03,
   2.37708673e-03,-4.01530135e-03,-5.37796417e-02,-1.18048599e-01,
  -9.06702251e-02,-9.59275099e-03,-7.86361394e-02,-1.03658065e-01,
   7.10437647e-02, 4.08282113e-02, 8.97111016e-03, 7.61985217e-02,
   4.08209791e-02,-1.42209337e-02, 3.04564002e-02,-3.07028508e-02,
  -3.73072221e-02,-2.99721826e-02, 2.36999049e-02, 3.38935764e-02,
   1.75236124e-02,-6.86908757e-02,-9.08097626e-02,-7.52022518e-02,
  -9.00707840e-02,-7.39361446e-02,-9.19364034e-03, 1.56928943e-02,
   1.82558746e-02,-9.62746372e-03,-4.73687947e-02,-9.07960052e-02,
  -7.74566373e-02, 3.19474583e-02,-4.55443619e-02,-5.39048167e-02,
   2.43063638e-02, 3.38306806e-02, 3.86268501e-02, 7.59317320e-02,
   3.07266932e-02,-1.77079349e-02, 2.03497261e-02,-2.48599051e-02,
  -8.60380308e-03, 6.97879183e-02, 4.17659793e-02,-1.37445907e-02,
   6.11030018e-03,-3.22768343e-02,-5.67381127e-02,-5.96679773e-02,
  -9.14810028e-02,-8.51840305e-02,-3.23925715e-02, 4.95311192e-04,
   1.07895206e-02,-6.75073474e-03,-5.82508294e-02,-1.03906732e-01,
  -8.96662072e-02, 1.23803651e-02,-5.14591345e-03,-9.27917727e-02,
   2.36189952e-02, 2.84205375e-02,-1.90151072e-02,-2.08822580e-02,
  -6.82592626e-02,-8.49480541e-02,-4.76301290e-02,-5.10938947e-02,
  -3.44670274e-02,-4.19601816e-03,-4.76650562e-02, 5.41870679e-03,
   5.93880719e-02,-8.55863376e-03,-2.28299638e-02,-9.17660135e-02,
  -1.15246657e-01,-7.35088581e-02,-2.05058637e-02, 1.03644797e-02,
   1.18508523e-02,-4.15637790e-03,-5.51306922e-02,-1.09305775e-01,
  -6.62744942e-02, 8.18516528e-03,-4.44452577e-02,-1.03673239e-01,
  -2.06300791e-02,-3.41836434e-02,-5.96916814e-02, 7.72909700e-03,
  -3.15136983e-02,-7.69824703e-02,-1.78862724e-02,-6.31547576e-03,
   1.58035345e-02,-2.67771228e-02,-8.43068212e-03, 4.41089953e-02,
   5.34130037e-02,-6.68524906e-02,-5.18870819e-02,-7.58766606e-02,
  -9.26109138e-02,-5.58869505e-02,-1.21934528e-02, 1.00523039e-02,
   3.30650682e-02, 1.01045269e-02,-3.94402491e-02,-8.82288845e-02,
  -5.34161744e-02, 5.13452186e-02,-5.88794585e-02,-2.94885379e-02,
   1.14962420e-01, 6.77870180e-03,-7.20376115e-02,-2.25244623e-02,
  -5.66940108e-02,-3.16902092e-02, 3.07581903e-02,-5.18310788e-02,
  -9.97552075e-03,-2.05564354e-02,-3.32426462e-02, 2.19744130e-02,
   6.89548205e-02,-6.03210211e-02,-3.24461175e-02,-7.26600556e-02,
  -1.19536280e-01,-5.79962522e-02,-1.79565760e-02, 2.52421209e-02,
   1.34113762e-02,-9.78566720e-04,-1.39339171e-02,-3.08835956e-02,
  -9.46160379e-03, 1.73407822e-02, 6.52875973e-02, 1.15101591e-01,
   1.39281705e-01, 5.59566958e-02,-5.54133552e-02,-3.11972787e-02,
  -5.40244685e-02, 8.36626200e-02, 1.28858475e-01,-7.46763205e-02,
   1.34819881e-02,-3.99613540e-02,-1.64993081e-02, 1.32790986e-01,
   2.32271273e-01, 1.05355932e-01, 4.43980686e-02,-3.22166281e-02,
  -5.35855129e-02,-2.03136507e-02,-1.00967327e-02, 1.11642206e-02],
 [ 2.12059299e-03, 1.46336172e-02, 2.83370341e-02, 1.30528644e-02,
  -7.82786906e-03,-3.99774838e-03,-3.57777063e-02,-4.23256455e-02,
  -3.01249226e-02,-7.33829933e-02, 6.73123315e-02, 1.23985345e-01,
   3.48104895e-02, 7.39666072e-02, 1.32574422e-02,-3.23597436e-02,
   8.53798319e-03, 8.04211603e-02,-5.39413632e-02,-8.13931026e-02,
  -6.93991109e-02,-6.66108708e-02,-5.22526659e-02,-4.22751123e-02,
  -4.89629863e-03, 2.46845229e-02, 1.79506038e-03, 8.10785504e-03,
   1.24163320e-03, 1.02139897e-02, 8.95740144e-03, 6.12713479e-04,
  -3.31674226e-02,-4.56288341e-02,-8.04412846e-02,-9.49663989e-02,
  -6.65661549e-02, 1.65290775e-01, 1.99129088e-01, 6.16601815e-02,
  -3.24671032e-02, 3.62670520e-02, 9.54969148e-02,-1.60608568e-02,
   6.13577883e-02, 1.22108262e-01, 1.39469938e-01,-2.38390958e-02,
  -9.98831306e-02,-1.44110222e-01,-1.29649143e-01,-1.17524302e-01,
  -7.81856635e-02, 4.44490036e-03, 1.85142640e-02, 1.38566489e-02,
   7.62017388e-03, 2.88356447e-02, 1.69812343e-02,-2.15444471e-02,
  -7.38109118e-02,-8.77706115e-02,-8.15477806e-02,-9.28068594e-02,
  -4.47876555e-02, 1.61263564e-01, 7.47213461e-02,-3.74128049e-02,
   1.23204755e-02, 2.27639937e-02, 7.12070665e-02, 7.83390978e-02,
   8.48746684e-03,-3.22243379e-02, 1.14324289e-01,-4.29219227e-02,
  -1.58208625e-02,-4.28263041e-02,-1.01854192e-01,-8.95788479e-02,
  -3.29193185e-02, 1.40244691e-02, 3.03316776e-02, 1.54359618e-02,
   2.96610843e-02, 2.95392741e-03, 1.58252840e-02,-2.02330169e-02,
  -3.19731608e-02,-5.14529123e-02,-4.72024297e-02,-9.50539219e-02,
  -7.71769583e-02, 6.15118825e-02, 1.12972436e-01, 3.48828341e-02,
   1.40648022e-02, 4.73006137e-02, 8.64613859e-02, 6.48098609e-02,
  -3.44524378e-02, 5.41209235e-02, 8.35523754e-02,-1.17337339e-01,
  -8.87548257e-02,-6.39033828e-02,-7.07524445e-03,-4.91464520e-02,
  -1.30669843e-02, 1.27134971e-02, 9.95977130e-03, 2.88544614e-02,
   1.14035805e-02, 8.76258015e-03,-1.40106544e-02,-2.75609341e-02,
  -4.55332827e-03,-1.70184112e-02,-3.65792588e-03,-4.25182687e-02,
  -2.38048182e-02, 1.31094838e-01, 5.15572118e-02, 4.63864127e-02,
  -2.95542469e-02,-7.70476138e-02, 2.34013989e-02,-6.54714001e-02,
  -8.60647831e-02,-4.83775389e-02, 9.13701949e-03,-2.69891918e-02,
  -9.27361270e-02,-1.78778281e-02,-2.74556265e-02,-2.04207572e-03,
  -1.16297677e-02,-1.33580925e-02, 4.66474519e-03, 1.82680267e-02,
   1.82996964e-02, 1.40609323e-02,-2.26495535e-02,-9.52481032e-03,
  -8.66568158e-03,-8.36309897e-03,-2.26087611e-02, 3.27592196e-02,
  -1.71184628e-02, 4.70188093e-02, 2.18207166e-02, 2.01970667e-02,
   9.13559796e-03,-2.88640067e-02, 4.28953462e-02, 2.78406494e-02,
   6.39022783e-02, 2.88345193e-02,-1.38286864e-02, 9.61340468e-03,
  -1.15265189e-02, 6.17707444e-02, 7.25729903e-02, 2.37995753e-02,
  -4.39040605e-02,-4.38465404e-02,-2.65518927e-02,-1.36437958e-02,
  -4.01324107e-03,-1.63102227e-02,-3.35267764e-02,-3.91335038e-02,
   6.49719627e-03, 7.55495950e-02, 5.90682210e-02, 6.25915157e-02,
  -7.96459065e-02,-2.52796225e-02,-7.85963217e-02,-1.91271149e-02,
  -3.41553741e-03,-1.76296306e-02, 5.09237931e-02, 3.28147808e-02,
  -4.10333664e-02,-6.11314034e-02,-4.97142552e-02,-1.29857385e-01,
  -4.24006307e-03, 7.05219111e-02, 1.49569051e-01, 5.28686986e-02,
  -4.90897416e-02,-7.06199095e-02,-8.04387663e-02, 7.30573357e-03,
   1.21356835e-02,-1.58873403e-02,-3.55100011e-02,-3.14912863e-02,
   2.02489566e-02, 5.00335557e-02, 3.59829532e-02, 3.14401573e-02,
  -5.25369132e-02,-6.20622847e-02,-2.93982715e-02,-7.59071181e-02,
  -2.18268187e-02,-1.34243637e-02, 8.24743483e-02, 4.04092212e-02,
  -4.84240034e-02,-8.69942989e-03,-9.38238799e-02,-1.54260876e-01,
  -6.44138766e-02, 5.71046866e-02, 6.16317464e-03,-5.36906261e-02,
  -1.03288486e-01,-7.77606227e-02,-1.86441273e-02,-6.53878396e-03,
   1.48695557e-02,-2.98351920e-02,-7.46232426e-02,-4.76244838e-02,
   1.37118453e-02, 2.76693706e-02,-8.61542462e-03, 1.27846940e-02,
  -7.00120149e-02,-6.15135508e-02,-1.36714562e-02,-2.72304966e-02,
   1.04379252e-02, 7.26527292e-02, 1.05075587e-01, 1.48328122e-01,
   2.39687983e-04,-1.95727201e-02,-7.46040302e-02,-1.02767978e-01,
  -5.70870335e-02,-7.56220448e-03, 2.51619103e-02, 7.58340463e-02,
  -4.25571225e-02,-5.04692935e-02, 2.22527258e-03, 8.78097608e-03,
  -1.30033681e-03,-4.69959634e-02,-4.72437091e-02,-5.89952407e-02,
  -4.79025555e-02,-2.11284489e-02, 3.24602525e-03, 1.31077612e-02,
  -6.98798024e-02,-4.85668190e-02,-6.30383095e-02, 1.01689234e-02,
  -2.35300188e-02,-8.19363204e-03, 1.37284350e-02,-1.22965572e-02,
  -2.21542368e-02,-5.58330855e-02,-1.49367372e-01,-7.40179600e-02,
  -6.14997745e-02,-3.23360000e-02,-5.99006813e-02,-5.06701785e-02,
  -7.86187074e-02,-9.48910915e-02,-4.93357130e-02, 1.02439135e-02,
  -1.17726029e-02,-4.68721134e-02,-3.43235399e-02,-7.29425575e-02,
  -4.10288979e-02,-3.73047829e-03,-1.24482335e-02,-7.81138817e-03,
   3.67528712e-02,-8.04196729e-02,-1.01352672e-01,-8.89139988e-02,
  -1.69696237e-01,-2.44402531e-03, 1.60659154e-03,-8.29228315e-02,
   9.74092117e-02, 2.17138552e-02,-2.73446824e-02,-1.02128122e-03,
   1.19070439e-02, 6.00832302e-02, 4.08528126e-03,-1.18828588e-02,
   9.35947843e-02, 2.67699274e-02,-4.16507715e-03, 9.96311252e-02,
   3.55819842e-03,-4.43019832e-02,-7.95582299e-02,-9.44878968e-02,
  -4.63803485e-02,-3.22864271e-02, 3.17080874e-02, 3.43008560e-02,
   5.81067507e-03,-9.73992318e-02,-8.62721541e-02,-2.09904298e-01,
  -1.64640860e-01,-1.00885571e-01,-5.50297878e-02,-6.33810146e-02,
   5.25701605e-02, 1.46357148e-02,-7.56515077e-02, 1.19583224e-01,
   1.40317932e-01, 2.15076713e-01, 1.41768721e-01, 1.41603889e-01,
   1.79048214e-01, 1.32013273e-01, 9.23907151e-02, 8.01956415e-02,
  -2.02811864e-03,-5.77122082e-02,-7.72464335e-02,-7.05653468e-02,
  -3.02656111e-02,-7.69033680e-02, 7.91621513e-02, 7.71912570e-02,
  -1.79796883e-03, 6.50090675e-03,-4.84388053e-02,-6.70383068e-02,
  -7.85331441e-02,-6.01218438e-02,-9.33364511e-02,-1.67200435e-01,
  -7.26213154e-03,-2.04686384e-02,-6.94309535e-02,-1.97202935e-02,
   6.87014894e-02, 1.41570233e-01, 1.36732545e-01, 1.12447234e-01,
   1.59499074e-01, 1.46783906e-01, 8.94341774e-02, 4.83131095e-02,
  -1.36445100e-02,-6.26255625e-02,-9.69601788e-02,-6.30982264e-02,
  -4.07323386e-02, 2.73009056e-02, 7.70976491e-02, 1.16050304e-01,
   9.40982858e-02, 6.43670041e-02, 5.51524280e-02, 1.03623770e-02,
  -4.44227502e-02, 1.41377058e-02, 5.04775400e-02,-2.66365646e-01,
  -1.30295482e-01,-2.64271937e-02,-1.00210340e-01,-4.83678086e-02,
   1.04405952e-01, 1.28738575e-01, 1.36813562e-01, 7.59883974e-02,
   5.35421566e-03,-2.94888921e-03,-9.29124072e-03,-4.13459128e-02,
  -1.23799945e-02,-8.15885357e-02,-8.55756437e-02,-8.03924892e-02,
  -5.76194303e-02, 7.42747264e-02, 1.01555602e-01, 1.43336797e-01,
   6.35446199e-02, 4.35056902e-02, 5.82304759e-02, 3.20943011e-02,
  -2.39804354e-02,-9.68235763e-02,-5.24395251e-02,-1.94114794e-01,
  -2.19097126e-01,-2.86600326e-02,-1.09545051e-02,-5.58863832e-02,
   4.12791731e-02, 9.60904776e-02, 6.33174749e-02,-3.84345028e-02,
  -1.20858886e-01,-1.81705821e-01,-1.42291529e-01,-1.04327384e-01,
  -4.23012747e-02,-1.34976590e-01,-2.03582465e-01,-1.22548238e-01,
  -1.47184618e-02, 1.83902354e-02,-2.19977538e-03, 2.28728955e-02,
   4.01921431e-02, 6.90300398e-02, 9.65183751e-03,-1.17795850e-03,
  -7.15247173e-02,-5.59902602e-02, 1.49941548e-03,-1.95771703e-01,
  -1.69903839e-01,-7.62208357e-02,-1.21941176e-02,-8.42332029e-03,
  -2.41302099e-02, 5.95111959e-02, 6.35599889e-03, 9.71102783e-03,
  -9.27576646e-02,-2.35290298e-01,-6.10941244e-02,-4.98588742e-02,
  -5.76759049e-02,-6.27285413e-02,-2.09182202e-01,-1.52784760e-01,
   3.91195937e-02, 9.01269174e-02, 1.73295748e-01, 1.20693560e-01,
   1.79203556e-02, 6.05822483e-02, 8.28340680e-02, 1.48936475e-01,
   4.13618539e-02, 3.95121327e-02, 2.40671889e-02,-1.41834237e-01,
  -5.86137135e-02,-1.02491602e-01, 3.63815970e-02, 3.32235898e-04,
   7.45256856e-02, 1.19584979e-01, 9.40177086e-02, 6.57165565e-02,
  -4.10175827e-02,-1.03937677e-01,-6.89287695e-02,-8.33088003e-02,
   1.31442037e-02, 7.86424566e-02,-1.48837217e-01,-1.32129226e-01,
  -3.74444848e-02, 1.13124019e-01, 1.21204279e-01, 7.36794643e-02,
   2.71719348e-02, 4.70984694e-02, 1.90820042e-02, 5.02040094e-02,
   9.74733913e-02, 2.55023412e-02, 1.33065633e-01,-7.44959003e-02,
  -5.98005030e-02,-8.51037253e-02, 6.33335653e-02, 6.26217871e-02,
   6.30777699e-02, 7.98426214e-02, 7.24843287e-02, 5.21368399e-03,
  -7.67748327e-02,-6.54150073e-02,-2.84306975e-02, 4.51080841e-02,
   6.23857122e-02, 3.17750858e-02,-1.19591325e-01,-7.88280726e-02,
  -4.76442234e-02, 4.44804628e-02, 2.06214842e-02, 3.94360806e-02,
   2.65662415e-02,-2.87872292e-02,-5.58745607e-02, 3.56903340e-02,
   4.25223867e-02,-4.23122190e-02, 7.79985927e-02,-8.09373276e-02,
  -7.48310185e-02,-1.39933279e-02, 3.83599597e-02, 2.58656326e-02,
   4.26507959e-02, 8.91233287e-03, 1.43665613e-03,-1.16532269e-01,
  -5.92735944e-02, 6.77123657e-03,-3.57410320e-02, 3.86220969e-02,
   6.39060859e-02, 1.99112198e-02,-8.63807734e-02,-6.92367379e-02,
  -6.95456192e-02, 1.92782253e-01, 1.13675801e-01, 7.63317790e-02,
   9.18865497e-02, 8.61778515e-02, 1.50320904e-02, 4.37509344e-02,
   5.00181192e-02, 2.62934250e-02, 4.61742864e-02,-1.07400494e-01,
  -4.50113130e-02,-3.62190367e-02, 7.74108018e-03, 5.09390444e-02,
   5.25007519e-02,-3.55846336e-02, 4.29444399e-02,-6.46168697e-03,
  -7.63682248e-02, 2.19095748e-02, 9.79821502e-03,-7.98266900e-02,
   2.88197874e-02, 5.60154625e-02,-3.16837242e-02,-2.86593449e-02,
  -4.77670007e-02, 6.35216608e-02, 6.61938489e-02, 4.85995965e-02,
   1.19732740e-01, 1.18886958e-01,-4.22084004e-03, 6.66308258e-02,
   2.42743379e-02, 3.55613481e-02, 8.06211831e-03,-1.15414144e-01,
  -6.73176876e-02,-1.25042797e-01,-4.12946406e-02,-9.16272094e-04,
  -5.14597288e-03,-2.46460311e-02, 7.51331896e-02,-1.51854601e-02,
  -1.16566244e-01, 5.44645769e-03,-1.84637318e-03,-4.84806049e-02,
   4.89577637e-03,-1.96361479e-03,-4.70954980e-02,-7.65427577e-03,
  -2.54574023e-02, 8.21122528e-02, 7.31623087e-02,-9.17771609e-02,
   1.04459167e-02, 2.10374461e-02,-2.75917591e-02,-8.16146266e-03,
  -3.13234590e-02, 3.42720357e-02, 6.57643697e-02,-3.39250863e-03,
  -8.37586196e-03, 8.74828588e-05, 2.09967401e-03,-3.87940564e-02,
  -3.05060757e-02, 2.32218786e-02, 1.12608870e-01, 4.69224125e-02,
  -5.06741261e-02, 2.16594536e-02,-5.97415318e-02,-4.11664122e-02,
   3.10947328e-03, 1.78842877e-03,-7.15297926e-02,-4.20567514e-03,
   4.80637898e-03, 8.19278258e-02, 1.06282739e-01,-9.42429775e-02,
  -2.29278436e-02, 2.28951574e-03,-5.03922030e-02,-3.89014378e-02,
   4.71035797e-03,-3.00138835e-02, 2.45364503e-02,-1.99179325e-02,
   2.85117988e-03,-6.14846635e-02,-5.76103766e-02,-5.11466246e-02,
  -2.83125824e-02, 5.83904509e-02, 1.29617619e-01, 8.03195817e-02,
  -2.99403680e-02,-1.36254296e-03,-5.53665743e-02,-1.21106812e-02,
   3.29084915e-02, 3.51187692e-02,-4.50373940e-02,-8.73543746e-03,
  -7.89404932e-04, 5.42507243e-02, 1.27275780e-01,-3.71553989e-02,
  -2.66641551e-02, 3.46421587e-02,-2.21297707e-02,-2.51285314e-02,
  -6.04809593e-02,-2.86858791e-02, 4.69520009e-02,-7.70103447e-02,
  -5.60898507e-02,-4.60688580e-02, 6.35066485e-03, 1.91654162e-02,
  -5.10371072e-02, 5.35023177e-02, 1.37493079e-01, 1.04693526e-02,
  -3.49627707e-02,-4.19782107e-02,-5.31941586e-02,-4.40430000e-02,
   4.72389768e-03,-4.50165740e-03,-2.86247769e-02, 4.63667478e-03,
   7.42074927e-02, 6.30025872e-02, 1.24988210e-01, 1.42853718e-02,
  -3.61022061e-02, 7.62739944e-02,-7.75968534e-02,-3.88838560e-02,
  -6.42435107e-02,-6.38037386e-02,-2.35871896e-02,-9.06504314e-02,
  -4.65669000e-02,-3.81327434e-02,-2.32245478e-02,-1.57317110e-02,
  -2.08799530e-03, 1.53754273e-01, 1.66945725e-01, 1.17866179e-01,
   3.90388681e-02,-4.85892387e-02,-2.25950270e-02, 1.35447860e-02,
   1.26280845e-02,-5.33276414e-03,-2.57131747e-02,-4.04539217e-02,
  -1.03056218e-03, 7.35929269e-02, 8.87368474e-02, 1.17349474e-02,
   1.16823326e-01, 1.32481343e-01,-1.14158451e-01,-8.70006752e-02,
  -1.38059842e-01,-1.90990462e-01,-1.18167246e-01,-1.50262748e-01,
  -1.12752263e-01,-9.95577537e-02,-5.70841223e-02, 4.18778546e-02,
   3.62139963e-02, 1.65254312e-01, 1.45451104e-01, 1.13292909e-01,
   2.74152265e-03,-6.91823143e-02,-2.77842259e-02,-2.01940947e-02,
   9.42360763e-03, 7.23376768e-03,-6.46043383e-02,-1.38781672e-01,
  -4.31905640e-02, 1.38570012e-01, 4.89426035e-02,-8.20824983e-02,
  -3.06391327e-02, 2.54217377e-02,-1.99061194e-01,-2.06556309e-01,
  -2.30343956e-01,-2.83694457e-01,-2.08865201e-01,-2.05574006e-01,
  -1.92320758e-01,-1.50583582e-01,-1.08419441e-01,-3.74078641e-02,
  -2.57070838e-02, 1.24510096e-01, 2.40804563e-01, 9.41139663e-02,
  -1.25283852e-01,-1.27432551e-01,-6.53334439e-03, 1.35336001e-02,
   5.66403758e-03, 5.62808990e-03, 3.21970495e-02, 5.42084283e-02,
   1.03760328e-01, 1.26928006e-01, 1.49846411e-01,-2.70567018e-02,
  -9.20220302e-02,-1.08598490e-01,-1.65529531e-01,-1.67274410e-01,
  -1.74699740e-01,-2.31878739e-01,-2.02645192e-01,-1.84638806e-01,
  -1.72231754e-01,-1.47243423e-01,-8.27533564e-02,-2.39755152e-02,
   3.84040535e-02, 1.38936002e-01, 1.21818356e-01, 1.29566672e-01,
   1.95589442e-02, 8.77157365e-04, 3.70968895e-02, 1.12692619e-02],
 [ 6.90238981e-03, 2.14764263e-02, 2.29819178e-02, 1.63284072e-03,
   2.90182006e-02, 5.36946240e-02, 8.38912616e-02, 5.59564066e-02,
  -5.24529670e-02,-3.38009807e-03, 1.06908857e-01, 8.01516759e-02,
   1.71118732e-02,-3.81391367e-02,-4.04934002e-02, 3.11177827e-02,
   5.68358726e-02, 1.53207451e-01, 4.02945706e-02,-7.63390163e-02,
  -2.30891709e-02, 7.50681074e-02, 4.22498301e-02, 3.12273816e-02,
   1.12312454e-02,-3.34097320e-03, 1.40641161e-03, 2.76218494e-02,
   8.71258313e-03, 4.70611879e-03, 1.65021344e-02, 4.73023526e-03,
   1.81422669e-02, 7.23768655e-02, 8.82340262e-02,-1.92975380e-02,
   5.08138704e-02, 2.00733060e-01, 8.69377094e-02, 4.31852197e-02,
   8.56288395e-02, 7.21362184e-02, 7.26943337e-02, 5.51555679e-03,
   1.38502674e-02, 2.22095448e-02, 1.09584526e-01, 5.36034258e-02,
  -7.71541840e-02,-1.05725191e-02, 2.34106003e-02, 1.22287225e-02,
  -2.50246328e-03, 7.66567635e-03, 4.26469742e-03, 3.93328722e-03,
   3.17472903e-02, 3.36646104e-02, 3.75273235e-03, 1.49941235e-02,
   4.54480801e-03, 2.76891094e-02, 6.44718476e-02, 7.60672272e-02,
   1.25176938e-01, 7.80882997e-02,-7.26423238e-02, 1.28369984e-02,
  -9.64506220e-03, 4.95256357e-02, 3.10857093e-02,-7.23083815e-02,
  -2.92677535e-02,-6.00890196e-02, 3.96131183e-04, 3.01281549e-02,
   9.61529925e-03,-1.09658926e-02,-4.38996393e-02,-7.03072800e-02,
  -4.76455169e-02,-3.81495964e-03, 1.40698568e-02, 3.53029795e-03,
   2.81690964e-02, 9.58542658e-03, 3.42428702e-03,-4.76438823e-03,
  -5.58767245e-03, 4.53465081e-02, 6.59349958e-02, 1.12689160e-01,
   3.33632574e-02,-4.78263703e-02,-8.86532104e-03, 8.27476482e-02,
   4.55410910e-02, 3.45049254e-02, 6.68092784e-02, 1.58149174e-02,
   1.26192724e-02,-4.25876187e-02,-3.93104515e-02,-7.86290989e-02,
   3.10877075e-02,-1.15669689e-02,-3.30774215e-02,-8.32137741e-02,
  -6.26539900e-02,-4.30149274e-03, 1.16514808e-02, 9.39513772e-03,
   9.26593626e-03, 2.14848321e-02, 9.92887652e-03, 5.02556597e-03,
  -2.13006943e-02, 3.86730785e-02, 8.18580794e-02, 1.29187896e-01,
   7.62010509e-02,-1.00633193e-01, 4.02828591e-02, 9.72282055e-02,
  -2.89146765e-02,-1.31875769e-02, 1.81756360e-02, 1.13866957e-02,
  -1.45787086e-02,-1.49709724e-02,-6.09446279e-02,-9.32471054e-02,
   3.97327881e-02, 2.14680820e-02,-4.31061296e-02,-7.27108518e-02,
  -9.00943355e-02,-1.70798926e-02, 2.08683170e-02, 3.39874985e-02,
   1.98990006e-02, 1.65647586e-02,-5.02251854e-03,-1.01565726e-02,
  -5.64130964e-02, 2.58128757e-02, 5.38854021e-02, 1.27298536e-01,
   8.16533574e-02, 4.56525978e-02, 8.84413330e-02, 5.26842217e-02,
   3.90076648e-02,-4.51410103e-02,-4.14137842e-02, 1.88732741e-03,
  -1.56792505e-02,-4.90447232e-02,-7.36942826e-02,-9.68895608e-02,
   1.82299805e-02, 2.63992400e-02,-2.78770190e-02,-8.57319687e-02,
  -5.80303027e-02,-3.62811291e-02, 4.04432089e-02, 2.21864843e-02,
   1.35724984e-02, 3.32919209e-02, 1.70056764e-02,-8.45602541e-03,
  -1.80588283e-02,-5.89852391e-03, 6.15474489e-02, 5.72427722e-02,
  -2.92246826e-02, 7.69158520e-02, 8.72510600e-02, 2.62212103e-03,
   8.18582324e-02,-1.20874532e-02, 8.27078364e-03,-3.95611267e-02,
  -1.48976810e-02,-5.24703008e-02,-6.83268577e-02,-1.39088381e-01,
  -8.19261025e-03, 1.26127755e-02,-6.70163077e-02,-1.00022960e-01,
  -5.59740956e-02,-2.60306008e-02, 8.94897942e-03, 1.84754378e-02,
   7.37876529e-03, 1.86676650e-02,-1.21014369e-02,-2.61358763e-02,
  -2.89772106e-03, 1.89309314e-02, 7.88461247e-02,-2.66762275e-02,
  -9.58863670e-02, 8.17614330e-02, 9.06147757e-02, 8.09555989e-02,
   7.46689594e-02, 4.01791334e-02, 7.14974536e-02, 2.96785720e-02,
   2.58789629e-02,-5.96310308e-02,-6.66629192e-02,-1.21304198e-01,
  -5.67105329e-02, 3.25381241e-02,-2.08612781e-02,-1.02249652e-01,
  -6.58658397e-02,-4.08684511e-02,-2.93881339e-02, 3.54778269e-02,
   1.92989040e-02, 1.02032071e-02,-4.22166764e-03,-3.38364928e-02,
  -2.32388419e-02, 4.43532356e-02, 7.26251412e-02,-5.04928901e-02,
  -5.51060859e-02, 4.98528983e-02, 2.64061657e-03, 8.14033771e-02,
   3.80939320e-02, 3.97796241e-02, 1.19434304e-02, 1.33544256e-03,
   1.87473304e-03,-7.82202749e-02,-1.55613475e-01,-9.00187354e-02,
  -2.61811016e-02, 4.09379986e-02,-2.33422179e-02,-1.06006501e-01,
  -1.02509118e-01,-6.49413169e-02,-2.44436683e-02, 1.41188652e-02,
   3.69728908e-02, 2.75848635e-02,-1.49109872e-02,-2.51875210e-02,
  -1.54506930e-02, 7.13497261e-02, 7.80282795e-02, 1.43100310e-02,
  -6.96365261e-02,-5.47389601e-02,-4.07196783e-02, 5.91648244e-02,
   5.31364208e-02,-5.28232547e-03, 2.49884923e-02,-1.08538301e-02,
  -8.07376854e-03,-5.45896680e-02,-2.07218165e-01,-7.21235042e-02,
   8.73592046e-03, 5.32960561e-03,-1.03173034e-02,-6.21534602e-02,
  -5.23901374e-02,-4.38759333e-02,-1.26190602e-02, 5.88564238e-03,
   3.27241183e-02, 3.81656471e-02, 4.96922818e-03, 3.19822659e-02,
   7.71389124e-03, 1.89659445e-02, 1.23413534e-01, 9.12273814e-03,
  -8.13871834e-02,-6.12842575e-02, 4.31937410e-02, 6.26897934e-02,
   6.76865583e-02, 2.97961099e-02, 3.87331236e-02, 2.25955848e-02,
  -4.68607738e-03, 1.72655526e-02,-1.59519587e-01,-1.21880502e-01,
  -6.34709627e-02, 2.82947729e-02, 8.05789397e-03,-6.73097416e-02,
   1.28719912e-02,-2.91286392e-02,-2.01533281e-02, 1.67684194e-03,
   3.11028662e-02, 4.91065486e-02, 1.69819535e-02, 5.82970506e-02,
   3.63253675e-02, 4.94225760e-02, 8.07202217e-02,-2.84857860e-02,
  -1.29540626e-01,-5.83792922e-02, 4.12116622e-02, 3.79231989e-02,
   4.57929456e-02,-1.83091162e-02, 1.54882950e-02,-2.70011447e-02,
  -5.27362770e-02,-2.69698362e-02,-1.07997828e-01,-1.14319071e-01,
  -4.49820815e-02, 2.95404453e-02, 2.10557358e-02,-3.67030323e-02,
  -3.35898988e-02,-2.32618923e-02,-2.68460166e-02, 2.28845918e-02,
   5.45845740e-02, 5.90306273e-02, 4.11102562e-02, 7.38335736e-02,
   2.57273575e-02, 7.84981305e-02, 5.44971656e-02,-1.76636237e-02,
  -1.09308141e-01,-8.83982216e-02, 3.45276929e-02, 1.69603886e-02,
   3.02420119e-02, 1.80766147e-02, 1.87853951e-02,-2.61861110e-02,
  -8.48116913e-02,-2.78548456e-02,-3.72192771e-02,-7.22885061e-02,
  -2.34388860e-02, 3.73607380e-02, 1.11196001e-02,-7.53926126e-02,
  -2.65872612e-02,-5.68660542e-03,-2.42854148e-02, 3.97931265e-02,
   3.29790699e-02, 1.26847830e-02, 6.82268584e-02, 6.24365763e-02,
   4.93056062e-02, 4.23168234e-02, 3.57369791e-02,-6.27933876e-02,
  -5.36931539e-02,-2.39489514e-02, 7.29372135e-03,-6.50065933e-03,
  -3.36130524e-04, 2.00496353e-02, 5.48194236e-03,-3.74054858e-03,
  -4.71743701e-02,-2.81369225e-02,-3.49476852e-02,-6.09201710e-02,
  -4.50826743e-02, 1.77477590e-02, 2.91229063e-02,-1.48856745e-02,
   7.87917908e-03, 4.29912148e-02,-7.62961144e-03, 3.01414808e-02,
   1.35298229e-02, 1.31656842e-02, 5.67778485e-02, 2.67518911e-02,
   2.40403204e-02, 4.47231440e-02, 2.44629058e-02,-4.93768224e-02,
  -4.63524090e-02,-3.15718107e-02,-1.48126932e-02,-4.02406304e-03,
  -4.34680141e-03,-1.81630126e-02,-3.41378335e-02,-5.09229280e-02,
  -6.22502475e-02,-4.06721793e-02,-2.49045930e-02,-5.29085626e-02,
  -3.83055053e-02,-5.13845631e-02, 2.53770161e-02,-4.25336758e-02,
  -3.31125261e-02, 3.15107686e-02,-2.61291000e-02, 4.58383897e-02,
  -3.82963221e-03, 6.95845449e-04, 5.25927308e-02, 6.53847028e-02,
   7.13328346e-02, 1.55076779e-02, 2.12285203e-02, 1.35324790e-02,
   4.49167798e-02,-5.04539023e-03,-3.39957645e-02,-3.82493643e-02,
  -9.41613167e-03, 3.97643178e-02, 1.64111542e-02,-5.93879112e-02,
  -7.28622616e-02,-2.99982233e-02,-6.00416215e-02,-5.72963322e-02,
  -3.95346338e-02,-6.49430068e-02, 5.31498433e-03,-5.30808477e-03,
   1.76639977e-02, 2.91397310e-02,-1.63794818e-02, 3.14136865e-02,
   1.01121118e-02, 2.75703396e-02, 6.64182744e-02, 7.65514123e-02,
   5.34191064e-02, 6.91073246e-02,-1.94606380e-02,-1.51697182e-02,
   5.28805005e-02, 1.00938110e-02,-5.27912019e-03,-5.15277926e-02,
  -6.04694784e-02, 6.29728995e-03, 2.58995939e-02,-1.97853028e-02,
  -2.15039888e-02,-2.67292309e-02,-3.55332503e-02,-4.90497263e-02,
  -1.97961034e-02,-6.43571282e-02, 3.38990074e-02, 5.99057625e-02,
   4.22375895e-02, 3.00385768e-02, 1.77600144e-02, 2.91772570e-02,
   6.45700936e-02, 5.45170146e-02, 5.46320137e-02, 4.37958592e-02,
   5.63891455e-02, 5.91835701e-02,-1.43609167e-02, 5.11791745e-02,
   4.61390362e-02, 7.58340295e-03, 2.84787331e-02,-2.87133219e-02,
   3.40172095e-03, 5.87600664e-02, 4.51604008e-02,-2.20924106e-02,
  -4.77499823e-02,-6.75097521e-02,-3.10133783e-02,-4.13084401e-02,
   1.11441323e-02,-1.76070437e-02, 3.53947515e-02, 4.19869734e-02,
   4.13759094e-02, 1.33592683e-03, 2.11308307e-02,-1.39172703e-02,
   3.17652143e-02, 6.60984542e-02, 5.50007254e-02, 1.55123628e-02,
   4.96515966e-02, 9.67093494e-02, 3.86723803e-02, 7.41218387e-02,
   5.46372969e-02, 3.00092421e-02, 2.04407925e-02,-1.75123652e-02,
   3.43143386e-02, 7.32224406e-02, 4.60305251e-02,-3.15126268e-02,
  -3.44394172e-02,-8.89592134e-02,-7.67792909e-05,-1.04296171e-02,
   7.54323618e-02, 6.65014082e-03, 1.05936591e-02, 4.78460453e-02,
  -1.36841525e-02,-2.19948984e-02,-7.30815464e-04,-8.11550198e-03,
  -2.71094040e-03,-2.55090391e-02,-2.05445773e-03, 3.07139548e-03,
   7.84350154e-02, 4.13598377e-02, 1.07331714e-01, 1.13259152e-01,
   4.51848380e-02,-1.11981830e-02,-3.12807387e-02,-1.72298719e-03,
  -1.82740712e-02, 3.86261171e-02, 4.42348448e-02,-1.87611454e-02,
  -3.84702993e-02,-4.05502408e-02,-3.69513733e-02,-8.63518689e-04,
   5.55378553e-02, 5.61337973e-02, 6.09774916e-02, 3.39698909e-02,
   3.32658041e-03,-2.73556947e-02, 1.38250492e-02, 3.72399452e-02,
  -1.30480814e-02,-2.29015772e-02,-2.16119899e-02,-3.88636908e-02,
   2.98104251e-02, 6.41560716e-02, 8.77106727e-02, 4.64647595e-02,
  -1.66359227e-02, 4.94031940e-02, 2.06912782e-03,-2.86578120e-03,
  -1.95152739e-02, 4.74292506e-02, 9.03369275e-02, 5.86799385e-03,
   2.49361905e-02,-2.10305935e-02,-1.34831657e-02, 1.45366540e-02,
   2.58374705e-02, 5.54151053e-02, 3.97624201e-02, 2.32493947e-02,
   3.30646378e-02,-4.56753032e-02, 6.94856723e-03, 4.42827668e-02,
  -8.38682272e-03, 5.92324236e-03,-3.44697484e-02,-4.98207250e-02,
   1.28880642e-02, 8.66201997e-03, 4.30078247e-02, 4.55695247e-03,
  -1.03746217e-02, 3.76332426e-02, 2.23151969e-02, 3.85692063e-02,
   8.87865174e-04, 3.58486295e-02, 1.16629840e-01,-3.01325254e-02,
  -3.12970805e-02,-4.51335394e-02,-3.17103442e-02, 3.32482710e-02,
   7.18878615e-02, 4.13008818e-02, 4.59467535e-02, 5.24374225e-02,
   1.31822153e-02,-1.39563964e-02, 7.39590984e-03, 2.15186171e-02,
   9.72974597e-03,-2.17978412e-02, 2.34609821e-02, 1.04903688e-02,
   9.66474261e-03, 3.62429438e-02, 3.84554265e-02,-2.43791244e-02,
   3.04123618e-03, 1.96047345e-02, 1.89525351e-02, 9.70324758e-03,
  -2.00920129e-02, 2.08938102e-02, 4.37614149e-02,-3.38506283e-02,
  -6.24444989e-04,-2.93002237e-02,-2.59477108e-02, 1.29430571e-02,
   8.59108987e-02, 6.78890903e-02, 7.57401458e-02, 4.69320485e-02,
   4.96575031e-02, 2.71741275e-02, 1.04547437e-02, 2.50612195e-02,
  -3.59337088e-04,-2.82034839e-02, 2.10620450e-02,-2.18717527e-03,
   6.25579844e-02, 4.71873712e-02, 6.75238268e-03,-5.82713196e-02,
   1.89545000e-02, 4.49439992e-02, 2.51314984e-02, 2.46461462e-02,
  -6.34045277e-04, 2.88686237e-02, 1.89500148e-02,-9.41842215e-03,
  -2.01204326e-02,-7.81368563e-03,-4.69985208e-03, 2.30535435e-02,
   4.85316034e-02, 5.54363005e-02, 8.56226524e-02, 3.46209067e-02,
   5.87095177e-02, 2.79027051e-02, 7.45934485e-05, 3.50155281e-02,
   9.19839762e-03,-2.41929362e-03,-1.55374837e-02,-7.32390555e-03,
   4.82398460e-02, 3.19244035e-02, 7.47847862e-04,-3.74844133e-02,
  -2.49102480e-02, 1.84258351e-03,-4.85410737e-03, 2.21354746e-03,
  -4.27493312e-02, 1.50758279e-02, 7.88618537e-02,-2.73001383e-02,
   1.27365504e-02, 2.10146361e-02, 4.81345053e-02, 6.14426286e-02,
   3.61550303e-02, 5.97291953e-02, 7.29052977e-02, 1.12023147e-02,
   4.94835790e-02, 4.12557222e-02, 1.86153812e-03, 1.20909061e-02,
   2.78025040e-02, 1.22263736e-03,-2.83098219e-03, 2.45216871e-02,
   1.06791506e-02, 7.72319335e-02, 4.84160348e-02, 1.61565469e-02,
   2.38470195e-02,-6.43283994e-03, 1.06727709e-02, 8.05831771e-03,
  -3.33225932e-02, 5.43840506e-02, 7.33617063e-02,-1.00769562e-03,
   6.20648907e-02, 7.76719728e-02, 1.94455680e-02,-1.83781377e-02,
   4.69384548e-02, 9.37024075e-02, 1.22417583e-01, 4.91121763e-02,
   5.60882045e-02, 4.28269603e-02,-9.77765232e-03, 1.91445857e-02,
   1.67119010e-02, 3.47507939e-02, 3.09243730e-02, 2.51409414e-02,
   2.91787215e-03, 2.24573340e-02, 5.63944773e-02, 1.76494577e-02,
   1.44063713e-02,-4.45531701e-02,-4.21724405e-02, 1.37178561e-02,
  -1.60109479e-02,-2.30348731e-02,-3.61805944e-03,-2.45775114e-02,
   1.70173546e-02,-4.25566085e-03,-5.81739439e-03, 2.37076354e-02,
   7.67171392e-02, 9.31031760e-02, 7.56690273e-02, 2.01909257e-02,
   1.69664890e-03, 2.13306028e-02,-2.05876605e-03, 1.43161469e-03,
   1.05329420e-02, 1.44944534e-02, 2.46354150e-02, 4.08760650e-02,
   2.28122660e-02, 1.03993349e-02,-2.79085774e-02,-5.11018064e-02,
  -1.67363003e-02, 2.68725696e-02,-1.75472781e-02,-6.56806318e-02,
  -6.24618087e-02,-5.46073003e-03, 3.09956916e-02,-6.32355948e-02,
  -1.21970672e-02,-2.09007606e-02, 1.66967477e-02, 7.30421596e-03,
  -5.84199992e-02,-4.58079256e-02,-6.43361709e-02,-9.89695659e-03,
   1.67411539e-02, 2.71094908e-02, 2.12597901e-02,-4.83494651e-04],
 [ 1.46929137e-02, 1.99125831e-02, 1.99003249e-02, 7.75468756e-03,
   2.02746957e-02, 1.22600348e-02, 9.81610199e-03, 3.28675321e-02,
   5.55524923e-02, 9.58765247e-02, 9.35402711e-02, 6.52854777e-02,
   6.35183480e-02,-1.57169812e-01,-1.72472818e-01,-3.16742092e-02,
   3.34144991e-02, 6.82396847e-02, 7.74770026e-02, 3.38677552e-02,
   5.67177389e-03,-1.75162772e-02,-2.64971312e-02,-3.84184394e-03,
   1.00232340e-02, 1.96114099e-02, 1.52061935e-02, 7.38666272e-03,
   1.28560108e-02, 4.43624904e-03, 1.93907267e-02, 4.48623488e-03,
   1.41809741e-02,-3.94960766e-02,-1.42710696e-02, 4.98361297e-02,
   9.12485023e-02, 5.87211464e-02, 3.08132340e-02, 3.45043186e-02,
   1.28190126e-01, 9.27444438e-02, 7.54810373e-02, 8.39710677e-02,
   9.38089905e-03,-1.92677896e-02, 6.98617846e-02, 4.86279567e-02,
  -2.00494400e-02,-5.41343019e-02,-1.23992564e-01,-6.77185147e-02,
  -1.92510756e-02,-3.16714596e-03, 1.06325381e-02, 1.88599524e-02,
   8.90095397e-03, 2.18747108e-02, 1.54149508e-02, 1.98734219e-02,
   2.11681099e-02,-1.74876060e-02, 5.92663614e-02, 8.15492322e-02,
   7.45704978e-02, 4.35607909e-02, 6.81057648e-02, 7.76774716e-02,
   5.37114066e-02, 1.24789360e-01, 1.50776197e-01, 3.33111630e-02,
  -1.55330987e-02, 2.55872858e-02, 1.43890011e-02,-1.99047019e-02,
  -2.49951592e-02,-3.57410237e-03,-3.48232924e-02,-7.24378983e-02,
  -4.15089773e-02,-3.22761255e-02,-2.17629066e-02, 8.99123737e-03,
   2.56746654e-02, 4.05053944e-03, 1.56879912e-02, 4.59890059e-03,
  -1.94616117e-02, 3.13237657e-02, 3.97784094e-02, 1.91697636e-02,
   8.33906164e-02, 6.50342698e-02,-8.21646893e-03,-1.80043786e-02,
   1.53718612e-02, 1.24391034e-02, 1.51223911e-02,-2.84320994e-02,
  -1.52207985e-02,-1.87526966e-03,-4.72850826e-02,-3.07554303e-02,
  -4.30528906e-02,-4.84959908e-02,-1.50816531e-02,-4.76561321e-02,
  -4.65940272e-02,-5.58544938e-02, 1.37645242e-02, 2.40352731e-02,
   1.52566231e-02, 3.06243457e-03, 2.86872179e-02, 2.62513776e-02,
  -1.67236097e-03, 9.18480974e-03, 3.37283466e-02,-9.43598047e-03,
   1.77307499e-02, 1.94386646e-02,-2.25716322e-02,-5.60652882e-03,
   1.22922926e-02, 1.02053068e-02, 6.69999525e-03, 2.01238768e-02,
  -6.59814711e-02,-2.39681465e-02,-2.83105519e-02,-3.93690687e-02,
  -5.99052364e-02,-6.45822193e-02,-1.91111185e-02,-5.36511229e-02,
  -4.80503994e-02,-4.77140049e-02,-2.45321388e-03,-5.96440759e-04,
   1.20495077e-02, 3.94017110e-03, 3.48565472e-02, 1.87097276e-02,
   3.27379019e-02, 4.08432667e-02, 4.41652968e-02,-6.63420347e-02,
   1.42585853e-02,-1.42543181e-02,-6.62287564e-03,-4.78864434e-02,
  -3.84938167e-02,-1.94752133e-02,-1.93273114e-02,-3.63390226e-02,
  -9.08974479e-02,-5.25362162e-02,-4.92247855e-02,-4.84768715e-03,
  -3.14626597e-02,-3.42257183e-02, 8.06103439e-03,-5.88890083e-02,
  -4.90470777e-02,-4.80962170e-02,-6.05160889e-03, 1.12559133e-02,
  -6.10242465e-03,-8.06709834e-03, 5.37481872e-02, 1.58642476e-02,
   9.94805204e-03, 2.83497116e-02,-1.63644900e-02,-1.31684664e-02,
   2.48562830e-02, 3.78332594e-02, 4.67562334e-02,-2.44557582e-02,
  -3.57322183e-02,-1.95928326e-02,-2.20841512e-02,-4.26352764e-02,
  -9.06403209e-02,-6.00211820e-02,-2.32701848e-02,-2.18890956e-02,
  -4.66089408e-02,-8.51820588e-02,-1.73548410e-02,-4.51112763e-02,
  -7.79628408e-02, 3.49958483e-04, 2.87622756e-02, 2.42012331e-02,
   1.38387927e-02,-2.97144603e-03, 4.11693883e-02, 3.12935169e-02,
   1.97633487e-02, 2.26389771e-02, 9.73944485e-03, 3.86997100e-02,
   6.85596081e-02, 4.61910585e-02, 1.68476945e-02,-1.03239691e-02,
   1.40989949e-02, 5.13507614e-03,-1.98418296e-02,-3.59138506e-02,
  -1.96753317e-02,-4.52735575e-02,-2.44210261e-02,-1.87286080e-02,
   2.20341358e-02,-1.99777956e-02, 2.70078717e-02,-1.51026794e-02,
  -5.55953461e-02, 1.26222178e-02, 3.15728132e-02, 6.50595075e-03,
  -9.06977832e-03, 3.62618498e-02, 6.63433974e-02, 3.00650192e-02,
   4.73217964e-02, 3.70989204e-02, 2.75819611e-02, 6.80055887e-02,
   8.77595813e-02, 3.20907236e-02,-1.76720714e-02,-4.09628760e-02,
  -2.59668829e-02,-1.61266448e-02,-3.07028606e-02,-3.51451144e-02,
  -3.14178124e-02,-4.72848178e-02,-1.03651841e-01,-1.53389650e-02,
   6.13752071e-03,-4.93465548e-02,-9.78536075e-03,-7.10069969e-04,
  -2.93646842e-02, 3.80699023e-02, 3.88826117e-03,-9.15836951e-03,
  -1.27857207e-02, 6.53059328e-02, 4.66364975e-02, 1.40397566e-02,
   5.96451672e-02, 3.93203100e-02, 1.62558102e-02, 8.40042987e-02,
   7.93537582e-02, 5.08091108e-02, 1.59639549e-02,-1.78046481e-02,
   4.11111496e-02,-1.33835646e-03, 1.11394983e-02, 4.12804529e-02,
  -6.94030571e-02,-2.81999045e-02,-6.70811019e-02,-1.63835352e-02,
   2.35305921e-02,-3.09322778e-02,-3.64745344e-02, 2.32339885e-02,
   1.17108757e-02, 4.95000082e-02, 4.11947849e-02,-7.44366145e-03,
  -4.50680837e-03, 8.54344542e-02, 5.11060344e-02, 5.10751689e-02,
   3.86309578e-02, 5.67199742e-02, 1.89956645e-03, 1.13734449e-01,
   6.77000917e-02, 5.91968727e-02, 3.16680639e-02,-2.14267395e-03,
  -5.07510505e-03,-1.40756416e-02, 4.92210218e-03, 7.83294927e-03,
   1.25267228e-02,-4.48361367e-02,-3.44791452e-02,-2.41731600e-02,
   5.09981543e-02,-5.35813545e-02, 1.00844211e-03, 1.22680872e-02,
  -1.88996924e-02, 3.66318963e-02, 1.10569620e-01,-1.19505819e-02,
   2.11696567e-02, 6.75511347e-02, 9.82556471e-02, 2.59327231e-02,
   3.76074597e-02, 5.35045647e-02,-1.04953504e-02, 4.55979457e-02,
   3.09701754e-02,-1.29615384e-02,-5.22841060e-02,-3.54882301e-02,
  -1.18394311e-02, 2.09247588e-02, 2.22013301e-03, 1.21462798e-02,
  -4.12566936e-02,-7.75981791e-02,-3.22805907e-02,-4.67894273e-02,
   2.22615689e-02,-3.14715598e-02,-1.27226536e-02,-1.90793664e-02,
  -4.84003427e-02,-2.21414424e-02, 2.72217248e-02,-1.78780262e-02,
   3.76961030e-02, 5.62143901e-02, 5.47933041e-02, 1.55667722e-02,
   6.44808049e-04,-2.30295294e-02,-2.67431221e-02,-2.38801378e-03,
  -1.69907774e-03, 4.14204946e-02,-1.99193503e-02,-2.33514769e-02,
  -2.28405210e-03, 9.14433388e-03, 2.02096177e-02, 9.27699824e-03,
  -4.58466998e-02,-3.86035423e-02,-6.99556684e-03, 7.34534759e-03,
   4.05945247e-02, 4.83098867e-04, 7.81347525e-03,-1.32932180e-02,
   3.74474538e-02, 4.88321548e-02, 5.19645775e-02, 4.36082589e-03,
   5.03755570e-04, 4.97234646e-02, 2.17001483e-02,-3.65089417e-02,
  -1.97852940e-02,-1.94467295e-02,-8.82275597e-03,-5.44292923e-02,
   2.11677385e-02,-3.11944201e-02,-6.20405091e-02,-9.56234727e-03,
   3.15835264e-02, 4.98826206e-02, 1.18465592e-02,-7.05261227e-03,
  -5.15124288e-03, 1.05586165e-02,-7.39428173e-03, 8.65670174e-03,
  -1.29120101e-02,-1.66028429e-02, 1.36634432e-02, 1.26371878e-02,
   5.96178644e-02, 2.10693640e-02, 9.34870632e-02,-5.21190118e-04,
  -3.58705587e-02,-2.82117335e-03,-9.78175665e-03,-3.09322067e-02,
  -7.51121714e-03,-7.50283211e-02,-6.91323382e-02,-8.02183581e-02,
  -4.89538718e-02,-3.20129288e-02,-3.16528569e-02, 9.29804792e-03,
  -7.74463949e-03, 1.16052784e-02, 2.54794870e-02,-3.21542785e-03,
  -3.33693947e-02,-2.67408395e-02,-3.38991255e-03, 1.53832061e-02,
   4.00258067e-03,-9.35844536e-03,-3.90032455e-02, 8.22769520e-04,
   3.14948963e-03, 2.33674217e-02, 8.85804700e-02, 8.91560022e-03,
  -1.81600696e-02,-3.10890657e-02,-5.07281914e-03, 2.18956592e-02,
  -3.33713614e-02,-6.95950633e-02,-7.79933551e-02,-1.05007199e-02,
  -5.03752214e-02,-3.08495368e-02, 5.26133050e-02, 4.71122448e-03,
   2.52061023e-02, 1.83413528e-02, 1.42577705e-02, 2.48890246e-02,
  -1.61106905e-02,-1.95379814e-02,-1.59948866e-02, 5.33738906e-02,
   4.11579489e-02,-5.01870319e-02,-5.49982036e-02,-1.54930092e-02,
   1.54885903e-02,-7.09955969e-03, 7.34902069e-02, 5.87481246e-02,
  -8.10714108e-02,-6.10241119e-02, 1.27858881e-04, 1.60459815e-02,
  -3.28324371e-02,-6.54652210e-02,-5.50857156e-02, 2.25020638e-02,
   4.09821932e-02, 4.15084859e-02, 2.07947164e-02, 3.43574485e-02,
   2.15604708e-02, 4.23925880e-02, 1.67348556e-02,-2.75575839e-02,
  -8.87779982e-03,-7.79216584e-03,-6.82154825e-03, 7.48042888e-03,
   2.74929711e-03,-8.20082546e-03,-3.17162955e-02,-1.73582638e-02,
   3.04526004e-03,-2.15719969e-02, 4.35013907e-02, 7.30601929e-02,
